{"version":"0.5.4","metadata":{"date":{"year":2025,"month":12,"day":10,"hour":14,"minute":7,"second":53},"loudness":-15.438071250915527,"gain":0.8273888970629449,"name":"EVH 5150 Iconic 80W - Channel 2","modeled_by":"simonrose","gear_type":"amp_cab","gear_make":"tz-make","gear_model":"tz-model","tone_type":"overdrive","input_level_dbu":null,"output_level_dbu":null,"training":{"settings":{"ignore_checks":false},"data":{"latency":{"manual":null,"calibration":{"algorithm_version":1,"delays":[27],"safety_factor":1,"recommended":26,"warnings":{"matches_lookahead":false,"disagreement_too_high":false}}},"checks":{"version":3,"passed":true}},"validation_esr":0.01254025566092476}},"architecture":"WaveNet","config":{"layers":[{"input_size":1,"condition_size":1,"head_size":8,"channels":16,"kernel_size":3,"dilations":[1,2,4,8,16,32,64,128,256,512],"activation":"Tanh","gated":false,"head_bias":false},{"input_size":16,"condition_size":1,"head_size":1,"channels":8,"kernel_size":3,"dilations":[1,2,4,8,16,32,64,128,256,512],"activation":"Tanh","gated":false,"head_bias":true}],"head":null,"head_scale":0.02},"weights":[-0.00415003253147006,0.4020724296569824,-0.8397973775863647,-0.7464571595191956,-0.3699966073036194,0.27974438667297363,-0.0561189167201519,0.8217165470123291,-0.0776890367269516,0.08574360609054565,-0.4103643000125885,-0.0003293231420684606,-0.9429202079772949,-0.6548483371734619,-0.4645378887653351,-0.04959186539053917,0.158279150724411,-0.03814239799976349,-0.1614598035812378,-0.2406163066625595,0.1876497119665146,0.14754661917686462,0.15356624126434326,-0.025705356150865555,-0.045343928039073944,0.19861948490142822,-0.004223654977977276,-0.157929465174675,0.10031232237815857,-0.15988540649414062,-0.06990239024162292,-0.05570456385612488,0.03909866139292717,-0.04548667371273041,0.08456601947546005,-0.2546299695968628,-0.09782814234495163,-0.06201532110571861,0.1956251561641693,0.08899453282356262,0.20783714950084686,-0.16127780079841614,0.04560662806034088,-0.2875548303127289,0.019826719537377357,-0.0553610622882843,0.28383246064186096,-0.044780343770980835,-0.08184795081615448,0.07793403416872025,-0.043428294360637665,0.04586511850357056,0.24074049293994904,-0.1146809309720993,0.07341939210891724,0.09871350973844528,-0.10425905883312225,-0.13219209015369415,0.0888902097940445,-0.2030169516801834,0.048090964555740356,0.25285786390304565,-0.19896146655082703,0.04798687621951103,-0.0016499558696523309,-0.011742454022169113,-0.0303465835750103,0.07847898453474045,0.01674983650445938,0.1257769912481308,-0.1547582894563675,0.020895471796393394,0.06722375005483627,0.07375354319810867,0.19769838452339172,0.13725151121616364,-0.01726558990776539,-0.05412368103861809,0.02265622280538082,-0.03617618978023529,-0.1952946037054062,0.12986694276332855,0.034788455814123154,-0.10274357348680496,0.00880900677293539,0.021015826612710953,-0.09586679190397263,-0.07450131326913834,-0.004845951683819294,-0.03528178855776787,0.035582125186920166,0.10983855277299881,0.03015364520251751,0.042298875749111176,-0.1963111311197281,-0.02926478534936905,0.07295677065849304,-0.02245010808110237,-0.06728609651327133,-0.057338155806064606,0.09140931814908981,0.1699465811252594,-0.05271167680621147,-0.08092357963323593,-0.06447205692529678,0.0076914080418646336,-0.15870492160320282,-0.044747721403837204,-0.004241614136844873,-0.1342175006866455,-0.09389205276966095,-0.010356062091886997,-0.04434612765908241,0.038128796964883804,0.1576823890209198,-0.1123049259185791,0.09342972934246063,-0.13665729761123657,0.009106620214879513,-0.09898322075605392,0.20846854150295258,-0.0011088004102930427,-0.20229549705982208,0.22080254554748535,-0.14099428057670593,-0.20759272575378418,0.12547585368156433,-0.06478376686573029,0.07284701615571976,-0.278581827878952,0.0015427826438099146,-0.05841897800564766,0.09850059449672699,0.0017608489142730832,0.23257406055927277,-0.1719927340745926,0.03196066617965698,-0.09127944707870483,0.23432424664497375,0.07811164855957031,0.22823938727378845,-0.07774852216243744,0.13677038252353668,-0.13231408596038818,0.03847890347242355,-0.0768384113907814,-0.024048233404755592,0.0024568368680775166,-0.08288365602493286,-0.24295146763324738,0.016261985525488853,-0.12912647426128387,-0.15704263746738434,0.23561416566371918,0.07098454236984253,-0.26693612337112427,0.24965699017047882,-0.04738331213593483,-0.11012808233499527,0.17062132060527802,-0.05175439640879631,-0.01935022696852684,-0.18100981414318085,-0.18864750862121582,-0.07549402862787247,0.07656668871641159,0.004186421632766724,0.11264618486166,-0.20758160948753357,0.057474490255117416,0.18291844427585602,-0.138241246342659,0.1910093128681183,0.09983356297016144,-0.21928313374519348,0.027690285816788673,-0.06516682356595993,0.022499559447169304,0.1274123638868332,-0.11753711104393005,-0.13103581964969635,-0.09782817214727402,0.048778120428323746,0.12335701286792755,0.1079169437289238,0.07541312277317047,-0.15979702770709991,-0.0695720762014389,-0.14783155918121338,0.18804186582565308,0.17230603098869324,0.14165064692497253,-0.19857743382453918,0.0242852084338665,-0.0573207288980484,-0.08911047130823135,-0.015600332990288734,0.10592597723007202,-0.16414369642734528,0.061373014003038406,0.05909653753042221,0.008818543516099453,-0.04322534427046776,-0.04704880341887474,-0.16888877749443054,0.07955114543437958,-0.0716293454170227,-0.06036999821662903,0.014589001424610615,-0.10269049555063248,-0.03019975870847702,-0.02993888221681118,0.10055768489837646,-0.06362474709749222,0.0010581983951851726,-0.06601905822753906,-0.07765448838472366,-0.07100878655910492,0.03402005881071091,-0.0811627060174942,-0.007407790049910545,0.06025254353880882,0.08977296203374863,-0.018013019114732742,-0.06131888926029205,0.016696520149707794,-0.060991186648607254,-0.09338264167308807,0.02445255033671856,-0.026010483503341675,0.08341166377067566,0.08115455508232117,0.031758397817611694,0.060177043080329895,0.14808496832847595,-0.09828034788370132,0.13564635813236237,-0.1489206850528717,-0.048340506851673126,-0.035163894295692444,0.09066472947597504,0.07928541302680969,-0.12960955500602722,-0.012906263582408428,0.07853768020868301,-0.22225485742092133,0.1398461014032364,-0.1130329892039299,-0.07846478372812271,0.014590470120310783,-0.07109648734331131,-0.061764951795339584,0.1588345170021057,0.03100232407450676,-0.08225362747907639,0.08153768628835678,-0.09015476703643799,0.02844012901186943,-0.003784886561334133,-0.07198145985603333,0.005751121789216995,0.0020127862226217985,0.04785705730319023,0.017540303990244865,0.13749262690544128,-0.07404514402151108,-0.131516695022583,0.12917131185531616,0.09654760360717773,-0.04724748805165291,0.02352825179696083,-0.050109997391700745,-0.057872917503118515,-0.06855642795562744,-0.06156429275870323,-0.1764632910490036,0.26131340861320496,-0.06757797300815582,0.07333550602197647,-0.04841752350330353,0.010579387657344341,-0.15073056519031525,0.018472915515303612,0.12079045921564102,0.09084507077932358,0.015576059930026531,-0.06568196415901184,-0.03798042982816696,0.06859996169805527,0.014252867549657822,-0.14264287054538727,0.08309648931026459,0.018385248258709908,-0.09428822249174118,0.05340053141117096,-0.11354463547468185,0.010225707665085793,-0.018303006887435913,0.034962933510541916,-0.13697859644889832,0.022172344848513603,0.06547410041093826,-0.12519200146198273,0.18009841442108154,-0.06047997251152992,-0.26871758699417114,0.09250439703464508,0.15491527318954468,0.15593214333057404,-0.24933013319969177,-0.21615616977214813,-0.12344884872436523,0.2899293303489685,-0.14935895800590515,-0.04621867462992668,0.33458051085472107,-0.16765835881233215,-0.09434229135513306,0.30425065755844116,0.09394572675228119,0.09406786412000656,-0.23559756577014923,-0.17942403256893158,-0.06395728886127472,0.3552863597869873,0.22423312067985535,0.18097913265228271,-0.2254105508327484,0.012037658132612705,-0.12713120877742767,0.15842922031879425,-0.07551124691963196,0.19763773679733276,-0.168138325214386,-0.1888452023267746,-0.03458453714847565,0.36043182015419006,0.0787963718175888,0.004418565426021814,0.22694291174411774,-0.1283498853445053,-0.14931556582450867,0.35886529088020325,-0.01268095150589943,-0.18460753560066223,0.3717499375343323,-0.027333058416843414,-0.021340971812605858,0.1529122292995453,-0.2106153517961502,-0.3132631182670593,0.19030919671058655,-0.1242736279964447,0.03771442547440529,-0.017160482704639435,0.28666502237319946,-0.03916897624731064,0.012355676852166653,-0.3331512212753296,0.019982999190688133,-0.03416787087917328,-0.3731360137462616,-0.127044677734375,0.17711584270000458,-0.14937186241149902,0.12560801208019257,0.181440532207489,0.1009862944483757,-0.0894518494606018,-0.08555708080530167,-0.277295857667923,0.12165980786085129,-0.02299819327890873,0.16194802522659302,-0.12882646918296814,-0.14789018034934998,-0.07701168209314346,0.12769117951393127,0.1942325085401535,0.2857475280761719,0.10856615751981735,-0.12538054585456848,-0.1614094227552414,0.12986914813518524,0.1278659552335739,0.005323848221451044,0.026098448783159256,0.061494503170251846,-0.2822677791118622,0.05771968886256218,0.08109793812036514,-0.26242712140083313,-0.09148910641670227,-0.015544230118393898,-0.3470836281776428,0.08022676408290863,0.16050410270690918,-0.17511555552482605,-0.03184483200311661,0.2233431339263916,0.13137277960777283,-0.0389549545943737,-0.05259643495082855,0.1395457684993744,0.14658403396606445,-0.14816223084926605,0.12753507494926453,0.018476704135537148,-0.009968113154172897,0.07340550422668457,-0.1709507256746292,0.021045725792646408,0.1181279644370079,-0.07889971882104874,-0.05381500720977783,-0.04928135499358177,0.03615531325340271,-0.0866345539689064,0.035814616829156876,0.07352977246046066,0.0799366757273674,-0.08115268498659134,0.09504038840532303,0.022291939705610275,0.08992887288331985,-0.18775764107704163,0.055175743997097015,-0.11376647651195526,0.007963912561535835,-0.0031995652243494987,-0.10695939511060715,-0.031214166432619095,0.17323532700538635,0.024612870067358017,-0.1665838211774826,-0.07253610342741013,0.02151588164269924,-0.20055906474590302,0.11390849947929382,-0.1381864845752716,-0.2266797125339508,-0.09510067105293274,-0.03266225382685661,0.01438846718519926,-0.08478949964046478,0.1347907930612564,-0.12474628537893295,0.1175946593284607,0.04682917520403862,-0.15483054518699646,0.2136104851961136,0.14006558060646057,0.24802757799625397,-0.02762494422495365,-0.1635306477546692,0.010289216414093971,0.11144839227199554,0.0030082620214670897,-0.22360984981060028,0.06357422471046448,-0.20671546459197998,-0.16284696757793427,0.13821108639240265,-0.05269942805171013,0.14684587717056274,-0.0337025411427021,0.0010911780409514904,-0.1616314798593521,0.03425934538245201,0.02161177434027195,0.17082174122333527,0.03505471721291542,0.04392530769109726,-0.09355873614549637,0.1874973475933075,-0.10198251903057098,-0.04401903599500656,-0.047910887748003006,-0.13858634233474731,-0.02804451994597912,0.01990123838186264,-0.07354991137981415,-0.16856539249420166,0.13387860357761383,-0.08157148212194443,0.0026401961222290993,0.19398124516010284,0.015146489255130291,-0.10239854454994202,0.06112973764538765,-0.09800566732883453,-0.0891941711306572,0.1785992830991745,-0.053365983068943024,0.11506932973861694,0.19153913855552673,-0.16678428649902344,-0.017234837636351585,0.032585471868515015,0.24099399149417877,-0.19385898113250732,0.14560088515281677,-0.045823875814676285,0.13782623410224915,0.07506082952022552,-0.19181007146835327,0.10282488912343979,0.015024399384856224,-0.15683898329734802,0.1050402969121933,-0.08715739846229553,0.19997765123844147,-0.10214588791131973,-0.011585639789700508,-0.038621820509433746,0.14728887379169464,-0.0908549576997757,0.1276637464761734,0.02624521218240261,0.02797507680952549,-0.06617417186498642,0.02387300692498684,0.006795049179345369,-0.013450628146529198,-0.1560979187488556,-0.04549258202314377,0.024978043511509895,0.02698778174817562,-0.03415614739060402,-0.09957010298967361,0.22522374987602234,0.10592561960220337,-0.22251935303211212,-0.05985284224152565,-0.1508471816778183,-0.11255165934562683,0.022311801090836525,-0.13633526861667633,-0.1680629998445511,0.08399192988872528,-0.12283831089735031,-0.03239389508962631,0.0718345046043396,-0.1145102009177208,0.04170059412717819,0.32654985785484314,-0.08722944557666779,-0.00006841560389148071,-0.2822164297103882,0.22368218004703522,-0.1292341649532318,0.09636757522821426,0.05262301117181778,-0.08650478720664978,0.2603357136249542,-0.10273341089487076,-0.032245319336652756,0.19022712111473083,-0.00586176011711359,0.012127067893743515,-0.3572048246860504,0.017943071201443672,-0.08729340881109238,0.2547200322151184,-0.21894679963588715,0.13354484736919403,-0.26129257678985596,0.06944356858730316,0.08073002099990845,0.2468896359205246,-0.009405337274074554,0.09406676143407822,-0.22867397964000702,0.004711540415883064,-0.01738067716360092,0.3452834486961365,-0.1512865424156189,-0.09524071961641312,0.25054657459259033,0.17219659686088562,-0.03660298511385918,0.1126401349902153,-0.2219383716583252,0.036854568868875504,0.21498245000839233,-0.16790911555290222,0.0319320484995842,0.28339025378227234,0.01889362558722496,0.0690804049372673,0.16019974648952484,-0.28099513053894043,-0.17427484691143036,0.17032846808433533,0.10142374038696289,0.12997610867023468,-0.19183962047100067,0.0798172578215599,0.06470616161823273,0.19797101616859436,-0.06942889839410782,-0.12677955627441406,-0.032071568071842194,0.18941304087638855,-0.13512593507766724,-0.002076557371765375,0.12648946046829224,0.01294560357928276,-0.1254470944404602,-0.05179630219936371,-0.09622975438833237,-0.07286431640386581,0.14809343218803406,0.008308659307658672,-0.016230789944529533,0.07383567094802856,-0.01016472838819027,0.057843539863824844,0.1432892382144928,0.06505715847015381,-0.13292114436626434,0.08658602833747864,-0.04274098947644234,-0.07398024946451187,0.010492034256458282,-0.12530021369457245,0.17519962787628174,0.03228827565908432,-0.20395950973033905,0.05884954705834389,0.14374642074108124,-0.032717909663915634,0.11300249397754669,0.06588828563690186,-0.02240416221320629,0.025922486558556557,-0.009762383066117764,-0.20365740358829498,-0.07622203975915909,0.0767732709646225,-0.15736742317676544,0.0015841557178646326,0.08496684581041336,0.051272910088300705,-0.08473382145166397,0.07824423164129257,-0.12069156020879745,0.11288028955459595,-0.052734751254320145,-0.0740179643034935,0.07048922032117844,0.0021694160532206297,0.07878989726305008,-0.11095485091209412,-0.06528083980083466,-0.02187279611825943,0.03885754570364952,0.08277393877506256,-0.13080206513404846,0.022469885647296906,-0.005235961638391018,0.0067486632615327835,0.11406956613063812,-0.171478271484375,-0.03586653992533684,0.1135500892996788,0.0016081561334431171,0.1522378921508789,-0.03893230855464935,0.08182679116725922,-0.18301525712013245,-0.03510582074522972,0.031147874891757965,-0.02481863647699356,0.039500948041677475,0.14117459952831268,-0.05889100581407547,-0.012360615655779839,0.16149458289146423,-0.07790142297744751,0.11904344707727432,-0.03759340941905975,-0.05768994614481926,-0.020546192303299904,0.12069962173700333,0.10497576743364334,0.00929518323391676,-0.02533341571688652,0.0973772257566452,0.14074578881263733,0.01540694572031498,-0.1449577361345291,-0.03448212519288063,0.22819861769676208,0.07121796160936356,-0.005791513714939356,0.002668520202860236,-0.04899400472640991,0.16256266832351685,-0.07590509206056595,-0.013288356363773346,0.17361776530742645,-0.23364007472991943,-0.020822342485189438,-0.21330316364765167,0.08644117414951324,0.04067350924015045,0.21277406811714172,-0.1985408514738083,0.03701682388782501,-0.14382705092430115,0.0340547189116478,-0.10600099712610245,-0.048207711428403854,0.0031222186516970396,-0.06646950542926788,-0.08827835321426392,0.14923635125160217,0.14672499895095825,0.24178175628185272,0.005345997400581837,-0.0450734905898571,0.11452115327119827,-0.0819832980632782,-0.02432936057448387,0.1627073436975479,0.037084102630615234,-0.059455517679452896,0.2145289182662964,-0.17364346981048584,0.030040031298995018,0.24232563376426697,-0.1340523511171341,0.03652479127049446,0.0036294430028647184,0.016389722004532814,0.014842348173260689,0.030956584960222244,0.0634036660194397,-0.1820426732301712,-0.27356061339378357,0.08113298565149307,0.19687114655971527,0.12317868322134018,-0.012158192694187164,0.2044617086648941,0.2580728232860565,-0.15539081394672394,0.05860472470521927,0.10796987265348434,-0.20403289794921875,-0.07294049113988876,-0.04165750741958618,0.20948533713817596,0.04990202933549881,0.14656364917755127,-0.17521075904369354,0.029635341838002205,-0.21960054337978363,-0.015139401890337467,0.0668497234582901,0.19797098636627197,-0.25771987438201904,0.07951705902814865,-0.06360526382923126,0.002783324336633086,0.03570287674665451,0.2747189402580261,-0.20792539417743683,0.04008490592241287,0.1999254822731018,-0.08833694458007812,0.158849835395813,0.23695552349090576,0.008228421211242676,-0.015280026011168957,0.3006376028060913,-0.17065291106700897,0.22424890100955963,0.02073214016854763,-0.21234402060508728,0.09379750490188599,0.09187523275613785,-0.15471641719341278,-0.0697518140077591,-0.09857513010501862,-0.047773346304893494,-0.11371421068906784,0.03830010071396828,0.05667132884263992,-0.014870841056108475,0.01143998559564352,0.05980110168457031,0.11957013607025146,-0.020844770595431328,-0.007445326074957848,0.0037955446168780327,-0.012729351408779621,-0.0285508930683136,-0.016247091814875603,0.47324422001838684,-0.44275081157684326,0.6538056135177612,-0.6333094835281372,-0.028613556176424026,0.821744978427887,0.7604284882545471,-0.6358965635299683,0.142162024974823,0.01966855302453041,-0.42013606429100037,-0.26114097237586975,0.21278740465641022,-0.7661118507385254,0.25816190242767334,0.5050032734870911,-0.11196280270814896,0.24660071730613708,-0.025061119347810745,0.12693485617637634,0.18240194022655487,-0.14021481573581696,0.19092562794685364,0.21684542298316956,-0.03393203020095825,-0.04601438716053963,0.11552631109952927,-0.06053859740495682,0.04074058681726456,0.031218551099300385,0.10247144103050232,-0.13288991153240204,0.001937074470333755,-0.0676303580403328,-0.26098397374153137,0.07016908377408981,0.020421916618943214,-0.07429695129394531,-0.1258387267589569,-0.10373536497354507,0.035877350717782974,0.13712367415428162,-0.1318286657333374,0.017818601801991463,0.011190990917384624,-0.07372327893972397,0.060349199920892715,0.2961183786392212,0.0008027433650568128,0.1041250005364418,0.01943179778754711,0.18261109292507172,-0.14565624296665192,-0.14183484017848969,0.09034386277198792,-0.09192492067813873,0.019112544134259224,-0.1629667431116104,0.16372811794281006,-0.2382885366678238,0.05307964235544205,0.23562735319137573,0.009128129109740257,-0.0008673346019349992,0.19008074700832367,-0.17115870118141174,0.019365014508366585,-0.2531667947769165,0.029657280072569847,0.15519927442073822,0.05065175145864487,-0.07739431411027908,-0.06304843723773956,0.11244728416204453,-0.18079832196235657,-0.0784798413515091,0.016338158398866653,0.09205476939678192,-0.1912819892168045,-0.028051989153027534,-0.26641708612442017,-0.2334481030702591,-0.2772800624370575,0.08674907684326172,0.18385161459445953,0.15127314627170563,0.09569305181503296,0.15872032940387726,0.10603012889623642,0.27355676889419556,-0.027291957288980484,0.1756284534931183,-0.04176945611834526,0.14836356043815613,-0.15488313138484955,0.010305927135050297,-0.10842269659042358,-0.08876360207796097,0.12781792879104614,0.012404215522110462,0.23120282590389252,0.26620742678642273,0.29238224029541016,0.1658766120672226,0.14588792622089386,0.05459275096654892,-0.08788523077964783,-0.12276163697242737,0.00003776904122787528,-0.17557412385940552,-0.01354425959289074,-0.0741034746170044,-0.13500718772411346,0.22264285385608673,-0.030583148822188377,0.2654881775379181,-0.348148375749588,-0.35222920775413513,-0.09111683815717697,0.04402373731136322,-0.05452984198927879,-0.42863929271698,-0.12862826883792877,0.4170505404472351,0.16227856278419495,-0.025386815890669823,0.3460478186607361,0.06305782496929169,0.170607790350914,0.07705625146627426,0.24932442605495453,-0.19557976722717285,-0.20796366035938263,0.11874837428331375,0.2474442422389984,0.0703229233622551,0.07004427164793015,-0.1973751336336136,0.18358002603054047,-0.18140147626399994,0.13622906804084778,-0.06942247599363327,-0.12069988250732422,0.0024835069198161364,-0.09534145146608353,-0.019817864522337914,-0.32096725702285767,-0.18294823169708252,0.01287821028381586,-0.09226687252521515,-0.2734437882900238,-0.06821873039007187,-0.21608486771583557,-0.2557114064693451,0.1990738958120346,0.2117355614900589,0.03129349648952484,-0.13815322518348694,0.13716816902160645,0.1472671627998352,-0.3784956932067871,0.12661413848400116,0.15414290130138397,-0.29096800088882446,-0.11946079879999161,-0.09880004823207855,0.35100486874580383,0.37468358874320984,-0.010725891217589378,0.2621575593948364,0.24072928726673126,0.12539388239383698,0.22326619923114777,0.3326180577278137,-0.1700105369091034,-0.2826962172985077,0.05644888058304787,0.2953145503997803,-0.33941128849983215,0.18441875278949738,-0.18180972337722778,-0.2687779664993286,-0.08046378195285797,-0.14312446117401123,-0.014420746825635433,-0.23748940229415894,-0.16972480714321136,0.0689932256937027,-0.042081039398908615,0.1733473390340805,0.12008178979158401,0.34893327951431274,0.12745147943496704,-0.20057810842990875,0.24506856501102448,-0.05828017368912697,0.14972709119319916,0.011327479965984821,0.0552947111427784,-0.1115422397851944,0.04457008093595505,-0.041908908635377884,-0.029929690062999725,-0.27260610461235046,-0.09120236337184906,0.06576468795537949,-0.26481908559799194,-0.25229087471961975,-0.013759605586528778,-0.03213224932551384,0.1333727240562439,0.05004623904824257,0.12873388826847076,-0.09603304415941238,0.05242476612329483,0.043535374104976654,0.1767081618309021,-0.035037390887737274,-0.18217025697231293,0.0927165225148201,0.17696337401866913,-0.14164888858795166,-0.08355505764484406,0.18464283645153046,-0.05670437961816788,-0.09556727856397629,-0.1808048039674759,0.1760687381029129,-0.16986633837223053,0.106972835958004,0.12061991542577744,0.09670617431402206,-0.08953805267810822,-0.22430111467838287,0.15473920106887817,0.09879881888628006,-0.06799860298633575,-0.03686324879527092,-0.04899561405181885,0.2562631666660309,-0.2904413938522339,0.31473830342292786,-0.19801990687847137,-0.04347255825996399,0.05671576410531998,-0.08573773503303528,0.14942264556884766,0.41304558515548706,-0.3076927661895752,0.034040454775094986,0.06656298786401749,0.06472416967153549,0.09101837873458862,0.26035547256469727,-0.05556600168347359,0.0032646083272993565,0.10221453011035919,0.10279256105422974,0.15088456869125366,-0.08205970376729965,-0.10747431963682175,0.14429573714733124,0.17467346787452698,0.19835370779037476,-0.05106668546795845,-0.09553185105323792,-0.043529901653528214,-0.24031394720077515,-0.06460637599229813,0.20336760580539703,-0.0876230001449585,-0.11969039589166641,0.08853955566883087,-0.06665720790624619,0.12453477829694748,-0.08666127920150757,-0.11434496939182281,-0.05421847105026245,0.11342505365610123,-0.007888549007475376,0.04233883321285248,-0.10370144993066788,0.06994611024856567,0.003505981294438243,0.005625094287097454,0.10627307742834091,0.051216043531894684,-0.013012604787945747,-0.3597733676433563,0.12256540358066559,0.24540986120700836,0.25563374161720276,-0.017434710636734962,0.0023571252822875977,-0.22005954384803772,0.0329611673951149,0.17495307326316833,-0.2736593186855316,-0.09893978387117386,0.024786751717329025,-0.3317231237888336,-0.07940185070037842,0.14840710163116455,0.12463409453630447,-0.17387104034423828,-0.03844492509961128,-0.19361643493175507,-0.047920387238264084,0.15379658341407776,0.2128496766090393,-0.15840041637420654,-0.3208114206790924,-0.006023363210260868,0.250733345746994,-0.012130132876336575,-0.47200027108192444,0.03582293540239334,-0.004312126897275448,-0.12092030793428421,0.019560866057872772,0.1376473754644394,-0.19144180417060852,-0.2577991783618927,-0.12261160463094711,-0.24379703402519226,-0.07061030715703964,0.13226912915706635,-0.17589767277240753,0.12836693227291107,0.030310386791825294,-0.6581989526748657,0.2247612029314041,0.27092474699020386,-0.21583934128284454,-0.028795519843697548,0.038236718624830246,0.18259021639823914,-0.03895905241370201,0.15188705921173096,-0.15590721368789673,0.06026642397046089,0.19378896057605743,-0.12180764973163605,-0.15442775189876556,0.13243705034255981,-0.2106214016675949,-0.04616892710328102,-0.13213682174682617,0.11146504431962967,-0.14420653879642487,0.12549544870853424,-0.06696762144565582,-0.06346749514341354,-0.1041521206498146,0.14405636489391327,-0.06762853264808655,0.06660159677267075,0.17646965384483337,0.08525577932596207,-0.014921515248715878,-0.1652541160583496,-0.09550682455301285,-0.023042380809783936,0.22955749928951263,0.028470857068896294,-0.17439603805541992,-0.03434150665998459,-0.01247580349445343,0.04488438367843628,-0.06981678307056427,-0.08248643577098846,-0.020961156114935875,-0.16167549788951874,-0.05344361811876297,0.04714417830109596,-0.06743082404136658,-0.03687074035406113,0.013363061472773552,0.0717158392071724,-0.24774204194545746,0.002633523428812623,0.10214673727750778,0.156611829996109,0.03266932815313339,0.006899798754602671,-0.07056157290935516,-0.016787145286798477,0.13310088217258453,0.10792262107133865,-0.10454526543617249,-0.020501870661973953,0.030043741688132286,0.06027950346469879,0.1358228474855423,0.05422784760594368,-0.029697688296437263,0.14836634695529938,-0.0027564114425331354,0.1285945475101471,-0.020904457196593285,0.1255696564912796,0.13268828392028809,0.1365964710712433,-0.17231795191764832,-0.10660210251808167,-0.07522767037153244,-0.05947086587548256,0.10829833894968033,0.013002486899495125,-0.14575016498565674,-0.059782154858112335,-0.06007033959031105,0.10584357380867004,-0.125692680478096,-0.13208535313606262,-0.1738128811120987,0.07894716411828995,0.11925514042377472,0.009736447595059872,0.11220855265855789,0.0518973208963871,-0.010670480318367481,-0.00009099616727326065,0.006828708108514547,-0.055904991924762726,0.071697898209095,-0.0812181904911995,0.030530178919434547,0.05231577903032303,-0.06549123674631119,0.1580214947462082,0.17500606179237366,-0.10203756392002106,-0.2446439117193222,0.010437553748488426,-0.1273372918367386,0.08898983895778656,-0.013269740156829357,0.1872413158416748,-0.07949774712324142,-0.12779712677001953,0.3097306787967682,0.2409629225730896,-0.03153422474861145,0.07900375872850418,-0.1324048489332199,-0.019914831966161728,-0.12286339700222015,0.06846066564321518,0.001966882962733507,0.0635644868016243,0.059562280774116516,-0.017925046384334564,-0.2653244733810425,-0.020630767568945885,0.023696934804320335,0.10502691566944122,-0.16881893575191498,0.03820006176829338,0.14889509975910187,-0.19437439739704132,0.09586464613676071,0.2062482237815857,-0.05576292425394058,0.03122803010046482,0.06557963043451309,0.10002154856920242,0.20604023337364197,0.22567568719387054,0.1250515729188919,-0.11348681151866913,0.14436791837215424,-0.16729643940925598,-0.13384290039539337,0.08399771898984909,-0.10493943840265274,0.14535470306873322,0.15901704132556915,0.14097051322460175,0.1188119500875473,-0.059888966381549835,-0.11653691530227661,0.06164013221859932,0.12249204516410828,0.09751790761947632,-0.04886471852660179,0.020787036046385765,0.016882838681340218,-0.06176462769508362,-0.08175475895404816,0.10921557992696762,0.08201592415571213,-0.01668674685060978,-0.08913561701774597,-0.044133834540843964,-0.2142937332391739,0.11266853660345078,-0.048649054020643234,0.18304269015789032,-0.194092258810997,-0.02252185344696045,-0.1053539291024208,0.15078139305114746,0.10774151235818863,0.201760932803154,-0.0034520539920777082,-0.04521928355097771,-0.17141778767108917,-0.1537649929523468,0.09883661568164825,0.21765293180942535,-0.08956971764564514,-0.05817325413227081,-0.14354093372821808,0.15341567993164062,0.14607371389865875,-0.17177802324295044,-0.23570086061954498,0.036793675273656845,0.09225902706384659,-0.08630029112100601,0.031318485736846924,0.06065214052796364,-0.24280525743961334,-0.04905116930603981,0.06904270499944687,-0.028537176549434662,-0.03690284490585327,-0.1689666211605072,0.05218372121453285,-0.12511439621448517,-0.0637308731675148,0.1286551058292389,0.007630008738487959,-0.08369956910610199,0.06661028414964676,-0.0030529217328876257,-0.09312304109334946,0.05778070166707039,0.0982588455080986,-0.1015482023358345,0.16880635917186737,-0.03958277404308319,0.10702524334192276,-0.13262656331062317,0.09931991994380951,0.10919131338596344,-0.05880432575941086,-0.13298824429512024,0.14912313222885132,-0.21696072816848755,0.22495700418949127,0.16119077801704407,0.26970481872558594,-0.0976032093167305,0.10562000423669815,0.028070883825421333,-0.008749157190322876,0.1094268411397934,0.12730427086353302,0.031176002696156502,0.05712138116359711,-0.2220565527677536,0.18628178536891937,0.11236972361803055,0.1483624428510666,0.07227815687656403,-0.019151603803038597,0.01041382271796465,0.08142530918121338,-0.21917866170406342,0.31783026456832886,-0.2703890800476074,-0.07708396762609482,0.07573240250349045,0.013065245002508163,0.16198550164699554,-0.025266338139772415,-0.04122962802648544,0.029131751507520676,0.07310307770967484,0.016015246510505676,-0.0821409523487091,-0.151600182056427,0.13492228090763092,0.15037143230438232,0.17284493148326874,0.0394539050757885,-0.07721666246652603,0.05709000676870346,-0.010083217173814774,0.19005781412124634,0.16084188222885132,0.016187142580747604,0.11460144072771072,-0.18099938333034515,0.11812707781791687,-0.003608130384236574,0.2009216845035553,-0.06854065507650375,-0.01700054295361042,-0.2995903789997101,-0.11958068609237671,0.15477587282657623,0.045573968440294266,-0.08343887329101562,0.04953893646597862,-0.13789810240268707,0.12255524843931198,-0.01430165022611618,0.21584269404411316,-0.05025527626276016,0.012766647152602673,0.15676987171173096,0.1660313606262207,-0.0729716569185257,-0.05679149180650711,-0.168031707406044,-0.03405781090259552,-0.1404135525226593,-0.018916577100753784,0.01116363238543272,0.10678543150424957,0.09447533637285233,-0.21410921216011047,-0.02048361673951149,0.053984928876161575,0.21897080540657043,-0.05723641440272331,-0.0514177568256855,-0.15282762050628662,-0.09331034123897552,0.050164371728897095,-0.13230034708976746,-0.09699328988790512,-0.1074862852692604,-0.11907436698675156,-0.22564171254634857,-0.1940428912639618,0.055143412202596664,-0.03204798325896263,-0.04344899207353592,0.07001970708370209,-0.12600372731685638,0.013523485511541367,0.019953947514295578,0.029352078214287758,0.009693531319499016,0.09342731535434723,-0.21046271920204163,0.11057468503713608,0.009955071844160557,0.12626971304416656,-0.02964065782725811,0.10728123039007187,-0.18559904396533966,-0.0406738817691803,-0.10666545480489731,-0.021402785554528236,0.03957368806004524,-0.16979411244392395,-0.06407559663057327,-0.062206823378801346,-0.14299049973487854,-0.09882112592458725,-0.16740085184574127,-0.029588384553790092,-0.038095854222774506,0.0923713818192482,-0.13820379972457886,0.027790365740656853,0.0576554574072361,0.022375762462615967,0.31640613079071045,-0.12486932426691055,-0.1718263328075409,-0.30815428495407104,-0.08422539383172989,0.1877465397119522,0.2413850575685501,0.1800602525472641,0.20635144412517548,0.1811831295490265,-0.0432102307677269,0.10473929345607758,0.2221425473690033,0.009142148308455944,-0.10162683576345444,0.0772680789232254,-0.018996557220816612,0.025396473705768585,0.006945075001567602,0.044394731521606445,-0.10686502605676651,-0.18942241370677948,0.07419382780790329,-0.03241853415966034,-0.12175346165895462,0.1938379406929016,-0.0768541619181633,0.22029027342796326,-0.24120308458805084,0.09712095558643341,-0.026186741888523102,-0.018047574907541275,-0.02227606065571308,0.005856699775904417,0.09652185440063477,0.0797402486205101,0.22252705693244934,0.042823340743780136,0.0006524152704514563,-0.011580785736441612,-0.10941563546657562,-0.1194736510515213,0.14387008547782898,-0.028338298201560974,-0.07944980263710022,0.09628883749246597,-0.21385279297828674,0.05232644081115723,0.0010973559692502022,0.08779936283826828,-0.05757225677371025,0.07764451205730438,0.034340109676122665,-0.0976925939321518,-0.06984491646289825,-0.01657831482589245,-0.052652884274721146,0.0884687528014183,-0.08650918304920197,0.07189884781837463,-0.1372174471616745,-0.031662117689847946,-0.13127253949642181,-0.04491770640015602,0.0946255549788475,0.06612472981214523,-0.11609440296888351,0.05183279141783714,-0.1754944920539856,0.04677944630384445,0.09907232969999313,0.008216265588998795,0.10451382398605347,0.012213950976729393,-0.27082985639572144,-0.2650170624256134,0.06402885913848877,-0.057419292628765106,-0.02989823743700981,0.07000663131475449,0.022048914805054665,0.06023440882563591,0.05962503328919411,0.07450464367866516,-0.07672028988599777,-0.04376347362995148,-0.06953164935112,0.0033100773580372334,0.04286505654454231,-0.1405433565378189,-0.3411179482936859,0.11592119187116623,-0.12304536253213882,-0.05399654060602188,-0.11913178116083145,0.05887381359934807,0.12129853665828705,-0.17893509566783905,-0.2533234655857086,0.11665767431259155,-0.05262445658445358,-0.17454516887664795,-0.03712208569049835,0.11279124766588211,-0.14028851687908173,-0.0671323910355568,0.05209193006157875,-0.030105169862508774,0.02955317124724388,-0.1711062639951706,0.21612896025180817,0.02075459621846676,-0.0861581489443779,-0.17528624832630157,0.18918845057487488,0.19136245548725128,0.137791246175766,0.10494248569011688,0.04994690790772438,-0.2520086467266083,-0.005041466094553471,0.1298770010471344,0.22758518159389496,-0.09111160784959793,-0.10774829238653183,-0.1654634326696396,-0.05717262998223305,-0.04223634675145149,0.2802742123603821,-0.01324403565376997,-0.0768946185708046,-0.1538659632205963,0.023035280406475067,0.11949651688337326,-0.12989027798175812,-0.07916425168514252,0.031217366456985474,0.08077874034643173,0.04370281845331192,-0.0642181932926178,0.23133277893066406,-0.14755433797836304,0.06878141313791275,-0.12181860208511353,-0.007134240120649338,0.09760307520627975,-0.02296960912644863,-0.04204963147640228,-0.31707292795181274,-0.21499578654766083,0.16742445528507233,0.2930327355861664,-0.024983908981084824,0.041859474033117294,0.16188114881515503,-0.14616216719150543,-0.07392116636037827,-0.05050066486001015,0.05593395605683327,0.06547024101018906,-0.08567517250776291,-0.1674525886774063,-0.09245721250772476,0.1500009149312973,0.2761255204677582,0.10863110423088074,-0.09756159037351608,0.060801487416028976,-0.05632433667778969,-0.05616554990410805,-0.24114519357681274,0.035242341458797455,0.0922752320766449,-0.14593841135501862,0.06123965606093407,0.06983786076307297,-0.007591129280626774,0.08132439106702805,0.01068561989814043,-0.14210636913776398,-0.03589274734258652,0.34624969959259033,0.031096888706088066,0.0224177073687315,0.02121591381728649,-0.1665566861629486,0.03674888610839844,0.1206706240773201,-0.17476224899291992,0.06316447257995605,0.28943198919296265,-0.00423098262399435,0.11022059619426727,-0.052317190915346146,0.13406041264533997,0.08349882066249847,-0.001989940879866481,0.19313745200634003,0.1333336979150772,-0.09894503653049469,0.03429720178246498,0.05395163968205452,-0.09244635701179504,0.20856326818466187,0.008947908878326416,-0.1024991050362587,-0.11152888834476471,-0.11967548727989197,0.21787719428539276,0.020406093448400497,-0.06840343773365021,-0.014418688602745533,-0.20455694198608398,-0.11673840880393982,0.13237501680850983,-0.06984292715787888,0.06633000820875168,0.07784669101238251,-0.0864320620894432,0.046809762716293335,-0.04632299020886421,0.18117967247962952,0.16376107931137085,-0.020108729600906372,0.06952754408121109,-0.1806381791830063,-0.02497212029993534,0.16946488618850708,-0.08264850080013275,-0.010215803980827332,0.024442214518785477,-0.019405920058488846,-0.14045687019824982,0.16884316504001617,-0.043344058096408844,-0.03742512688040733,0.13409820199012756,0.14942242205142975,-0.01142803579568863,-0.21278934180736542,-0.13918916881084442,0.09555906057357788,0.019662678241729736,0.1523681879043579,-0.022775249555706978,0.056431349366903305,-0.12530192732810974,0.10503246635198593,-0.06557592749595642,-0.030527664348483086,0.06944052875041962,-0.0702495276927948,-0.004991539288312197,0.14126895368099213,-0.05194181203842163,0.0032291163224726915,-0.08443406224250793,-0.03942625969648361,0.10608629882335663,0.019320232793688774,0.15500202775001526,0.024314511567354202,-0.037895701825618744,0.013642617501318455,-0.006155309733003378,0.06030704081058502,0.008939959108829498,-0.21886804699897766,0.13468526303768158,-0.022631866857409477,0.021609365940093994,-0.03704563155770302,-0.0019647846929728985,0.007780902087688446,-0.011316727846860886,-0.08500445634126663,-0.030298100784420967,0.051360901445150375,0.1158696860074997,0.14311085641384125,-0.077355295419693,-0.15371525287628174,-0.09442316740751266,-0.09559659659862518,-0.1554812341928482,-0.12773197889328003,0.10963359475135803,-0.14955779910087585,0.011485353112220764,-0.03501487895846367,-0.07025851309299469,0.17666475474834442,-0.11065201461315155,-0.053060635924339294,0.10503430664539337,0.0024293060414493084,0.059248000383377075,-0.03458605706691742,0.013256586156785488,0.020907409489154816,0.09487971663475037,0.01540626771748066,0.1676158308982849,-0.10483527928590775,0.001680555404163897,-0.05740231275558472,0.046525292098522186,0.029869304969906807,-0.015680374577641487,-0.08965151011943817,-0.09954716265201569,-0.025431668385863304,-0.0676332414150238,-0.08126385509967804,-0.07801967114210129,-0.16896921396255493,0.15176993608474731,0.019444521516561508,0.17056941986083984,0.11714041978120804,0.14243480563163757,0.043472569435834885,0.009178431704640388,0.2475813925266266,0.06416630744934082,0.03638381510972977,-0.06430273503065109,-0.025440379977226257,-0.06361297518014908,-0.2075626254081726,-0.020594771951436996,-0.12871025502681732,0.2178400158882141,0.03585828095674515,0.09736087918281555,-0.08499381691217422,0.13504120707511902,-0.17672103643417358,-0.019426150247454643,0.06037156283855438,0.05134015902876854,0.01639014668762684,0.1209130585193634,0.03026800975203514,0.07661478966474533,0.061820775270462036,-0.09490039199590683,0.008559821173548698,0.10028192400932312,-0.008870634250342846,0.0031339090783149004,-0.18424920737743378,0.03931358829140663,-0.02041124738752842,0.12100434303283691,-0.2697754502296448,0.08831696212291718,-0.22217963635921478,-0.07281907647848129,-0.15243375301361084,0.0406763032078743,-0.02850761078298092,-0.07735781371593475,0.09176270663738251,0.06552994251251221,-0.022561848163604736,0.15221694111824036,-0.11843811720609665,-0.005307184997946024,-0.06504661589860916,0.08215232938528061,0.028858069330453873,-0.03735851123929024,0.013253703713417053,0.09040923416614532,0.26946157217025757,-0.045756734907627106,0.049384552985429764,0.0047262986190617085,-0.0775127187371254,0.0164125207811594,0.07653401792049408,-0.0070998528972268105,0.1540282666683197,0.046925194561481476,-0.040326930582523346,0.04727349430322647,-0.07077963650226593,0.09318474680185318,0.06759856641292572,0.16439904272556305,-0.09458782523870468,-0.011127252131700516,0.07577621936798096,0.0688106045126915,0.08615712821483612,0.021975291892886162,0.03936068341135979,-0.05585573986172676,-0.5907172560691833,0.31316229701042175,0.3481062054634094,-0.6965690851211548,0.1927049160003662,-0.7733227610588074,-0.28039416670799255,-0.3031575679779053,0.7993975281715393,-0.9803463220596313,-0.5642843246459961,-1.2873955965042114,0.25458306074142456,-0.8605282306671143,0.24763426184654236,-0.6508665084838867,-0.10211553424596786,-0.042964592576026917,0.04087303578853607,0.21657297015190125,0.1556927114725113,0.00965617410838604,-0.11356814205646515,0.002189409453421831,-0.22478623688220978,-0.045698028057813644,0.1900370866060257,0.09585066139698029,-0.07601720839738846,0.12218496203422546,-0.04051454737782478,-0.01922873593866825,0.09776969254016876,-0.18175780773162842,-0.15095998346805573,-0.031194690614938736,-0.36692848801612854,0.3109375834465027,-0.11921005696058273,-0.19243016839027405,0.18073727190494537,-0.08795322477817535,0.10974448919296265,0.3483975827693939,0.010306192561984062,0.0767568051815033,0.1999588906764984,0.3054366111755371,-0.007262824103236198,-0.10948991775512695,-0.01236984133720398,0.20813409984111786,0.07295985519886017,0.16842372715473175,0.05323920398950577,0.07991350442171097,-0.11251896619796753,0.07725250720977783,-0.1680149883031845,-0.11257865279912949,-0.03560580685734749,0.10858438909053802,0.07428320497274399,-0.007286623120307922,-0.012326455675065517,0.1353977769613266,-0.11405567824840546,-0.18178895115852356,-0.06408855319023132,-0.07494131475687027,-0.06820639222860336,0.01649169810116291,-0.09264795482158661,0.03361579030752182,0.058409709483385086,0.1001519113779068,0.1327553540468216,-0.16179735958576202,0.028374813497066498,-0.047185495495796204,0.4886346161365509,-0.0015067342901602387,-0.18238043785095215,-0.019885040819644928,0.2042718082666397,-0.0021149844396859407,-0.0052450234070420265,0.35685622692108154,0.024916138499975204,0.2042500525712967,-0.1345062404870987,0.5329940915107727,-0.2606077790260315,0.05626693740487099,-0.06167106330394745,-0.15414924919605255,-0.2150995135307312,0.08398159593343735,-0.16217133402824402,-0.12668319046497345,0.09466573596000671,-0.26053211092948914,0.07295224815607071,0.044710591435432434,-0.05512739717960358,0.04924580454826355,0.0732954740524292,-0.19423837959766388,-0.2093842774629593,-0.17207680642604828,0.015946919098496437,-0.07989685982465744,0.14505529403686523,-0.3426976203918457,-0.11400040984153748,0.14258615672588348,0.02036786638200283,0.4319627583026886,-0.40506452322006226,-0.36817240715026855,0.3834020793437958,0.1199803501367569,-0.3532310724258423,0.09021922200918198,0.29618778824806213,0.1659896820783615,0.037442646920681,0.41624438762664795,0.0864502415060997,-0.1043773964047432,-0.06286332756280899,0.20592357218265533,0.13180221617221832,-0.0541519857943058,-0.1315133422613144,-0.026734111830592155,0.006821503397077322,0.3189137578010559,-0.29427117109298706,-0.012952211312949657,-0.009192968718707561,0.23953203856945038,0.16764555871486664,0.14111757278442383,0.03652423620223999,0.16884751617908478,-0.2012665569782257,-0.09672237187623978,-0.23051871359348297,-0.06767892092466354,0.016200050711631775,-0.15266619622707367,-0.03884020447731018,-0.013618783093988895,0.28435906767845154,-0.05744227021932602,-0.12129826843738556,0.10333035886287689,-0.02445896714925766,0.23070946335792542,-0.13915084302425385,0.0902506485581398,0.06593675911426544,0.08394978195428848,0.24728746712207794,-0.27905967831611633,0.2976071834564209,0.11495886743068695,-0.2954453229904175,0.07526828348636627,0.21263884007930756,0.19747936725616455,-0.1465616375207901,0.07240032404661179,0.038693156093358994,-0.23549948632717133,-0.13540460169315338,-0.1037675142288208,-0.17616792023181915,0.16615426540374756,-0.010856919921934605,0.0019402445759624243,-0.04511784762144089,-0.07951412349939346,0.2004266083240509,0.10244836658239365,-0.2231834977865219,0.07325734943151474,0.15790724754333496,-0.004106593318283558,0.019306616857647896,0.1398860067129135,0.034287989139556885,0.3407876789569855,-0.15223410725593567,-0.2572840452194214,-0.21121792495250702,-0.16925862431526184,0.1514318734407425,0.2240549623966217,-0.22140078246593475,-0.038531024008989334,0.2601357102394104,-0.2169366329908371,-0.02974621020257473,-0.20538069307804108,0.055321380496025085,-0.21538878977298737,-0.1597842425107956,-0.19093266129493713,-0.2847992479801178,0.3195885419845581,0.24448180198669434,-0.10618596524000168,-0.24527010321617126,-0.07036345452070236,0.2054506242275238,-0.017940809950232506,-0.48353835940361023,-0.3653862774372101,0.710050106048584,-0.2667006552219391,0.02392251044511795,0.036610618233680725,0.12686850130558014,-0.07751436531543732,-0.22684332728385925,0.3000648319721222,-0.20145532488822937,0.09583801031112671,-0.09937223792076111,-0.060775693506002426,0.18348723649978638,0.2693508565425873,-0.06602539122104645,-0.016024475917220116,0.13310526311397552,0.21332840621471405,0.05135182663798332,0.053515538573265076,0.007837710902094841,0.14557062089443207,-0.005761270876973867,0.036137957125902176,-0.20971599221229553,-0.0879862904548645,0.09826547652482986,-0.023485423997044563,-0.13651412725448608,0.2647843062877655,-0.04347681999206543,0.09238313138484955,-0.17388586699962616,0.15730050206184387,0.13494853675365448,0.16716665029525757,0.3111785054206848,-0.2756185531616211,-0.047387659549713135,-0.17880848050117493,-0.1423797607421875,0.15164363384246826,-0.08742834627628326,0.16740961372852325,0.029598606750369072,-0.0332527831196785,0.18016725778579712,0.16952171921730042,-0.32042035460472107,0.2510356903076172,-0.09909232705831528,-0.10243603587150574,-0.06775602698326111,-0.05333197861909866,-0.012167639099061489,-0.023389892652630806,-0.0982297956943512,-0.003821105230599642,0.08641891926527023,0.09475211054086685,0.07337635010480881,0.028143135830760002,0.035159699618816376,-0.1431114822626114,0.0849098339676857,-0.2495362013578415,-0.15910124778747559,-0.16624046862125397,0.06564613431692123,-0.045799370855093,-0.20211569964885712,0.1134469285607338,-0.16528518497943878,0.045506540685892105,-0.04527153819799423,-0.024508170783519745,0.04421370476484299,0.05713371932506561,-0.150272935628891,-0.1863160878419876,0.06844685971736908,0.05372807756066322,-0.03025728277862072,0.15137234330177307,0.1845341920852661,-0.035373933613300323,-0.11008760333061218,-0.10488134622573853,0.09892664104700089,0.009039424359798431,0.17211349308490753,-0.11912263929843903,-0.04831666126847267,-0.027829846367239952,0.009717956185340881,0.044194545596838,0.10693611204624176,-0.11654476821422577,-0.10310986638069153,-0.014654232189059258,0.017567794770002365,-0.05748089402914047,-0.01299044769257307,-0.08161434531211853,-0.17244559526443481,-0.0266908910125494,-0.0028344972524791956,-0.0745292454957962,0.07227358967065811,-0.015713708475232124,0.06796850264072418,0.05263230577111244,-0.06992096453905106,0.18933658301830292,-0.13922961056232452,0.06324189156293869,-0.0055663431994616985,-0.02772356942296028,0.16795319318771362,-0.11193185299634933,0.08518082648515701,-0.24083900451660156,0.20745635032653809,0.06729216128587723,0.03151760622859001,-0.05266573280096054,-0.016871923580765724,0.007884964346885681,0.14713771641254425,-0.10567855089902878,-0.059697676450014114,-0.0983320027589798,0.06490235030651093,-0.0196219515055418,0.17779232561588287,-0.13448819518089294,0.04170586168766022,-0.11958833783864975,-0.21971242129802704,-0.004435771144926548,0.0694570392370224,0.04385290667414665,-0.1966102421283722,-0.008099590428173542,0.11271392554044724,0.11399710923433304,0.23842501640319824,0.051008760929107666,-0.11651294678449631,-0.139702707529068,-0.06071854010224342,0.06163272634148598,0.17269964516162872,0.11934056878089905,-0.1298215240240097,0.014826136641204357,-0.041525885462760925,-0.22070097923278809,-0.012125053443014622,0.060465194284915924,0.0034468441735953093,0.12693661451339722,-0.015656080096960068,-0.03214379400014877,0.039498649537563324,-0.13211898505687714,-0.05338988080620766,0.17501403391361237,-0.05470653250813484,-0.01657654345035553,0.07342905551195145,-0.0865621417760849,0.1021214947104454,-0.17766538262367249,-0.06436143815517426,0.029940441250801086,-0.17254801094532013,-0.18887025117874146,0.0987807959318161,0.12507736682891846,0.05312921851873398,-0.015313341282308102,0.06335996091365814,0.09739317744970322,0.07614776492118835,0.14064711332321167,0.23104484379291534,0.13480928540229797,0.04700237512588501,-0.07075360417366028,0.030931446701288223,0.018695760518312454,0.06351399421691895,-0.06383363157510757,-0.1337333768606186,-0.013589808717370033,-0.023808445781469345,-0.050194401293992996,0.08515939116477966,-0.022271238267421722,0.04931662976741791,-0.017013346776366234,-0.047340333461761475,0.0027165082283318043,-0.06868720799684525,0.12185641378164291,0.06291177868843079,-0.22725944221019745,0.0364655964076519,-0.16174626350402832,-0.03031364269554615,0.2828093469142914,0.05231717228889465,-0.2837175130844116,-0.09976740181446075,-0.03149668499827385,0.19818159937858582,-0.06806526333093643,0.07451927661895752,0.10861670225858688,-0.27566850185394287,0.05465945228934288,0.1696440428495407,-0.28074634075164795,0.027537453919649124,-0.027926651760935783,-0.28798630833625793,0.02883809804916382,-0.07194577157497406,0.3190758526325226,0.18580517172813416,0.05082109570503235,-0.20361833274364471,0.03723641112446785,-0.007759854197502136,0.3633030951023102,0.07016957551240921,0.10105108469724655,-0.11091835796833038,-0.13552944362163544,-0.20793484151363373,-0.10329697281122208,0.04896755889058113,0.03699558600783348,-0.15528395771980286,0.06300200521945953,-0.05031930282711983,-0.006910710129886866,-0.07366333901882172,-0.14720548689365387,0.17360235750675201,0.15142150223255157,-0.03753984346985817,-0.0606280118227005,0.04042011871933937,-0.14617417752742767,-0.2154160887002945,-0.1314627081155777,0.17174069583415985,-0.19031138718128204,-0.0027439831756055355,-0.05334239825606346,-0.13502377271652222,-0.14039768278598785,0.11620377004146576,0.0851290225982666,0.009387429803609848,0.2027851939201355,0.03463781625032425,-0.024921206757426262,0.16884572803974152,-0.05984789878129959,-0.2396087646484375,0.1305517554283142,-0.03518719971179962,0.017488699406385422,0.06510201841592789,-0.10856109112501144,-0.2523455321788788,-0.029097167775034904,0.16223740577697754,-0.16704972088336945,-0.09593916684389114,-0.10253603011369705,-0.03196771815419197,-0.10961319506168365,0.11853575706481934,0.12846548855304718,0.11746573448181152,-0.05771687999367714,-0.1084805428981781,0.026144953444600105,0.13877469301223755,0.10306227207183838,-0.009731166064739227,-0.18214595317840576,-0.09243354946374893,0.03542068228125572,0.14658306539058685,-0.12397564202547073,-0.014024494215846062,0.1608208864927292,-0.07057405263185501,0.10056738555431366,0.14236587285995483,0.026694323867559433,-0.008908861316740513,-0.25074994564056396,0.10170742124319077,-0.09239708632230759,-0.2297297865152359,0.15716597437858582,-0.09687980264425278,0.12084854394197464,-0.1777370274066925,-0.22680413722991943,-0.04187062010169029,-0.03438492864370346,-0.25646695494651794,-0.02294117584824562,0.05544346198439598,-0.08166391402482986,0.0636255145072937,-0.022132692858576775,-0.005005938932299614,0.008962822146713734,-0.13381505012512207,0.017966553568840027,0.12342169880867004,0.04495272785425186,0.013545464724302292,0.12750127911567688,0.058218326419591904,-0.18182824552059174,-0.1042037159204483,-0.024011563509702682,0.02927049994468689,-0.09443478286266327,-0.027695413678884506,-0.04019968584179878,0.06809857487678528,0.07317005842924118,0.11513175070285797,-0.04904426261782646,-0.009775800630450249,-0.0937807559967041,-0.09059064090251923,-0.02690054476261139,-0.03513640910387039,0.1507435142993927,-0.03592049330472946,-0.16981551051139832,-0.0686197355389595,0.23076078295707703,-0.01724337600171566,0.10549499094486237,-0.18514606356620789,-0.06167710945010185,-0.09012098610401154,0.06042145937681198,-0.18439050018787384,0.009806969203054905,0.07547701895236969,-0.1169043779373169,-0.042722608894109726,0.0793829932808876,0.10165856778621674,0.028767379000782967,0.05192824453115463,-0.10151121020317078,0.02136729657649994,-0.14979733526706696,0.11571341007947922,-0.08743495494127274,-0.008005796931684017,-0.09121055901050568,-0.0581478513777256,0.14453968405723572,0.16873246431350708,-0.05322664603590965,-0.1272665411233902,-0.14348837733268738,0.13564829528331757,-0.01235870085656643,0.2643306255340576,-0.12066320329904556,-0.17384150624275208,0.011355863884091377,-0.023232607170939445,-0.007783095818012953,-0.010465086437761784,-0.07514901459217072,-0.15900181233882904,0.1189737394452095,0.0789608508348465,0.0010812722612172365,-0.11768130958080292,0.09318482130765915,-0.08386179059743881,0.016612235456705093,0.1496332734823227,0.18362441658973694,-0.2897215485572815,-0.015528915449976921,0.18967588245868683,0.09621062874794006,-0.1520191878080368,0.043668415397405624,0.01468167919665575,0.10133711993694305,-0.1511453241109848,0.08581960201263428,-0.01446648221462965,-0.1546313613653183,-0.08974617719650269,-0.08155098557472229,-0.06277336180210114,0.06829883903265,-0.017166707664728165,0.1294810175895691,0.136580228805542,0.02710273303091526,-0.13518670201301575,-0.06802383065223694,0.08863826841115952,0.05570613965392113,0.16533498466014862,0.008450781926512718,-0.07343623787164688,-0.07785734534263611,-0.12027809023857117,-0.0042258454486727715,0.09384412318468094,-0.13607157766819,0.034054096788167953,-0.16007551550865173,0.01673790067434311,0.04108530655503273,0.05719613656401634,-0.19181665778160095,-0.09655137360095978,0.060642555356025696,0.1448931097984314,-0.13928712904453278,-0.10359849035739899,0.07220813632011414,0.0392715223133564,-0.12559324502944946,-0.08845322579145432,-0.040755659341812134,-0.06943413615226746,0.016274087131023407,-0.0941757932305336,-0.06852105259895325,0.04001352936029434,0.08460317552089691,0.03961295261979103,0.12165689468383789,-0.00646934425458312,0.15718287229537964,-0.012310937978327274,-0.01140014547854662,0.05250744894146919,0.046608816832304,-0.23459024727344513,0.008735843002796173,0.08039075881242752,0.01931348815560341,-0.07890590280294418,-0.07168625295162201,0.053817521780729294,0.041136275976896286,0.07727595418691635,-0.12032624334096909,-0.13696034252643585,-0.14983658492565155,0.11882370710372925,0.00860052090138197,0.09327764809131622,0.0310177244246006,0.04480196535587311,0.04076853394508362,0.010694463737308979,0.0955139771103859,-0.003544173203408718,0.18493293225765228,0.053224436938762665,-0.11118349432945251,-0.3988337516784668,0.06947682052850723,-0.08848267048597336,-0.003417351981624961,0.052582062780857086,0.17300991714000702,0.12122011929750443,0.1835050731897354,0.02233806811273098,0.17137065529823303,0.1356496810913086,0.07220415025949478,-0.10172925144433975,-0.1422005295753479,-0.022038156166672707,0.13294066488742828,0.08249247074127197,-0.0038956375792622566,0.16147546470165253,-0.0662815272808075,0.043409865349531174,0.024209056049585342,-0.031319815665483475,0.006591076496988535,0.1221868097782135,-0.19994698464870453,0.05300522223114967,-0.21449556946754456,0.08787638694047928,-0.08320724964141846,-0.028535611927509308,-0.02085333690047264,-0.22188326716423035,-0.13547660410404205,-0.23580779135227203,-0.1547212153673172,0.008467589505016804,-0.12104188650846481,0.10704625397920609,0.046135980635881424,-0.09830215573310852,0.11472922563552856,0.1946449726819992,0.07026397436857224,-0.09028135240077972,-0.19481161236763,0.15923015773296356,0.04322338104248047,0.15217502415180206,0.16871508955955505,-0.15878742933273315,0.05223699286580086,-0.16643239557743073,-0.05651378631591797,0.11280195415019989,-0.11823275685310364,-0.07362581044435501,0.13491705060005188,-0.2757377028465271,-0.05694739148020744,-0.07069038599729538,-0.06129985675215721,0.24985410273075104,0.14471329748630524,-0.029329964891076088,-0.002933086594566703,0.18825843930244446,-0.043209176510572433,0.0024453888181596994,0.028332946822047234,0.10370183736085892,0.15872636437416077,0.21212400496006012,-0.29136431217193604,0.010888895019888878,-0.10820801556110382,0.08505076169967651,0.08583611994981766,0.29502320289611816,0.05221601203083992,-0.24437563121318817,0.2521037459373474,0.024346979334950447,0.20942753553390503,0.029681377112865448,0.08726611733436584,-0.04939291998744011,-0.22214892506599426,0.007128281984478235,0.2358328402042389,0.2704414427280426,-0.023536473512649536,-0.044901344925165176,-0.21705129742622375,-0.05943404510617256,0.18888728320598602,0.45920267701148987,0.21480396389961243,-0.2036842554807663,0.2946310341358185,-0.20499761402606964,-0.13527806103229523,-0.0014740722253918648,-0.0819525346159935,-0.11641201376914978,-0.09709200263023376,-0.3421535789966583,0.03247479721903801,-0.20119570195674896,-0.08559982478618622,0.04738147556781769,-0.043217554688453674,-0.24423848092556,0.052285484969615936,-0.04126615449786186,-0.11237289011478424,0.13868378102779388,-0.2368193119764328,-0.10368944704532623,-0.0688551738858223,0.034524690359830856,-0.06074993684887886,0.04797907546162605,-0.06878012418746948,-0.06696673482656479,-0.114720918238163,-0.007776267360895872,0.04600822553038597,0.16880632936954498,0.2386825978755951,0.02008434385061264,-0.13490715622901917,-0.2168121188879013,-0.06298378109931946,-0.09109523892402649,-0.0985986515879631,0.05790140479803085,-0.12059905380010605,-0.14334984123706818,-0.20813612639904022,-0.04653427004814148,0.0938047468662262,0.006411698646843433,0.045023128390312195,0.10900408774614334,0.07567960768938065,-0.10240120440721512,-0.15376484394073486,-0.2170288860797882,0.15336132049560547,-0.22222982347011566,-0.2698279917240143,0.1507825255393982,-0.04467703774571419,-0.18915313482284546,-0.05366480350494385,0.10505994409322739,-0.05213061347603798,0.312246173620224,0.13974197208881378,0.09873855113983154,-0.2150588184595108,0.06354562193155289,-0.13812415301799774,-0.02947898395359516,-0.11148789525032043,-0.008364266715943813,-0.013243060559034348,0.08134164661169052,0.10960941761732101,0.021872345358133316,0.02557939477264881,0.012991406954824924,0.15870849788188934,-0.058934535831213,0.15829044580459595,-0.14595633745193481,0.04576234519481659,-0.26849815249443054,-0.0028782656881958246,0.07165016978979111,-0.0064697349444031715,-0.012172283604741096,-0.1677086055278778,-0.041607823222875595,0.05094509571790695,0.19450809061527252,0.17311327159404755,-0.05587604641914368,-0.07665472477674484,-0.051714103668928146,0.1552625447511673,0.08781552314758301,-0.17789310216903687,0.04142800718545914,0.1563655585050583,0.10016164183616638,-0.04345059022307396,0.03759638965129852,0.06245964393019676,-0.2590447664260864,0.09044671803712845,0.03595806285738945,-0.003429250093176961,0.16045793890953064,0.08500693738460541,0.12981796264648438,0.1012663021683693,-0.03456025943160057,-0.1096884235739708,0.1954285055398941,0.04367229342460632,-0.14854395389556885,-0.16193872690200806,-0.010935035534203053,0.20630812644958496,-0.05624429136514664,0.08713828027248383,0.08000259101390839,-0.0844874158501625,-0.0767403244972229,-0.012260177172720432,0.08349903672933578,-0.002476808615028858,-0.06278576701879501,-0.017749426886439323,-0.13257984817028046,-0.055388614535331726,0.06408455222845078,0.1663776934146881,-0.04515063762664795,-0.016768302768468857,-0.09822771698236465,0.18444445729255676,0.11387360841035843,0.04314891993999481,-0.15767119824886322,-0.13439515233039856,0.06416536867618561,0.09484471380710602,0.05680697411298752,0.002987894229590893,0.07255113124847412,0.12532411515712738,0.14133407175540924,-0.12368147820234299,0.029332494363188744,-0.0003511668764986098,-0.06514855474233627,-0.021089281886816025,0.04371148347854614,-0.016317669302225113,0.10182356089353561,0.034839022904634476,0.04049371927976608,0.005831203423440456,0.15532176196575165,0.13219106197357178,-0.16730812191963196,0.06833936274051666,0.15697981417179108,-0.08735880255699158,-0.08478961139917374,-0.08533614873886108,-0.13482634723186493,0.06306799501180649,-0.08446864038705826,0.17055121064186096,-0.16666941344738007,-0.18053221702575684,-0.197620689868927,0.12006131559610367,-0.018110066652297974,0.08502642810344696,0.03506653010845184,0.03536905348300934,0.06764157861471176,-0.074757419526577,0.08929726481437683,0.17548182606697083,-0.11432076245546341,-0.025721242651343346,-0.24115689098834991,0.05572070926427841,0.12414461374282837,0.0683756172657013,-0.02439616434276104,-0.3228522539138794,-0.36701229214668274,-0.1540246307849884,0.029356522485613823,-0.19007496535778046,-0.02984544076025486,0.11228888481855392,-0.07405764609575272,-0.009229719638824463,0.03497396782040596,0.0774158388376236,0.22125788033008575,-0.09667778015136719,-0.19639383256435394,0.07541024684906006,-0.1262156069278717,-0.061190951615571976,-0.06748209148645401,0.14283446967601776,-0.08454367518424988,0.21908624470233917,0.16780903935432434,-0.08569962531328201,0.006477744318544865,0.18093623220920563,-0.09981273114681244,0.07895836234092712,-0.039020467549562454,0.047670044004917145,-0.10095909982919693,-0.24247702956199646,0.042958542704582214,0.07213841378688812,0.17162343859672546,-0.26530516147613525,0.17118412256240845,0.030292071402072906,0.16765987873077393,-0.08999127149581909,0.05560217425227165,-0.09380121529102325,0.015379080548882484,-0.17061486840248108,-0.0673762783408165,-0.09194476157426834,0.06279628723859787,-0.06518547981977463,-0.030340326949954033,0.0009268660214729607,-0.12117563188076019,0.12961727380752563,0.07182880491018295,-0.10788760334253311,0.09056601673364639,-0.08920947462320328,0.12240836024284363,0.055057868361473083,-0.130141019821167,-0.13364124298095703,-0.09343947470188141,-0.05347715690732002,0.07565521448850632,0.041023533791303635,0.01786152459681034,-0.015548624098300934,0.02799263969063759,-0.01783578470349312,-0.08582914620637894,-0.14298126101493835,0.02213677205145359,0.08795659989118576,0.11369973421096802,0.07767989486455917,-0.0794280618429184,0.04681211709976196,0.017889341339468956,0.1192106232047081,-0.3476073741912842,-0.4185009002685547,0.7858861684799194,0.6707520484924316,-0.4743265211582184,0.0593765564262867,-0.3352784812450409,-0.15205316245555878,0.41986021399497986,-0.8157483339309692,0.9384090900421143,0.616675853729248,0.13052968680858612,-0.404270201921463,0.1504809409379959,-0.5712527632713318,0.2775002419948578,-0.08254648000001907,-0.00486361188814044,-0.32961076498031616,0.10561519116163254,0.23688015341758728,0.373353511095047,0.0752825066447258,0.04963234066963196,0.1390022337436676,0.15305422246456146,0.12219734489917755,-0.3233986496925354,-0.048524096608161926,-0.07508643716573715,-0.104058638215065,0.07030649483203888,0.00680335471406579,0.05124789476394653,-0.06205027550458908,0.17246799170970917,0.15453557670116425,-0.0009145670919679105,-0.23732000589370728,-0.1291625201702118,0.058659326285123825,-0.11052267998456955,-0.10394774377346039,0.13705132901668549,0.31016111373901367,0.019261958077549934,0.10927646607160568,0.003372961888089776,-0.18228353559970856,0.12288320064544678,-0.22978931665420532,0.07561061531305313,-0.010737815871834755,0.08683302998542786,-0.153363436460495,-0.10573195666074753,-0.05507918447256088,-0.12514442205429077,0.19389665126800537,0.17048519849777222,-0.2078133076429367,-0.057620737701654434,-0.026658769696950912,0.2832780182361603,-0.2511289715766907,-0.023209480568766594,-0.2007705718278885,-0.003298591822385788,0.18854489922523499,-0.10553520172834396,0.3658921420574188,0.1192099004983902,-0.17503666877746582,-0.11564603447914124,0.29783308506011963,-0.03635910898447037,-0.142615407705307,0.2028367519378662,-0.23960183560848236,0.11829270422458649,-0.1782836765050888,0.09793047606945038,-0.7337392568588257,0.25653931498527527,-0.030917229130864143,0.20698943734169006,-0.03680449351668358,0.17801108956336975,-0.0477541983127594,-0.23535306751728058,0.2565205693244934,-0.43391481041908264,-0.3149760067462921,0.2238590568304062,0.0007474521989934146,-0.0794597789645195,-0.12817147374153137,0.015240244567394257,-0.006045612972229719,-0.10828398913145065,-0.014067898504436016,0.19821926951408386,0.13479094207286835,-0.18242385983467102,-0.2682715058326721,-0.019062111154198647,0.1760816127061844,-0.14783601462841034,0.00807802751660347,0.24514341354370117,0.0919027328491211,0.11147333681583405,0.048085689544677734,-0.2943842113018036,-0.09326720237731934,0.3234254717826843,-0.10792375355958939,-0.056218281388282776,0.08532607555389404,-0.16663122177124023,0.004505804739892483,-0.10658511519432068,-0.22135207056999207,0.1062716543674469,0.019835392013192177,0.14030762016773224,0.15149499475955963,0.23136910796165466,0.09436547011137009,-0.3066284656524658,0.2699948847293854,0.11710479110479355,-0.07206445932388306,-0.11605378985404968,-0.10677934437990189,0.167076975107193,0.0027289169374853373,-0.01769103668630123,-0.002843551803380251,0.12887625396251678,0.1044752299785614,0.2320937067270279,-0.10321982204914093,-0.1442365050315857,0.2516006529331207,-0.05434045568108559,0.029149631038308144,0.11592800915241241,0.0003332225314807147,-0.1421665996313095,0.06990461051464081,-0.1688718944787979,0.059783436357975006,-0.08253281563520432,0.2280392199754715,-0.27543285489082336,-0.00912489090114832,0.023241231217980385,0.05103418976068497,0.16444486379623413,-0.13411201536655426,-0.14590886235237122,0.10367532819509506,0.054471224546432495,0.1389807015657425,-0.061890389770269394,-0.17760974168777466,-0.1400749236345291,0.08101839572191238,0.1334761083126068,-0.011488583870232105,-0.08284956961870193,-0.15969011187553406,0.22559921443462372,-0.05185654014348984,0.2645723223686218,-0.12112199515104294,-0.1058853343129158,-0.29453206062316895,0.2200954705476761,-0.17983023822307587,0.1568271815776825,-0.01745699718594551,0.1537422388792038,0.012442606501281261,-0.2659161686897278,0.019176987931132317,0.014534051530063152,-0.18873250484466553,0.05133168771862984,0.27805349230766296,0.1965927630662918,-0.11166157573461533,0.06778421998023987,0.10975828021764755,-0.17521148920059204,0.2669779360294342,0.3921460211277008,0.19569528102874756,-0.17116719484329224,-0.28558292984962463,-0.07588230818510056,0.35099464654922485,-0.3966042995452881,-0.41042467951774597,0.1146162897348404,0.050161030143499374,0.07023026049137115,-0.7214691042900085,-0.12984929978847504,-0.20620569586753845,0.5267911553382874,0.11798137426376343,-0.09863448888063431,0.018090665340423584,0.26318517327308655,-0.4914347231388092,-0.685210645198822,-0.045720916241407394,-0.20064987242221832,-0.5085676908493042,0.7261782884597778,0.05630388855934143,-0.28361964225769043,0.3397616744041443,0.08881042897701263,-0.1196947693824768,-0.12382318079471588,-0.13412348926067352,0.15630359947681427,-0.15337634086608887,-0.044764988124370575,0.19266115128993988,0.15747691690921783,-0.20832711458206177,0.1546153575181961,0.4031389653682709,-0.36903393268585205,-0.04989077150821686,-0.0330328606069088,0.2540784180164337,-0.013641785830259323,-0.11088287085294724,-0.2988375723361969,0.03950035944581032,0.15518856048583984,-0.19470223784446716,0.04929068684577942,0.26406991481781006,0.2594183087348938,0.2012920081615448,-0.025718258693814278,0.1759072095155716,-0.08041217923164368,-0.3258129954338074,-0.09478387981653214,0.010818079113960266,0.14225773513317108,-0.12834453582763672,-0.45513400435447693,0.043760742992162704,0.12837982177734375,-0.24525389075279236,-0.047000836580991745,0.30423101782798767,0.6180703639984131,0.3218282461166382,-0.10283802449703217,0.06904509663581848,-0.2411007285118103,-0.06331465393304825,0.03339420631527901,-0.005614106543362141,0.026631351560354233,0.1391904205083847,-0.03774481639266014,0.11861123144626617,0.06928563117980957,-0.04643317312002182,-0.20110027492046356,-0.09951849281787872,0.012132639065384865,0.07886242121458054,0.17058983445167542,0.09660468995571136,0.061446674168109894,-0.12640468776226044,0.08409405499696732,-0.27130797505378723,0.12860865890979767,0.0754612386226654,0.06674526631832123,-0.053497057408094406,0.2784757912158966,-0.0214021448045969,-0.15961267054080963,-0.07600019872188568,0.023163439705967903,0.19945552945137024,0.23236873745918274,-0.2878072261810303,-0.2576204240322113,0.007511755917221308,-0.02317013405263424,0.268898606300354,0.26765334606170654,0.01420966349542141,-0.2502148747444153,-0.3109287619590759,-0.0007615701179020107,-0.04255743697285652,0.22188438475131989,-0.06196947023272514,-0.1604582667350769,-0.09894798696041107,0.05903145670890808,0.09671960771083832,0.10249661654233932,-0.0760277658700943,-0.07671201974153519,-0.02364373207092285,-0.18492577970027924,0.061005640774965286,0.11865215748548508,-0.01207736600190401,-0.7776467204093933,0.10038843750953674,0.0319734662771225,-0.22840748727321625,-0.016547435894608498,-0.15880410373210907,0.047314468771219254,-0.003242435632273555,-0.11479563266038895,0.41250672936439514,0.059102144092321396,0.3454211354255676,-0.3419673442840576,0.005132770165801048,-0.09256380796432495,0.030008742585778236,-0.10119214653968811,-0.11279167234897614,0.07365681231021881,-0.02961491048336029,0.09412059187889099,0.021878786385059357,0.02075986936688423,0.05885209143161774,0.056630730628967285,0.20065435767173767,-0.19597560167312622,-0.1796988993883133,-0.27027976512908936,0.07983970642089844,0.06500277668237686,-0.03163449093699455,-0.13154920935630798,0.04084669426083565,-0.12285258620977402,0.155271977186203,-0.01874380186200142,0.10346154868602753,0.06896141916513443,0.025122882798314095,-0.19294743239879608,0.08312002569437027,0.11463093757629395,0.24245384335517883,-0.0019550600554794073,-0.3115634322166443,-0.11625902354717255,-0.36964765191078186,0.20001532137393951,-0.2548029124736786,0.16656863689422607,0.004844658076763153,-0.04397648572921753,0.2808142900466919,-0.048165787011384964,-0.09476621448993683,0.26521769165992737,-0.2986144423484802,-0.21645399928092957,-0.2361486256122589,0.20290231704711914,0.2831116020679474,0.021605033427476883,-0.36734890937805176,0.01265466958284378,-0.01709687151014805,-0.13865487277507782,-0.20065253973007202,0.013697131536900997,0.048410143703222275,0.06277935206890106,-0.014063691720366478,-0.24659304320812225,-0.2693786323070526,-0.10449083149433136,0.2454807162284851,0.17122231423854828,0.08703893423080444,-0.35821133852005005,0.038261596113443375,-0.03797222301363945,0.26582783460617065,0.11059869825839996,0.07674742490053177,-0.1507270634174347,-0.08448793739080429,-0.03418842703104019,0.24920465052127838,0.14834019541740417,0.0427054837346077,-0.3425825834274292,-0.2636036276817322,-0.16042344272136688,0.10218431800603867,-0.008264988660812378,-0.0004909188719466329,-0.39933091402053833,0.06375536322593689,0.012139398604631424,-0.25064384937286377,0.23469233512878418,-0.015304651111364365,-0.1679074615240097,-0.06033896282315254,0.10736414790153503,-0.05728214234113693,-0.010656793601810932,0.10004809498786926,0.1218140497803688,0.15816040337085724,0.07967156171798706,-0.11925177276134491,0.3003595471382141,0.05286238342523575,-0.2349369078874588,-0.08642513304948807,0.04236053302884102,0.14807148277759552,0.07190555334091187,0.17939172685146332,-0.2593676447868347,-0.18663252890110016,-0.10313652455806732,0.31650906801223755,0.2574344575405121,0.010753480717539787,-0.17858226597309113,0.03529699891805649,-0.08811581879854202,0.09481976181268692,0.2238372266292572,-0.06076610088348389,-0.30537277460098267,-0.3178597390651703,-0.03460127115249634,0.21275851130485535,0.15975648164749146,0.16204041242599487,-0.2728196978569031,-0.144888773560524,0.05443580448627472,0.2733486294746399,0.03433777019381523,0.18492162227630615,-0.15446455776691437,0.2217470109462738,0.12730349600315094,-0.32888203859329224,0.1289902925491333,0.16280272603034973,-0.2943021059036255,0.04597773402929306,0.06392768770456314,-0.31267616152763367,0.09799498319625854,0.33888372778892517,-0.1282757669687271,0.18010932207107544,0.04713353514671326,0.07265336066484451,-0.0807676687836647,0.1357753723859787,-0.11805588752031326,0.16210494935512543,0.06010821834206581,0.021637504920363426,0.2512846887111664,0.2118283212184906,-0.1606759876012802,-0.14319908618927002,0.13728666305541992,0.11703605204820633,-0.03518521040678024,-0.11463241279125214,0.034160349518060684,-0.16093799471855164,-0.38718947768211365,-0.2178451120853424,-0.10297420620918274,0.17512311041355133,-0.08853253722190857,-0.13542622327804565,-0.025097288191318512,0.04190991818904877,0.12032056599855423,0.06903162598609924,-0.04790579900145531,-0.0927281603217125,-0.01719614863395691,-0.12583735585212708,0.24842578172683716,-0.08145212382078171,0.14553259313106537,-0.09937606006860733,-0.040701378136873245,-0.012799277901649475,-0.1601688712835312,0.16388601064682007,-0.08580809831619263,-0.23530639708042145,0.24908795952796936,-0.13310123980045319,-0.18098995089530945,-0.21054907143115997,-0.1637720912694931,0.026067590340971947,0.07505229860544205,-0.13965173065662384,0.1150730699300766,0.22902153432369232,0.05898530036211014,-0.16064989566802979,-0.07145895063877106,-0.1735711544752121,0.19608525931835175,0.0022265720181167126,-0.24500691890716553,-0.19016362726688385,-0.17829516530036926,0.10134715586900711,0.06325153261423111,0.12227509170770645,-0.05304117128252983,0.2143019139766693,0.12120472639799118,0.2009156197309494,-0.08378733694553375,0.12435683608055115,-0.16294045746326447,-0.11924604326486588,0.003723358502611518,-0.000293615332338959,0.061061859130859375,0.0034820898436009884,-0.18953704833984375,-0.02579795941710472,-0.12398038804531097,0.10118824988603592,0.030225057154893875,0.1172795444726944,-0.024354299530386925,0.04635358974337578,0.008701826445758343,-0.164295956492424,-0.05316821485757828,-0.0029271719977259636,-0.44553014636039734,-0.08408627659082413,0.03491419181227684,-0.2093191295862198,0.03255141153931618,-0.03918083384633064,-0.08398327231407166,0.03321637958288193,-0.012089752592146397,-0.016652049496769905,0.10474798083305359,0.23672904074192047,0.08536723256111145,-0.08414861559867859,-0.045328155159950256,-0.04561403766274452,-0.09990587830543518,0.054812461137771606,0.022068515419960022,-0.2049720734357834,-0.1289251744747162,0.14042040705680847,0.006240031681954861,0.018874697387218475,-0.03047536127269268,0.06741969287395477,0.03738808259367943,0.06994405388832092,0.06347615271806717,0.12925007939338684,-0.04657069221138954,-0.06993600726127625,-0.0008625126210972667,0.02436196058988571,0.19415363669395447,0.10619577765464783,-0.00018709329015109688,-0.12323377281427383,-0.20514503121376038,-0.011844903230667114,0.04492751136422157,0.14158084988594055,0.022350942716002464,-0.023363417014479637,0.052197929471731186,-0.18367312848567963,0.1414015293121338,0.20014885067939758,0.09248660504817963,0.11346407979726791,-0.16060256958007812,-0.25015437602996826,-0.13176880776882172,-0.26211974024772644,0.2576600909233093,0.26765280961990356,-0.039912909269332886,-0.02161678858101368,0.05804133787751198,-0.1885690540075302,0.05838676169514656,-0.3053033947944641,0.05338340252637863,0.23673132061958313,-0.11852007359266281,-0.07324518263339996,0.490059494972229,-0.23723706603050232,-0.04360511526465416,0.12813839316368103,0.18921437859535217,-0.16224578022956848,-0.10688057541847229,-0.19909696280956268,0.035725053399801254,-0.5286146998405457,0.3116476833820343,-0.006191978231072426,0.0467039979994297,-0.2554902136325836,-0.10629156976938248,0.12478509545326233,0.11032462120056152,-0.1363435983657837,-0.2684710919857025,-0.24005499482154846,-0.14327754080295563,0.347890168428421,0.10755728930234909,-0.0916011705994606,0.06953025609254837,0.26944512128829956,-0.13899469375610352,-0.22525547444820404,0.16400852799415588,-0.1249965950846672,-0.00016498976037837565,0.19468329846858978,0.08050220459699631,0.16495534777641296,0.011130038648843765,0.29691243171691895,-0.16946649551391602,-0.016490662470459938,0.005055287852883339,0.2121753990650177,-0.15046317875385284,-0.14644163846969604,0.09509647637605667,0.0182738546282053,-0.08325611799955368,-0.18447166681289673,-0.03007270209491253,-0.005032519809901714,-0.04729094356298447,0.13769428431987762,0.00039441685657948256,-0.2063487470149994,-0.18085449934005737,-0.1002790704369545,0.021560076624155045,0.039987754076719284,-0.11158259958028793,-0.006215142086148262,-0.1769540160894394,0.02226279117166996,-0.002298193983733654,0.2275770604610443,0.07641589641571045,-0.20006830990314484,-0.10497505217790604,-0.10510993748903275,0.06502668559551239,0.2795235514640808,-0.0012244489043951035,-0.3353947699069977,0.17310521006584167,-0.44365444779396057,-0.07333485782146454,-0.22902987897396088,0.20575885474681854,0.1854490488767624,-0.09949111938476562,0.28215405344963074,0.014990516938269138,-0.16842997074127197,0.12114358693361282,0.07143796980381012,-0.046556927263736725,0.011605941690504551,-0.006049882620573044,0.06698580086231232,-0.065777987241745,0.0549435131251812,0.06114735081791878,0.05035068839788437,0.12146974354982376,0.213963583111763,-0.06476639211177826,0.09128713607788086,0.012048957869410515,-0.03159994259476662,0.22280466556549072,-0.05685871094465256,-0.05505000054836273,-0.19248361885547638,-0.07419196516275406,-0.05105672404170036,0.14857539534568787,-0.056594669818878174,0.18710768222808838,0.1854359656572342,0.01602308824658394,0.06483601033687592,0.07452846318483353,-0.04471267759799957,0.06579913944005966,0.016972877085208893,-0.12634123861789703,0.19618596136569977,0.11764444410800934,-0.043720465153455734,-0.20137393474578857,-0.18427468836307526,-0.0006361494306474924,-0.0838920995593071,0.1906040608882904,-0.08728747069835663,0.180367112159729,0.008574827574193478,0.22225850820541382,0.20400594174861908,-0.0002539872075431049,-0.10250028222799301,-0.14473436772823334,-0.15137922763824463,0.030824000015854836,-0.2751067578792572,0.2973919212818146,0.1503109633922577,-0.09359799325466156,-0.056366488337516785,-0.029552090913057327,-0.0665547326207161,0.09256035089492798,0.027417855337262154,0.03562135249376297,0.06148547679185867,-0.21270161867141724,-0.22699685394763947,0.20296213030815125,-0.0264416616410017,0.11391386389732361,0.18733097612857819,0.23777776956558228,0.11174148321151733,-0.21806688606739044,0.0162497665733099,0.13753798604011536,-0.09454558044672012,0.08944030851125717,-0.04138992354273796,-0.026446262374520302,-0.09164758771657944,0.12673108279705048,0.17108826339244843,0.18914000689983368,0.04350559040904045,-0.16228538751602173,-0.19722269475460052,0.04609602317214012,0.11239408701658249,0.08928713947534561,0.17639878392219543,0.13207194209098816,0.18354865908622742,-0.086751289665699,-0.12213093042373657,0.13180091977119446,-0.15678729116916656,-0.012730205431580544,0.14450207352638245,-0.007350466679781675,0.20361092686653137,-0.23017631471157074,-0.13830523192882538,0.31956514716148376,0.25380998849868774,0.09130238741636276,-0.2958345413208008,0.14364391565322876,-0.05404428020119667,-0.023761754855513573,-0.25439703464508057,-0.09989051520824432,0.19759218394756317,-0.2519223690032959,-0.3075159788131714,0.3098505437374115,-0.1892070323228836,-0.12153975665569305,0.1900380551815033,0.1788901686668396,-0.04788801074028015,-0.33784499764442444,0.07107377052307129,-0.00932663306593895,-0.011435100808739662,0.13075409829616547,-0.05398305505514145,-0.08001341670751572,-0.2748274505138397,0.11427350342273712,0.28920191526412964,0.3399125039577484,-0.10424591600894928,-0.08647634834051132,-0.09511205554008484,-0.0856844112277031,0.2733272314071655,0.07550200074911118,0.048576720058918,-0.44757261872291565,0.34661582112312317,-0.03225855901837349,-0.1588549166917801,0.1442873477935791,-0.11476971954107285,-0.008993851020932198,0.20118911564350128,-0.003913586959242821,0.24140425026416779,-0.06402840465307236,-0.142664834856987,0.11724726855754852,0.19271741807460785,0.012490685097873211,-0.3028339147567749,0.31261321902275085,0.016039514914155006,-0.27869608998298645,-0.24649560451507568,-0.04367244243621826,0.022937798872590065,0.005337412003427744,0.06966858357191086,-0.35547614097595215,-0.11621193587779999,-0.06933560222387314,0.1416354775428772,0.06691206246614456,0.118915855884552,-0.3163628578186035,0.08594968914985657,0.015569673851132393,0.19374984502792358,0.07945512980222702,0.1443374752998352,-0.38225895166397095,-0.2883550524711609,0.082496277987957,0.17226345837116241,0.1634763777256012,0.019458703696727753,-0.365302175283432,-0.3236021399497986,-0.11980237066745758,0.32126712799072266,0.1670076847076416,0.18695908784866333,-0.201593279838562,0.334330290555954,0.05878610908985138,-0.17037002742290497,0.11209236085414886,0.013346080668270588,-0.22975721955299377,0.09008870273828506,0.10127472877502441,-0.1818511039018631,-0.01038097869604826,-0.12353541702032089,0.002454449189826846,-0.023530811071395874,0.09537868201732635,0.03278929740190506,-0.23707051575183868,-0.03553991764783859,0.08589280396699905,0.11110901087522507,0.09285405278205872,-0.02491852082312107,-0.13310249149799347,-0.0701015368103981,0.022363808006048203,0.09763491153717041,0.10378304123878479,-0.004065023269504309,-0.20096085965633392,0.05987216532230377,0.19236014783382416,0.0498470701277256,0.0017308453097939491,-0.11082661151885986,-0.12397769838571548,-0.04058466851711273,0.08830723166465759,0.04723888263106346,-0.08342098444700241,0.04673394933342934,-0.02051737904548645,-0.07168915122747421,0.15664096176624298,0.16126950085163116,-0.005423343274742365,-0.06679379940032959,-0.12089423835277557,0.1368919014930725,-0.2557486593723297,-0.09912028908729553,-0.11760833859443665,0.1634053885936737,-0.12061338126659393,-0.301920086145401,0.3410660922527313,0.033642470836639404,-0.18615800142288208,0.39924541115760803,0.00679037207737565,0.17077341675758362,0.02310948632657528,-0.22925002872943878,-0.08473203331232071,0.1498611867427826,-0.16078166663646698,-0.045750897377729416,0.16358676552772522,-0.0034373216331005096,0.061723049730062485,0.03294048830866814,-0.040742915123701096,-0.15639789402484894,-0.11382123082876205,0.18581406772136688,-0.11293646693229675,-0.2157117873430252,-0.05424833297729492,-0.1804315596818924,0.21145214140415192,-0.049338046461343765,-0.07667742669582367,-0.12954150140285492,-0.16857145726680756,0.03606143221259117,0.2231048345565796,0.029745960608124733,0.09789663553237915,-0.07853280007839203,-0.17729584872722626,-0.1855458915233612,0.15405447781085968,0.21192511916160583,-0.05116990953683853,-0.25359225273132324,-0.22571806609630585,-0.1583206206560135,0.04598458483815193,-0.14796330034732819,0.10745316743850708,0.1069990023970604,-0.23701024055480957,-0.030436260625720024,0.0012214782182127237,-0.08205410093069077,0.07627812772989273,0.14689920842647552,0.10607702285051346,-0.013869313523173332,0.031405288726091385,-0.2327679693698883,0.11852347105741501,0.1804586946964264,-0.20960929989814758,-0.04459245502948761,-0.02696605771780014,0.27612972259521484,0.06521252542734146,-0.03313443437218666,0.32577288150787354,0.1581922173500061,-0.08698229491710663,0.012807382270693779,-0.09472165256738663,-0.10857436060905457,-0.10769113898277283,0.03833878040313721,0.006856344174593687,-0.1158502921462059,0.14449644088745117,-0.007900131866335869,-0.037341054528951645,-0.08835697919130325,0.08139177411794662,0.02253551408648491,-0.030951855704188347,0.025163840502500534,-0.2072167545557022,0.2136382907629013,0.02896018698811531,0.24121630191802979,-0.10223709791898727,-0.19077882170677185,0.12879911065101624,0.8041399121284485,-0.02608199417591095,-0.28125858306884766,0.005999123211950064,0.22994102537631989,-0.14988066256046295,-0.3754594027996063,0.1953989714384079,-0.33917877078056335,-0.5106834173202515,0.42397961020469666,0.11240499466657639,-0.06204572319984436,0.06140660122036934,-0.03307206183671951,0.04119980335235596,-0.09140563011169434,-0.02885795198380947,-0.13044601678848267,0.054074373096227646,-0.04331371933221817,0.002387631917372346,-0.05060357227921486,0.08998297154903412,0.03958353027701378,-0.04458197206258774,0.05055505782365799,0.8934758901596069,0.2460119128227234,0.8285987973213196,-0.6688675284385681,-0.4578312039375305,0.3885151743888855,0.39340826869010925,0.037666354328393936,0.27168115973472595,0.14795731008052826,-0.8212574124336243,0.5430407524108887,0.18720003962516785,-0.8112333416938782,-0.20453700423240662,-0.48385176062583923,0.17250384390354156,-0.36998018622398376,0.35227495431900024,-0.13611887395381927,0.10032270103693008,0.036708906292915344,-0.054232917726039886,-0.013875431381165981,-0.4444918930530548,-0.032895203679800034,-0.2320394515991211,0.2698618769645691,0.07924499362707138,0.25011271238327026,0.03291621059179306,0.004090264439582825,-0.1493116319179535,-0.12568557262420654,-0.11277664452791214,-0.3179696798324585,-0.11005736142396927,-0.058186665177345276,0.0025734000373631716,-0.22365646064281464,-0.05995374917984009,-0.07965550571680069,-0.07870256155729294,-0.007676470093429089,-0.2781863808631897,0.17764611542224884,0.21669478714466095,0.1794665902853012,-0.23027315735816956,0.27622151374816895,-0.4264814853668213,-0.6067496538162231,-0.17119939625263214,-0.1541048139333725,-0.234746515750885,-0.2340645045042038,0.30589595437049866,-0.13876593112945557,-0.16886939108371735,-0.46431487798690796,-0.3286992907524109,0.22659184038639069,0.12357407063245773,0.2564918100833893,-0.23192818462848663,-0.0743536725640297,0.06206834316253662,0.42981475591659546,0.09314361959695816,0.215811625123024,0.17366120219230652,0.5092870593070984,-0.3156936466693878,-0.2048153579235077,0.24605008959770203,0.12514036893844604,0.5190109014511108,-0.13715045154094696,-0.0024372893385589123,-0.47478628158569336,-0.1284388154745102,0.1258181780576706,0.07630675286054611,0.23594291508197784,-0.06902798265218735,-0.17295144498348236,-0.025255262851715088,0.04159212484955788,0.18285790085792542,0.1747230589389801,0.3302173912525177,0.4512106776237488,0.018204472959041595,-0.16304096579551697,-0.19771604239940643,-0.11655841767787933,-0.17351864278316498,-0.06987418234348297,0.32738858461380005,-0.017185788601636887,-0.10398531705141068,0.16246844828128815,0.1428203582763672,0.1850709319114685,0.09341700375080109,0.32504531741142273,0.09275863319635391,0.39243802428245544,0.026689495891332626,0.08694066107273102,-0.13259361684322357,-0.11912689357995987,0.05737735331058502,-0.18120145797729492,-0.0980953574180603,0.31616929173469543,0.0596897155046463,-0.3030831515789032,-0.09741944819688797,-0.09779470413923264,-0.31163591146469116,-0.15216830372810364,-0.08688510954380035,-0.08396585285663605,0.11798374354839325,-0.09130334854125977,0.034038301557302475,-0.2649330794811249,0.029006874188780785,0.15039683878421783,-0.28377291560173035,0.0463230162858963,0.31667232513427734,-0.2034054398536682,-0.030102651566267014,0.18098655343055725,0.21323798596858978,0.10914956033229828,0.07024403661489487,-0.04463867470622063,-0.1802913099527359,-0.13015243411064148,0.141103133559227,-0.35744738578796387,-0.3474212884902954,0.10521453619003296,-0.3750426471233368,-0.21382835507392883,0.20236000418663025,0.0006748529267497361,-0.27202239632606506,-0.2352668195962906,0.2339780181646347,-0.13144640624523163,0.09286297112703323,-0.42502593994140625,-0.17168927192687988,0.1374218761920929,0.17158760130405426,0.022985873743891716,-0.0055868253111839294,0.10120734572410583,0.5171351432800293,0.5607457756996155,-0.2690393030643463,0.09258917719125748,-0.15536034107208252,0.5723215341567993,-0.3755435049533844,-0.09198594838380814,0.16341394186019897,0.48371386528015137,0.7064939141273499,-0.2551981508731842,0.030866805464029312,-0.09589409828186035,-0.05795660987496376,0.01971025951206684,-0.7828704118728638,-0.43009501695632935,-0.17263858020305634,-0.054680049419403076,-0.05116316303610802,-0.34012532234191895,-0.08294747769832611,-0.0308538731187582,-0.06813061237335205,-0.329307496547699,-0.6174842119216919,0.06966056674718857,0.3307446241378784,-0.14472927153110504,0.15388475358486176,0.10228309035301208,-0.00769874406978488,-0.07574117183685303,0.05990677326917648,-0.2006777673959732,0.15127865970134735,0.028973089531064034,-0.3471364378929138,0.20676150918006897,-0.08102775365114212,0.23283953964710236,-0.07232441753149033,0.2673667073249817,-0.11381349712610245,-0.10477310419082642,0.1459164321422577,0.2869561016559601,0.13218025863170624,0.04312881827354431,-0.20300209522247314,-0.03280755504965782,-0.02234119549393654,0.03414549306035042,0.41447392106056213,0.049200888723134995,-0.3153345584869385,-0.17188921570777893,-0.33036643266677856,0.04758812487125397,0.07258240133523941,-0.41625332832336426,-0.01441981177777052,0.14086748659610748,-0.4299495220184326,-0.18979451060295105,-0.06430712342262268,0.01967114396393299,-0.17228582501411438,-0.14119406044483185,0.09373664110898972,0.14150092005729675,0.04216395691037178,-0.5355373620986938,-0.6380942463874817,0.09332221001386642,0.033431053161621094,-0.012114466167986393,0.31598615646362305,-0.14268392324447632,0.23756155371665955,0.3220619261264801,-0.18569229543209076,-0.10809755325317383,-0.05155887454748154,0.2360500693321228,-0.2085006684064865,-0.017551392316818237,-0.05287322774529457,0.17256177961826324,0.13452334702014923,0.02434876561164856,-0.2160167247056961,0.21772748231887817,0.2670856714248657,0.07868189364671707,-0.3056561350822449,-0.5763647556304932,-0.18750447034835815,-0.21333754062652588,0.23513346910476685,-0.27997922897338867,0.052280671894550323,0.008596871048212051,-0.19849912822246552,-0.18477357923984528,-0.2058536261320114,0.20620688796043396,0.22289001941680908,0.17314614355564117,-0.13896788656711578,-0.0190709438174963,0.0479157455265522,0.13329406082630157,0.04661181569099426,0.0025184343103319407,0.018965905532240868,0.034340012818574905,-0.17272068560123444,0.12510637938976288,0.0280202217400074,-0.04186967760324478,0.008036218583583832,-0.2756239175796509,-0.006871999707072973,-0.05963652953505516,0.056146055459976196,-0.14919638633728027,0.09570018202066422,0.05077936500310898,0.2547898292541504,-0.20126385986804962,0.09811431169509888,0.17935247719287872,-0.2717709243297577,-0.16196715831756592,-0.17113080620765686,0.1019539013504982,-0.017871880903840065,-0.11969369649887085,-0.015639757737517357,-0.0750097781419754,-0.24102702736854553,0.1463073343038559,0.12785354256629944,0.047455795109272,0.04628773406147957,0.13865862786769867,0.17230471968650818,-0.16692188382148743,0.07882764935493469,-0.004321103449910879,-0.0338202640414238,0.09577001631259918,-0.2190341204404831,0.15107887983322144,0.1997232884168625,0.2324455976486206,-0.23877571523189545,0.02522074244916439,-0.13954542577266693,-0.10039661824703217,-0.0025598343927413225,-0.11651058495044708,-0.09415815025568008,-0.0016418679151684046,0.06367488950490952,-0.1299770474433899,0.2036399394273758,-0.08680757135152817,0.09624302387237549,-0.006633819080889225,0.2726285755634308,-0.07070986181497574,-0.09830820560455322,0.006954872980713844,0.11750802397727966,0.07058579474687576,-0.13750091195106506,-0.005825623404234648,-0.26283684372901917,-0.24359039962291718,0.1590481996536255,0.011813576333224773,0.2565978169441223,0.08012982457876205,0.1652740240097046,-0.010233490727841854,0.2047978639602661,0.0943705141544342,0.10510510206222534,-0.017794543877243996,-0.14765538275241852,0.02247474528849125,0.12816660106182098,-0.16375909745693207,-0.16367127001285553,0.17428791522979736,-0.0479653924703598,0.0225511584430933,0.1833636611700058,-0.0023183906450867653,0.1748352348804474,-0.01924862153828144,0.07295287400484085,-0.24695049226284027,0.17757880687713623,-0.22270116209983826,-0.07479950785636902,-0.008468976244330406,0.14457504451274872,0.049898967146873474,0.4043532907962799,0.04938908666372299,-0.18550418317317963,0.07190276682376862,0.08928340673446655,-0.10476982593536377,-0.1728864461183548,-0.20101849734783173,-0.259044349193573,-0.03099329210817814,-0.011321083642542362,-0.10135405510663986,0.14526493847370148,-0.0740690678358078,0.28881335258483887,0.0034339874982833862,0.1085105612874031,0.08623421937227249,-0.11953228712081909,-0.24243126809597015,-0.19254706799983978,0.050316955894231796,0.03755754604935646,-0.2391604334115982,-0.23518647253513336,0.05003541335463524,0.013964066281914711,0.2432650774717331,-0.08998041599988937,-0.08584212511777878,-0.09837719798088074,0.06691265851259232,-0.010653235949575901,-0.19473524391651154,0.1455499678850174,0.06927000731229782,-0.19365650415420532,0.03184765577316284,-0.29155057668685913,0.15315571427345276,0.18884217739105225,0.31351929903030396,-0.045423515141010284,0.0932765081524849,0.03137317672371864,0.08814812451601028,-0.10484335571527481,-0.1497209370136261,-0.023578979074954987,0.10219714045524597,0.22145822644233704,0.0005830490263178945,0.04596984386444092,0.008883489295840263,0.04588671028614044,0.18581706285476685,0.10024676471948624,-0.14801524579524994,0.040784046053886414,-0.013154829852283001,0.11274953931570053,-0.045146651566028595,0.055250782519578934,-0.1619504988193512,0.3597303628921509,0.30945131182670593,-0.03021017275750637,-0.06166721507906914,-0.3293501138687134,0.20405717194080353,-0.11474262177944183,-0.20116563141345978,0.11515788733959198,-0.054168250411748886,-0.13996060192584991,0.18435585498809814,-0.005544398445636034,-0.08958560973405838,0.13011103868484497,0.1276540607213974,0.016645310446619987,0.04697669297456741,0.09963089227676392,0.08990248292684555,0.02152174524962902,-0.21158134937286377,-0.1048695370554924,0.11005473881959915,0.0714578777551651,0.18663841485977173,-0.059518616646528244,0.12340439110994339,-0.062181733548641205,0.0771455317735672,-0.0010812609689310193,-0.09984146803617477,0.15134067833423615,-0.17361897230148315,0.11506929248571396,-0.2318916916847229,-0.05414823815226555,-0.0493333525955677,-0.00561555428430438,0.2970510423183441,0.16011834144592285,-0.15087029337882996,-0.055580656975507736,0.009975793771445751,-0.062026891857385635,0.03093673475086689,0.03878634050488472,-0.14332731068134308,0.06625494360923767,0.022780228406190872,-0.09050337225198746,0.09736690670251846,0.1329088807106018,0.09477341920137405,0.3444828391075134,0.005603610537946224,-0.010164945386350155,0.09401880949735641,-0.054125040769577026,-0.01618959754705429,0.29555895924568176,0.01739445887506008,-0.1278381198644638,0.13020199537277222,0.06823590397834778,-0.036027200520038605,-0.12141411006450653,-0.03134465962648392,-0.020544355735182762,0.18494310975074768,0.09676051139831543,0.2532931864261627,0.0607331208884716,0.07047505676746368,-0.33728766441345215,-0.043729327619075775,-0.23636367917060852,-0.1620493084192276,-0.14185601472854614,-0.07977360486984253,-0.1765226423740387,0.0248172078281641,0.05297461524605751,-0.14690347015857697,0.11211179941892624,0.010121004655957222,0.016597623005509377,-0.3248753547668457,0.006601265165954828,0.029441621154546738,-0.3789735734462738,-0.0013708720216527581,-0.20803672075271606,0.12328751385211945,-0.2522248327732086,0.06857562810182571,0.13810774683952332,-0.21060693264007568,0.10974261909723282,-0.16143383085727692,0.4075520634651184,-0.125273659825325,-0.1607406735420227,0.05165450647473335,-0.09466071426868439,-0.2529735565185547,0.12743842601776123,0.014024543575942516,0.26048871874809265,-0.03176882117986679,-0.04221296310424805,-0.09887225925922394,-0.026058189570903778,0.1758190393447876,-0.05012283846735954,-0.4911222755908966,0.03779420629143715,-0.20759649574756622,0.30538493394851685,-0.21004590392112732,0.1931205540895462,-0.3013851046562195,0.06512260437011719,-0.3329433798789978,0.18989573419094086,-0.09123103320598602,0.1436372995376587,-0.021047966554760933,-0.08296185731887817,-0.04448196291923523,-0.3585779070854187,-0.022319158539175987,0.02293897233903408,0.21205155551433563,-0.1153847873210907,0.1336517333984375,-0.251808226108551,0.07579868286848068,-0.058489009737968445,0.109266497194767,-0.041955139487981796,-0.03410140424966812,-0.09355400502681732,0.13818024098873138,-0.0802759900689125,-0.20210318267345428,0.3044281601905823,-0.13144859671592712,-0.04709839075803757,-0.15188351273536682,0.10575365275144577,0.21058334410190582,-0.2728179395198822,0.22022096812725067,0.21359960734844208,-0.05046335607767105,-0.1262986660003662,0.004672989249229431,0.13685432076454163,0.05247660353779793,-0.13994309306144714,0.0914253517985344,-0.09651897102594376,-0.13699492812156677,0.32945266366004944,-0.0017979353433474898,0.1548275649547577,-0.2780868113040924,-0.10017844289541245,-0.019662916660308838,0.28716903924942017,0.12658855319023132,0.03669201582670212,-0.01368127390742302,0.07116740196943283,0.15602827072143555,0.3452894687652588,-0.0016340615693479776,-0.004170037806034088,0.20993280410766602,-0.21547752618789673,-0.16027574241161346,-0.13602373003959656,0.2822924852371216,0.014107059687376022,0.22679193317890167,0.03457527607679367,-0.038686368614435196,0.2294047325849533,0.15588092803955078,0.09511443227529526,-0.11630010604858398,0.009478467516601086,-0.07650086283683777,-0.007453310303390026,-0.16384083032608032,-0.13853172957897186,0.2524220049381256,0.14766612648963928,-0.1613972932100296,0.5340260863304138,-0.13460591435432434,-0.18041422963142395,0.05307678505778313,0.04338790103793144,0.10855558514595032,-0.08417408168315887,0.25851619243621826,-0.13174323737621307,0.1964251548051834,-0.014352620579302311,0.0280690286308527,-0.1534184366464615,-0.1868840754032135,-0.056464407593011856,0.13120906054973602,0.08370014280080795,0.08054061979055405,0.0033340947702527046,-0.2649039924144745,-0.24251094460487366,0.21715150773525238,0.26542067527770996,-0.09734520316123962,0.13522914052009583,0.046118948608636856,0.05408446863293648,-0.19754637777805328,-0.15542401373386383,-0.15114620327949524,-0.10101953148841858,0.018067386001348495,0.0872054398059845,-0.07297216355800629,0.3197080194950104,-0.23524640500545502,-0.2220245599746704,-0.09951949119567871,0.15671010315418243,0.06793966144323349,-0.29271620512008667,0.037821993231773376,-0.11412806808948517,0.08213533461093903,-0.3424098789691925,-0.1849350482225418,0.2651219069957733,-0.21959629654884338,0.018552374094724655,0.2525787055492401,-0.26500096917152405,0.042152710258960724,-0.2005220204591751,-0.19967135787010193,-0.09769996255636215,-0.06711876392364502,0.022942619398236275,-0.03754346817731857,-0.030278701335191727,0.3205505311489105,0.19778963923454285,0.27322158217430115,-0.25072354078292847,0.11640558391809464,-0.2684772312641144,0.2868657112121582,0.12501461803913116,0.13055862486362457,0.05932844057679176,-0.23108257353305817,0.03771935775876045,0.3475126326084137,-0.1456761360168457,-0.21180984377861023,0.2457960844039917,0.24341654777526855,0.03964885696768761,-0.3205471634864807,-0.2324010729789734,-0.3160626292228699,0.24728839099407196,0.18456996977329254,0.07496372610330582,0.0679473876953125,-0.018066203221678734,-0.15082140266895294,0.0024680171627551317,-0.2121575027704239,0.17258988320827484,0.12203699350357056,-0.19783885776996613,-0.2603612244129181,-0.17917373776435852,-0.014482084661722183,-0.10354618728160858,-0.06296370923519135,-0.19089366495609283,0.07782350480556488,0.08941037952899933,0.11411178112030029,-0.10807694494724274,0.06757568567991257,-0.03528065234422684,0.06723041832447052,0.3113815486431122,0.07858287543058395,-0.02099340409040451,0.1495416909456253,0.014305456541478634,-0.2601258158683777,-0.1780693531036377,-0.0830075740814209,-0.07679639756679535,0.0858868733048439,-0.18696199357509613,0.06888193637132645,-0.01617436297237873,-0.10964202880859375,-0.1473749577999115,0.0007372249965555966,0.03413436934351921,0.00873822346329689,0.09448090940713882,0.013591097667813301,0.1316930651664734,0.012477508746087551,-0.04558003321290016,0.047445736825466156,0.10192668437957764,-0.21373501420021057,-0.29665496945381165,0.22869578003883362,0.1166805624961853,0.10079325735569,0.03813394531607628,-0.03489648550748825,-0.11587599664926529,0.030443454161286354,-0.015502942726016045,0.10437886416912079,0.2611120045185089,-0.009378505870699883,0.05689798668026924,0.24937273561954498,0.15848420560359955,-0.1443656086921692,0.14098003506660461,0.0017959331162273884,0.12267503142356873,-0.009060810320079327,-0.22463500499725342,-0.10328570008277893,0.1014876589179039,-0.124494768679142,0.04737593233585358,-0.08906298875808716,-0.04989724978804588,-0.06151391938328743,0.21363647282123566,-0.08495595306158066,0.03732578456401825,0.11069612205028534,-0.08487608283758163,-0.11500826478004456,0.09458959847688675,-0.062297720462083817,-0.1018839180469513,0.2698350250720978,-0.04164307564496994,-0.07874517142772675,-0.13680346310138702,0.019257009029388428,0.19458870589733124,