{"version":"0.5.4","metadata":{"date":{"year":2025,"month":6,"day":7,"hour":16,"minute":34,"second":17},"loudness":-22.23567008972168,"gain":0.8423999252824788,"name":"JCM 800","modeled_by":"giovanevichingo","gear_type":"amp","gear_make":"tz-make","gear_model":"tz-model","tone_type":"overdrive","input_level_dbu":null,"output_level_dbu":null,"training":{"settings":{"ignore_checks":true},"data":{"latency":{"manual":0,"calibration":{"algorithm_version":1,"delays":[1],"safety_factor":1,"recommended":0,"warnings":{"matches_lookahead":false,"disagreement_too_high":false}}},"checks":{"version":4,"passed":false}},"validation_esr":0.0016940367617083911}},"architecture":"WaveNet","config":{"layers":[{"input_size":1,"condition_size":1,"head_size":8,"channels":16,"kernel_size":3,"dilations":[1,2,4,8,16,32,64,128,256,512],"activation":"Tanh","gated":false,"head_bias":false},{"input_size":16,"condition_size":1,"head_size":1,"channels":8,"kernel_size":3,"dilations":[1,2,4,8,16,32,64,128,256,512],"activation":"Tanh","gated":false,"head_bias":true}],"head":null,"head_scale":0.02},"weights":[-0.21857880055904388,0.5608289241790771,-0.8812613487243652,-0.8299548625946045,-0.3416692018508911,0.504212498664856,-0.04085514321923256,0.9459670186042786,-0.1988798975944519,0.3475513756275177,-0.5050808787345886,-0.22070623934268951,-1.1006343364715576,-0.7292845249176025,-0.6463831663131714,0.0005120565183460712,-0.03663098067045212,0.3398001492023468,-0.0821690708398819,-0.010266684927046299,-0.19544033706188202,0.10209701210260391,-0.08355547487735748,0.35351189970970154,-0.00977481622248888,-0.04015486314892769,0.37624630331993103,-0.11993583291769028,-0.14002826809883118,0.20677967369556427,-0.04456869512796402,0.1879941076040268,-0.3400442898273468,-0.07803905010223389,-0.08074098080396652,0.17589792609214783,-0.10001569241285324,0.17828696966171265,-0.18342356383800507,0.05157116800546646,-0.060734909027814865,0.16235774755477905,0.020050162449479103,-0.0728733167052269,-0.3421036899089813,-0.07816065847873688,0.026479341089725494,0.32777807116508484,-0.054828085005283356,-0.06705313175916672,0.3252926766872406,0.1404264122247696,0.004394462797790766,0.26811128854751587,0.1162320151925087,-0.1340966671705246,0.27544641494750977,-0.09385070949792862,-0.16323328018188477,0.17180536687374115,0.08339586853981018,-0.13791756331920624,-0.2628868520259857,0.07378342002630234,-0.1872168481349945,-0.029797695577144623,0.3570920526981354,0.2859199345111847,0.09207602590322495,-0.21043018996715546,-0.36572161316871643,-0.0573495477437973,0.4062917232513428,-0.1355874091386795,0.12044478952884674,0.4743081033229828,-0.21361351013183594,-0.12348277866840363,0.3590220808982849,0.1653706282377243,-0.13217976689338684,-0.23000623285770416,-0.044027071446180344,-0.07472865283489227,0.38539478182792664,0.2308458536863327,-0.020011037588119507,-0.41650936007499695,-0.1919952929019928,-0.09059358388185501,0.39534762501716614,0.31959018111228943,0.10461600869894028,-0.29312753677368164,-0.3972937762737274,-0.0964878499507904,0.42427298426628113,-0.22242704033851624,-0.12375718355178833,0.24598543345928192,-0.12133628129959106,0.09118730574846268,0.2841065227985382,-0.286611944437027,-0.13823945820331573,0.3475293517112732,-0.3719586431980133,-0.12158410251140594,0.341489315032959,-0.14402072131633759,-0.23951610922813416,-0.006858429405838251,0.060860589146614075,0.05275464802980423,0.12621662020683289,-0.22662411630153656,0.049098849296569824,0.006386019289493561,0.12431685626506805,-0.05580737069249153,0.052208755165338516,0.11386788636445999,-0.1550171673297882,0.06944677978754044,-0.031074577942490578,-0.16251225769519806,-0.026170093566179276,-0.18449415266513824,0.029979081824421883,-0.12706424295902252,0.09156225621700287,-0.07253134250640869,-0.00846500787883997,-0.11142531782388687,0.18859177827835083,-0.013904480263590813,0.13899710774421692,-0.06686461716890335,0.06957501918077469,-0.017177684232592583,0.21301618218421936,0.07820441573858261,0.24737395346164703,-0.09122741222381592,-0.12210622429847717,0.04309138283133507,0.025675320997834206,0.016408460214734077,0.03146567940711975,-0.19766299426555634,-0.1382954865694046,-0.020162686705589294,-0.11473342776298523,0.07903509587049484,0.18863631784915924,-0.22375339269638062,0.08980259299278259,-0.2085121124982834,-0.10010375082492828,-0.18191565573215485,0.1610010266304016,-0.05884244292974472,-0.2993848919868469,-0.3099895417690277,-0.0029530280735343695,0.1407044380903244,0.12614089250564575,0.03897242248058319,-0.26394936442375183,0.1776692271232605,0.11061391979455948,-0.19678083062171936,0.3028953969478607,0.025806382298469543,-0.27795302867889404,-0.09834896773099899,0.00782917533069849,0.08655354380607605,0.24209867417812347,-0.1517801284790039,-0.2061409056186676,-0.217853382229805,0.12125740945339203,0.17933562397956848,0.23167769610881805,0.005506191402673721,-0.21042181551456451,-0.21215596795082092,-0.09477078914642334,0.23015806078910828,0.3019193708896637,0.07682643830776215,-0.2501257061958313,0.17773203551769257,-0.1296798139810562,-0.23160304129123688,0.1040448248386383,0.03353894501924515,-0.22158822417259216,0.18308015167713165,-0.01084190234541893,-0.04516231268644333,0.08090159296989441,-0.12207771092653275,-0.22718650102615356,0.2276056706905365,-0.06901035457849503,0.12054837495088577,-0.18908768892288208,0.09661588817834854,-0.016770299524068832,0.15452329814434052,-0.08832092583179474,-0.06978008151054382,-0.19111672043800354,0.12091577053070068,-0.08009631931781769,-0.2622566521167755,0.21905305981636047,-0.08531234413385391,-0.189829021692276,0.24100692570209503,0.08217382431030273,0.2014518529176712,-0.2280690222978592,0.04482143372297287,-0.2240525186061859,0.07710675150156021,-0.008211025968194008,0.1665722131729126,-0.10189035534858704,0.08576624095439911,-0.17277829349040985,0.22156797349452972,0.10508871078491211,0.09938151389360428,-0.03131575882434845,-0.12313593178987503,-0.2539169192314148,0.14402778446674347,0.07462050020694733,-0.07322197407484055,0.05099649727344513,0.027464132755994797,-0.112696073949337,-0.03400885686278343,0.1396755576133728,-0.30124735832214355,0.1066114604473114,0.011079955846071243,-0.27423757314682007,0.12440748512744904,0.15027454495429993,0.025114795193076134,0.02618289552628994,0.14185385406017303,-0.004908308386802673,0.13699187338352203,-0.14218798279762268,-0.1915513128042221,-0.13321292400360107,0.1871132105588913,0.16924293339252472,0.15826314687728882,-0.058571480214595795,0.04757193103432655,0.00973366666585207,-0.06079152971506119,0.2119755893945694,0.08884074538946152,-0.1654050350189209,-0.170925110578537,-0.19337166845798492,0.12994560599327087,0.0170394666492939,-0.12093101441860199,0.123027503490448,-0.18830902874469757,-0.06608299165964127,0.1471976935863495,0.1231824979186058,-0.023617904633283615,-0.18405477702617645,0.018973100930452347,-0.029386084526777267,0.21266578137874603,0.05061303824186325,0.09635882079601288,-0.13118401169776917,0.09617879986763,-0.02921253815293312,-0.033809177577495575,0.14071890711784363,0.046430282294750214,-0.13890837132930756,0.003005846170708537,0.14717210829257965,-0.21230095624923706,0.16067510843276978,0.0075141917914152145,-0.1742774099111557,0.04897598177194595,0.014102344401180744,0.00868984404951334,0.15850917994976044,-0.2181457132101059,0.11804628372192383,-0.024088991805911064,0.1696576476097107,-0.0795871764421463,-0.0365125946700573,-0.14017756283283234,0.10855264961719513,0.03371575102210045,-0.05704158917069435,0.1589152067899704,0.01073071826249361,-0.10401636362075806,0.1271173506975174,-0.08538501709699631,0.1200617253780365,-0.055685482919216156,-0.0457945317029953,-0.14018374681472778,0.23515650629997253,0.04406831040978432,0.1970084011554718,-0.041627369821071625,0.1828124225139618,-0.15390644967556,-0.019771214574575424,-0.21814723312854767,0.24545614421367645,0.015837937593460083,-0.005923864897340536,-0.05095594748854637,0.17967799305915833,0.2391865998506546,0.02835928089916706,0.1899612545967102,0.051961857825517654,-0.16485093533992767,0.17686377465724945,0.16368979215621948,-0.19928699731826782,0.19031472504138947,0.1624644547700882,-0.03421290963888168,-0.027314526960253716,0.02727069891989231,-0.03461487218737602,0.04125433787703514,-0.18256784975528717,-0.1935689002275467,-0.06342364102602005,0.21838189661502838,0.19984188675880432,0.1784089356660843,-0.2552114427089691,-0.2149432748556137,-0.20155082643032074,-0.3002185821533203,-0.36662545800209045,0.005575732793658972,-0.06188973784446716,-0.09608998149633408,0.020095642656087875,0.03312161564826965,0.15688587725162506,0.08128780126571655,-0.19210751354694366,-0.06084081903100014,-0.1158372312784195,0.0876254290342331,0.11224425584077835,0.027323609218001366,-0.02674732357263565,-0.11813656240701675,0.013133079744875431,0.2618805170059204,0.37250998616218567,0.065188467502594,-0.09132910519838333,-0.12067750096321106,-0.05671485885977745,-0.011026938445866108,-0.17171791195869446,-0.019486892968416214,-0.21166804432868958,-0.18606531620025635,-0.09742746502161026,-0.1892457753419876,-0.32846638560295105,-0.18845590949058533,-0.2752639651298523,-0.16347458958625793,-0.010488678701221943,-0.12282846868038177,-0.3091299831867218,-0.1173730194568634,0.33567139506340027,-0.11250213533639908,-0.17064805328845978,-0.07252322882413864,0.18713055551052094,0.013016970828175545,0.3433980643749237,-0.02276572957634926,-0.1793166697025299,0.2880714535713196,-0.2075834423303604,-0.14266815781593323,0.32475483417510986,-0.11691880971193314,-0.21524553000926971,-0.26392725110054016,0.0837850421667099,0.08866648375988007,0.18167077004909515,-0.04319800063967705,-0.04738928750157356,-0.2951560616493225,0.13438475131988525,0.19265198707580566,0.29815226793289185,-0.23342590034008026,-0.11102908104658127,-0.3147152066230774,0.0569024384021759,0.1606399416923523,0.10788717120885849,-0.07137982547283173,0.004906443413347006,0.22215822339057922,-0.2061588317155838,-0.1485489159822464,0.2377421259880066,-0.23770102858543396,-0.05258975923061371,0.07131621241569519,-0.26654452085494995,-0.2625412940979004,0.18643537163734436,-0.026914099231362343,-0.25827261805534363,0.16064782440662384,-0.047849636524915695,-0.03756684809923172,0.04252862185239792,-0.24513545632362366,0.2779529094696045,0.09115869551897049,0.26265108585357666,-0.0266642477363348,-0.11837586760520935,-0.005642691161483526,0.10034686326980591,0.053409695625305176,-0.23769113421440125,0.05769481882452965,-0.1612052023410797,-0.1746455878019333,0.12785160541534424,-0.10556084662675858,0.16890260577201843,-0.034282054752111435,0.01585790328681469,-0.2072247564792633,0.09112110733985901,-0.028268275782465935,0.1871275007724762,0.045592330396175385,0.09231232106685638,-0.11751701682806015,0.18460135161876678,-0.1325473040342331,-0.007147524505853653,-0.04511692747473717,-0.08959402143955231,-0.04917598515748978,0.008096214383840561,-0.07242521643638611,-0.22111527621746063,0.19492949545383453,-0.03059985302388668,-0.012168340384960175,0.18563178181648254,0.06266958266496658,-0.11674927175045013,0.05282268300652504,-0.041056156158447266,-0.1041293516755104,0.1755257248878479,0.06502752006053925,0.3189038336277008,0.15613378584384918,-0.26578715443611145,-0.22942280769348145,0.3333285450935364,0.30412864685058594,0.026037216186523438,-0.06842155754566193,-0.11178116500377655,-0.08288202434778214,0.2853391468524933,-0.25584474205970764,-0.12091925740242004,0.22641634941101074,-0.20870672166347504,-0.10645681619644165,0.13056370615959167,0.26412683725357056,0.1239788606762886,-0.2328542172908783,-0.053618479520082474,-0.035045135766267776,0.1978733092546463,0.1899692714214325,0.2490706741809845,-0.18237316608428955,-0.10892728716135025,-0.1816089153289795,0.24419346451759338,0.062087010592222214,0.07270175963640213,-0.2523820102214813,-0.03676478937268257,-0.19894617795944214,0.17879842221736908,-0.23262880742549896,-0.008735688403248787,0.3187502324581146,-0.28779080510139465,-0.2841311991214752,0.055775076150894165,-0.1763429194688797,-0.20017698407173157,0.07388323545455933,-0.22889724373817444,-0.1385720819234848,0.09512685984373093,0.12199574708938599,0.06296928226947784,0.047998812049627304,0.16226693987846375,0.25781354308128357,-0.24098345637321472,-0.12449193745851517,-0.17198827862739563,0.2686534523963928,0.0015475739492103457,-0.014082442969083786,0.02386394888162613,0.042187198996543884,0.14953704178333282,-0.138520747423172,0.08779209107160568,0.07395266741514206,-0.043030235916376114,-0.12265834957361221,-0.25734952092170715,0.05478127300739288,0.0441584438085556,0.1452796906232834,-0.3232311010360718,0.0036919184494763613,-0.15222737193107605,0.10045033693313599,0.21847067773342133,0.16873471438884735,-0.0421096608042717,-0.039108145982027054,-0.15550941228866577,0.044863272458314896,0.11739982664585114,0.23602798581123352,-0.18402200937271118,-0.008081354200839996,0.17359618842601776,0.003709309035912156,0.09318680316209793,0.003369416343048215,-0.25372499227523804,0.16631649434566498,0.10683373361825943,-0.20137633383274078,0.16397006809711456,0.1774006336927414,-0.011910371482372284,0.209092915058136,0.06081470102071762,0.05585799366235733,0.07427922636270523,-0.08394665271043777,0.20720231533050537,-0.09678737074136734,0.09674132615327835,0.02612646296620369,0.29354164004325867,-0.09650882333517075,-0.01642356626689434,0.1067492663860321,-0.32156896591186523,0.2461557239294052,0.09423722326755524,-0.2816760540008545,0.18361888825893402,-0.23944692313671112,0.14968489110469818,-0.13210462033748627,0.12374772131443024,-0.31917712092399597,0.2717030644416809,-0.22529208660125732,0.2742331027984619,0.017542565241456032,0.24841585755348206,-0.18609599769115448,0.2508225440979004,-0.15263348817825317,0.14314036071300507,0.015692252665758133,0.20700016617774963,-0.35684484243392944,0.07814749330282211,0.06582042574882507,-0.08125397562980652,0.09164070338010788,0.02862047590315342,-0.23421771824359894,0.1961778700351715,0.19569721817970276,-0.17629483342170715,0.12064239382743835,0.22157073020935059,-0.26163753867149353,0.05163313448429108,-0.11285585165023804,-0.12147127836942673,-0.02529616840183735,-0.23467090725898743,0.08822934329509735,0.07757578790187836,0.13463932275772095,-0.17349417507648468,0.09171832352876663,-0.21017484366893768,0.199059396982193,-0.06846555322408676,-0.16118070483207703,0.15578718483448029,-0.01585414446890354,-0.0013944501988589764,-0.02135506458580494,-0.08209703117609024,0.06450501829385757,-0.05211540684103966,0.0906076654791832,-0.15028956532478333,0.1749516874551773,-0.012168621644377708,0.09414173662662506,0.027549907565116882,-0.15766923129558563,-0.120716392993927,0.19783329963684082,0.0006055704434402287,0.23570066690444946,-0.11936168372631073,0.07897420227527618,-0.2667171061038971,0.05649501457810402,0.016132596880197525,-0.08437997847795486,0.12242497503757477,0.13522303104400635,-0.14731666445732117,0.07307397574186325,0.14485524594783783,-0.16091187298297882,0.2075609564781189,-0.049563270062208176,-0.14795583486557007,0.06587070226669312,0.10714802891016006,0.10123679041862488,-0.05227496847510338,-0.10266102850437164,-0.018765050917863846,0.03892993554472923,0.10440848022699356,-0.0023971530608832836,0.10623770207166672,0.1069883480668068,-0.08160420507192612,-0.1569252461194992,0.12036832422018051,-0.19603194296360016,0.01758343167603016,0.04939568042755127,-0.149312824010849,0.03697329759597778,-0.0955066904425621,0.12070650607347488,-0.08580602705478668,-0.05386469513177872,-0.008844849653542042,0.1129482164978981,0.023714998736977577,0.18358951807022095,-0.0027974038384854794,-0.09604539722204208,-0.1897740662097931,-0.12108015269041061,0.20286302268505096,0.05189855024218559,0.016805419698357582,0.000003431484401517082,0.006599864922463894,0.11035353690385818,0.1505793184041977,-0.17766043543815613,-0.02277759090065956,-0.035782694816589355,-0.17222873866558075,0.018954982981085777,0.16302882134914398,-0.20434369146823883,0.07180463522672653,-0.045330848544836044,-0.1172792837023735,0.10688123106956482,-0.0002906360605265945,0.03181193768978119,0.05168367549777031,0.2327752560377121,0.06613340973854065,-0.23084479570388794,0.1946464627981186,-0.15112870931625366,0.03982812911272049,-0.09738422930240631,0.1632486879825592,-0.19214873015880585,0.17869818210601807,0.17366640269756317,-0.05779926851391792,0.03372146189212799,0.02812250889837742,-0.19681133329868317,-0.009579558856785297,-0.05426742136478424,0.2611828148365021,0.006714814342558384,0.017860330641269684,-0.11890210956335068,0.06837118417024612,0.058234937489032745,0.09433072060346603,-0.20778222382068634,0.07325419783592224,-0.057908087968826294,-0.01019598450511694,0.08125100284814835,0.20322754979133606,-0.2137194573879242,0.02071954496204853,-0.02938080206513405,0.0006222773808985949,0.012932656332850456,-0.09362167119979858,-0.008320051245391369,0.12881258130073547,-0.08091723918914795,0.19577869772911072,-0.0456341989338398,-0.012059188447892666,0.01989925093948841,0.20254050195217133,-0.28868621587753296,-0.014565705321729183,0.1437532603740692,0.06806893646717072,0.0074869669042527676,0.10586699098348618,-0.22124846279621124,-0.15863853693008423,-0.14499452710151672,0.0072322385385632515,0.09211741387844086,-0.06792058795690536,-0.4360083341598511,0.11351940035820007,0.08006444573402405,0.003266784595325589,0.12677881121635437,0.025419041514396667,-0.0005435743951238692,-0.11017061769962311,0.0029811477288603783,0.42261654138565063,-0.7781153321266174,0.8056002259254456,-0.5725733637809753,-0.033848706632852554,1.0118659734725952,0.941148042678833,-0.4688718318939209,0.30805134773254395,0.029165657237172127,-0.6302216649055481,-0.22690145671367645,0.16751855611801147,-0.7465994358062744,0.1449320912361145,0.32899272441864014,-0.2633146643638611,0.4379483759403229,-0.026325665414333344,0.07784280180931091,0.039233192801475525,-0.2993948757648468,0.15649697184562683,-0.03107675164937973,-0.004440865945070982,0.019636139273643494,0.2929586172103882,-0.13977918028831482,0.2415972650051117,0.01460746768862009,0.12545715272426605,0.10650284588336945,0.2710374593734741,-0.22243532538414001,-0.3764711022377014,0.0767611414194107,0.3618236780166626,-0.015404256992042065,-0.17959268391132355,-0.0178750641644001,-0.2829706370830536,0.06751801073551178,-0.21836696565151215,0.20474229753017426,0.06779192388057709,0.1141861081123352,0.0850314125418663,0.1939157098531723,0.068450428545475,0.15699917078018188,-0.01639685593545437,0.25424885749816895,-0.1651042103767395,-0.15594333410263062,0.10610074549913406,-0.3113449215888977,-0.022965239360928535,-0.17684006690979004,0.10636133700609207,-0.06468178331851959,0.11738598346710205,0.21841375529766083,-0.030372196808457375,-0.017591960728168488,0.2760506868362427,-0.14603935182094574,-0.1715354174375534,-0.1997435986995697,0.05838041380047798,0.13132436573505402,-0.06894335895776749,-0.03828728199005127,-0.2420707494020462,0.029323548078536987,-0.21588312089443207,0.18361788988113403,-0.08900521695613861,0.24196574091911316,-0.23406252264976501,-0.13280636072158813,-0.07519011944532394,-0.4709402322769165,-0.11940912157297134,0.0774027556180954,0.02884686551988125,0.19018198549747467,0.18248775601387024,-0.3391018807888031,0.1768040657043457,0.22916455566883087,-0.255951464176178,0.12439607083797455,-0.4188384711742401,0.06933166831731796,-0.09429623931646347,-0.13624852895736694,-0.22610945999622345,-0.2814706265926361,0.16627848148345947,-0.119686558842659,0.30372703075408936,0.394035279750824,0.26840704679489136,0.131426602602005,0.3004631996154785,0.08338945358991623,-0.1636708825826645,-0.21198670566082,-0.22827103734016418,-0.2565990090370178,0.25249725580215454,-0.11117130517959595,0.21619677543640137,0.16799521446228027,0.15738770365715027,0.2946203649044037,-0.18700353801250458,-0.2888002395629883,-0.0028001228347420692,-0.202645942568779,-0.05022791028022766,-0.4066096544265747,-0.36023586988449097,0.2749331593513489,0.3897882401943207,-0.04453722760081291,-0.06199630722403526,0.1135893240571022,0.21186697483062744,-0.06165866553783417,0.23371852934360504,-0.28296101093292236,0.0007365734782069921,0.2074253112077713,0.2086799591779709,0.16187195479869843,0.16897203028202057,-0.13763420283794403,0.24529999494552612,-0.31120550632476807,-0.06033289059996605,-0.14707452058792114,0.018127748742699623,-0.05922102555632591,-0.05618462339043617,0.20778368413448334,-0.3268907964229584,-0.18051886558532715,0.24257323145866394,-0.20870380103588104,-0.20049379765987396,-0.03691893443465233,-0.38034284114837646,-0.25132468342781067,0.317325621843338,0.10295353084802628,0.1209680363535881,0.051650334149599075,0.08664195984601974,-0.01851079612970352,-0.15951362252235413,-0.24095292389392853,0.2887745201587677,-0.35372814536094666,-0.04269103333353996,0.11455114930868149,0.22263675928115845,-0.4216805398464203,0.19855093955993652,0.20598191022872925,0.11901748180389404,-0.0854804739356041,-0.25920969247817993,0.05962866172194481,0.03475804254412651,-0.28251567482948303,0.1640019714832306,0.34353598952293396,-0.34126779437065125,0.17425595223903656,-0.01975353993475437,-0.28110426664352417,-0.032723039388656616,0.001517449039965868,-0.08106586337089539,-0.19153912365436554,-0.1633983701467514,0.08115282654762268,-0.1204192116856575,0.24175384640693665,-0.03606133535504341,-0.046569932252168655,0.09344614297151566,-0.18952171504497528,0.1384103149175644,0.13788732886314392,-0.2048780620098114,0.08297200500965118,-0.09371024370193481,0.2265375703573227,0.060763269662857056,-0.23059619963169098,-0.4642043113708496,0.06127852573990822,-0.1266261339187622,0.05628424882888794,-0.41050654649734497,-0.1328212171792984,-0.1365649253129959,-0.09887108206748962,0.1326642781496048,0.16986531019210815,-0.2825293242931366,-0.12676331400871277,0.008016622625291348,0.23984690010547638,0.36604052782058716,-0.020525924861431122,-0.2317885309457779,0.12625586986541748,0.009995986707508564,-0.27792832255363464,-0.2376699298620224,-0.014910346828401089,0.017049964517354965,-0.19628828763961792,-0.13948611915111542,0.17772819101810455,-0.19555756449699402,0.16186168789863586,0.15103988349437714,0.055567122995853424,-0.04070259630680084,-0.11337199062108994,-0.04364915192127228,0.030335035175085068,-0.273688405752182,0.0018110498785972595,-0.2578708827495575,0.04165409505367279,-0.2684856355190277,0.3234134316444397,0.009758695028722286,-0.12072265893220901,-0.04126337543129921,0.012347942218184471,0.22992411255836487,0.38260284066200256,-0.11824072152376175,0.22310996055603027,0.03525542467832565,-0.11005391925573349,0.13867436349391937,0.061994507908821106,-0.18112613260746002,0.10001318901777267,0.3253958523273468,0.2090734988451004,0.023316048085689545,-0.023910516873002052,0.1833883672952652,0.15793415904045105,-0.08195942640304565,0.43059834837913513,-0.27660617232322693,-0.25206050276756287,-0.1404811143875122,-0.0529714971780777,-0.3655139207839966,0.3396642804145813,0.03922170028090477,-0.3188020586967468,0.1661570519208908,-0.20831865072250366,0.15748558938503265,-0.06182871386408806,-0.22685521841049194,0.08944226056337357,0.0333852656185627,0.04694094881415367,-0.0024498773273080587,-0.2725704312324524,0.08331358432769775,0.14151088893413544,0.12849608063697815,0.06886249035596848,0.24497196078300476,0.1773752123117447,-0.0006666494300588965,0.41797158122062683,0.15781161189079285,0.2138349711894989,-0.4896501302719116,0.3536475896835327,-0.15475782752037048,-0.12202886492013931,0.2549841105937958,-0.22204770147800446,-0.15089502930641174,0.19343553483486176,-0.24562478065490723,-0.3137977421283722,-0.08183599263429642,0.14080564677715302,-0.020790230482816696,-0.2418537586927414,-0.18066880106925964,-0.28627994656562805,0.2751839756965637,0.11035752296447754,0.034664176404476166,-0.376738965511322,-0.06491074711084366,-0.05199088901281357,0.207335963845253,-0.0922020822763443,0.19762049615383148,-0.3316379189491272,-0.16561689972877502,-0.13735461235046387,0.29034122824668884,-0.2009691596031189,-0.18062105774879456,0.17357616126537323,-0.6901859641075134,0.26803743839263916,-0.39328765869140625,-0.2751792371273041,0.055308882147073746,-0.030610136687755585,-0.18890468776226044,0.4077584743499756,0.05238047242164612,0.2295641452074051,-0.3019407093524933,0.09079377353191376,0.10858438909053802,0.006139262113720179,-0.02761170081794262,-0.2413787990808487,0.1135697290301323,0.04516176879405975,0.06045718118548393,0.054231129586696625,-0.04652123525738716,-0.06837102025747299,0.135348841547966,-0.19243359565734863,0.10682521760463715,-0.38440635800361633,-0.050729621201753616,-0.2756899893283844,-0.28482311964035034,0.13705311715602875,0.15002980828285217,-0.057051826268434525,-0.20134799182415009,0.0023547823075205088,-0.13962282240390778,0.1634819060564041,-0.038673803210258484,0.10763480514287949,-0.19877149164676666,-0.008638632483780384,-0.24190928041934967,-0.13232001662254333,0.1616392433643341,0.16408996284008026,-0.1879175901412964,0.08431070297956467,0.17199206352233887,0.13232509791851044,0.35163217782974243,-0.009156306274235249,0.2214491367340088,0.17727789282798767,0.07945379614830017,0.022177493199706078,0.10599128901958466,0.25373250246047974,0.07384470850229263,-0.10973112285137177,0.5581814050674438,0.12000184506177902,0.0817977786064148,-0.24586546421051025,0.265950083732605,0.3119080662727356,0.0006990012479946017,-0.31610336899757385,0.21176236867904663,-0.10806837677955627,0.053040437400341034,0.30905622243881226,-0.10580442100763321,-0.12409640848636627,0.20613427460193634,0.19115649163722992,0.024054402485489845,-0.2275141477584839,0.27451568841934204,0.1837400496006012,0.41285157203674316,-0.17280671000480652,-0.17611323297023773,-0.22104929387569427,0.0795888677239418,0.16052420437335968,0.23101812601089478,-0.3103628158569336,-0.06062401086091995,-0.3397747278213501,0.16674256324768066,-0.17693325877189636,0.04063292592763901,-0.3412867486476898,0.012203631922602654,0.3871057331562042,0.061235345900058746,0.20140834152698517,0.06781814247369766,0.15209774672985077,-0.03840835392475128,0.13071948289871216,0.13626693189144135,0.1704675257205963,-0.1731715053319931,-0.23141616582870483,0.3781086504459381,0.0964229553937912,-0.28385189175605774,0.03701956197619438,0.2649957537651062,-0.6171683669090271,0.04212281480431557,-0.11302115768194199,0.2551460266113281,0.005609400104731321,0.2344755381345749,-0.14523595571517944,-0.3052240014076233,0.20396015048027039,0.07698224484920502,-0.25382497906684875,-0.10406249016523361,0.006172884721308947,-0.31282106041908264,-0.27341848611831665,0.10943527519702911,0.14475995302200317,0.14141036570072174,0.15767759084701538,-0.15998074412345886,-0.36488571763038635,0.054667454212903976,0.20819076895713806,0.19898027181625366,-0.244838148355484,-0.13029226660728455,-0.051012877374887466,-0.16822075843811035,0.15573804080486298,0.3107832968235016,-0.1028704047203064,-0.15382437407970428,0.20575863122940063,0.13227808475494385,-0.05744718760251999,0.3384605646133423,-0.0694989413022995,-0.34787482023239136,0.15640957653522491,-0.25420811772346497,-0.3432719111442566,0.21125291287899017,-0.24691978096961975,0.2548494338989258,0.2471526861190796,0.13573279976844788,0.21674025058746338,0.5657168030738831,-0.193303644657135,-0.18368549644947052,0.07066476345062256,0.15157699584960938,-0.10096738487482071,0.014003775082528591,0.07035841792821884,-0.1310565322637558,-0.10366808623075485,0.03689635545015335,-0.008509078994393349,-0.485078364610672,-0.00543425977230072,-0.17686331272125244,-0.1994141787290573,0.09228512644767761,0.03837037459015846,0.1439398229122162,-0.060002539306879044,-0.06619293242692947,-0.04233705997467041,0.12168192863464355,0.19784533977508545,0.24631056189537048,-0.003086513141170144,-0.18282973766326904,-0.25637736916542053,-0.14435230195522308,0.04511046037077904,0.22917702794075012,-0.0453694723546505,-0.08570453524589539,-0.25724467635154724,0.04236915707588196,0.08751371502876282,-0.5070041418075562,-0.24550549685955048,0.06924603134393692,-0.06875835359096527,-0.014299151487648487,0.02433619648218155,0.4261678159236908,-0.21820606291294098,-0.02273464761674404,0.6025946736335754,-0.06932384520769119,-0.07095720618963242,-0.3877914547920227,0.4599042236804962,-0.20149391889572144,-0.1952560842037201,-0.05548842251300812,0.22469238936901093,-0.40846437215805054,0.06880088150501251,0.19146692752838135,-0.16729414463043213,0.21271587908267975,0.30132678151130676,-0.15876977145671844,-0.25543075799942017,0.19962483644485474,0.3905441164970398,-0.2029886394739151,-0.24950586259365082,-0.2726055681705475,-0.27110669016838074,0.1179128885269165,0.3524528443813324,-0.26249438524246216,-0.041423097252845764,-0.13849908113479614,0.3115261495113373,0.09445150196552277,0.3955380320549011,-0.12009480595588684,-0.09857837110757828,-0.19142895936965942,0.19106228649616241,0.29622918367385864,-0.10247678309679031,-0.17347967624664307,0.14741019904613495,-0.1637347787618637,0.25300365686416626,0.09281648695468903,-0.17202182114124298,-0.20393876731395721,0.07822631299495697,-0.13580642640590668,0.6863425374031067,-0.4100567698478699,0.058016885071992874,0.4700041115283966,0.17379525303840637,-0.1437700092792511,0.3572687804698944,0.007659244351089001,0.2258424162864685,0.2164904922246933,-0.12367851287126541,-0.10536285489797592,-0.044707998633384705,0.20335406064987183,0.07664308696985245,0.02504393272101879,0.03693234547972679,-0.015349767170846462,-0.09141982346773148,0.30977776646614075,0.25658878684043884,0.07041705399751663,0.09327368438243866,0.1675000786781311,-0.03774163872003555,0.22908563911914825,0.09864726662635803,0.10234261304140091,-0.06469377130270004,0.019491616636514664,0.07882391661405563,-0.0776854008436203,0.19839619100093842,0.008846472017467022,0.03701440617442131,-0.04433060809969902,-0.08494815975427628,0.07131306827068329,-0.08717562258243561,-0.0689781978726387,0.17235428094863892,-0.4526415765285492,-0.5398989915847778,0.44464612007141113,-0.1423342078924179,-0.012643085792660713,0.005254635587334633,-0.4884852170944214,-0.12343444675207138,-0.16933602094650269,-0.07522714138031006,0.051279809325933456,-0.2980940341949463,-0.3160991966724396,0.15679138898849487,0.48090529441833496,0.12847772240638733,-0.2225065976381302,-0.114581398665905,-0.27604538202285767,-0.07827923446893692,0.26637548208236694,-0.13181188702583313,-0.09848975390195847,0.1268177032470703,-0.0785508006811142,-0.11661526560783386,-0.09065195918083191,0.2767210006713867,-0.023068055510520935,-0.25004708766937256,-0.09921899437904358,-0.167275071144104,0.15703195333480835,0.18811558187007904,-0.019128475338220596,-0.22759120166301727,-0.08691806346178055,-0.17342008650302887,0.3186165988445282,0.23829251527786255,0.21345937252044678,-0.1517317295074463,-0.05366508662700653,-0.19025319814682007,0.17986565828323364,-0.10155345499515533,-0.11336848139762878,0.20287148654460907,-0.12381114065647125,0.1747194230556488,0.311362624168396,-0.23236042261123657,0.02963786944746971,0.02578183077275753,-0.007790952920913696,-0.024155203253030777,0.27221938967704773,-0.003978664521127939,-0.19867068529129028,-0.011844211257994175,-0.6005909442901611,-0.03140530362725258,0.3076336085796356,0.22297263145446777,-0.23347117006778717,-0.19378364086151123,0.12704047560691833,-0.012366939336061478,0.3113590478897095,0.16283439099788666,-0.06994950771331787,-0.012466915883123875,0.27861288189888,0.15438443422317505,-0.008853740058839321,-0.053114451467990875,0.23781119287014008,-0.13541275262832642,0.1819746196269989,-0.03390663117170334,0.14779703319072723,-0.043434225022792816,0.055892348289489746,-0.030830780044198036,-0.0471847802400589,-0.27199026942253113,0.23300467431545258,0.00293372618034482,0.31964707374572754,-0.12529154121875763,0.0014981981366872787,-0.1984037160873413,0.0722706988453865,0.04380960762500763,-0.10949761420488358,0.18705856800079346,-0.5325080156326294,0.07681191712617874,0.044765911996364594,-0.11779628694057465,-0.11495520174503326,-0.13020700216293335,-0.5782126188278198,-0.35267969965934753,0.14834009110927582,0.048014357686042786,-0.3085058629512787,-0.2806139588356018,0.06571189314126968,0.01698995754122734,0.054196618497371674,-0.1898256093263626,0.22243350744247437,-0.004633727483451366,-0.12520070374011993,0.006625181995332241,-0.14912442862987518,-0.06960146129131317,0.1547824889421463,-0.14672037959098816,0.30274978280067444,0.02095627225935459,-0.12267959862947464,-0.07994497567415237,-0.09480186551809311,0.2082614153623581,-0.0004910944262519479,-0.004380190744996071,-0.07177131623029709,-0.14251409471035004,-0.003542025573551655,0.2540827989578247,-0.10460076481103897,0.15352119505405426,-0.08737246692180634,-0.037784308195114136,-0.170615553855896,0.1264328956604004,-0.09030401706695557,0.05346143618226051,-0.0477951243519783,0.11976314336061478,0.029181720688939095,-0.2338976413011551,0.44165366888046265,-0.05833074823021889,-0.16320697963237762,0.09458364546298981,0.06968959420919418,-0.048696793615818024,0.010724799707531929,0.0025859044399112463,0.19091901183128357,-0.33060336112976074,0.03547805920243263,-0.04427395015954971,-0.4110434949398041,0.345596045255661,-0.4841349422931671,0.2477075159549713,-0.031733859330415726,-0.11943639814853668,0.0006089590606279671,-0.11564033478498459,-0.014093496836721897,0.014536779373884201,-0.09147580713033676,-0.08509637415409088,0.03637579455971718,-0.37103232741355896,0.20287807285785675,-0.04452995955944061,0.11801905930042267,0.12654666602611542,0.06113822013139725,-0.08098231256008148,0.056641560047864914,-0.12020798027515411,0.13685494661331177,0.15096305310726166,0.008793137967586517,-0.04455159977078438,-0.08881504833698273,-0.24666595458984375,-0.26059624552726746,0.17530256509780884,0.21872738003730774,-0.05452848598361015,-0.19313403964042664,0.33333316445350647,0.04370911046862602,-0.0774068608880043,0.06521209329366684,0.4214710593223572,0.3344802260398865,0.10014466941356659,-0.07354605197906494,0.04256170615553856,-0.1672939956188202,0.6181778311729431,-0.31851574778556824,0.3381498157978058,0.39259272813796997,-0.5393305420875549,-0.21121881902217865,-0.21333914995193481,0.13928472995758057,0.37311699986457825,-0.015643617138266563,-0.2117171734571457,-0.08589524775743484,-0.014381377026438713,0.18750117719173431,0.1705949753522873,0.015247900038957596,0.07499215751886368,-0.04531538859009743,-0.008201227523386478,-0.027506500482559204,-0.12405817210674286,0.22334448993206024,-0.075764499604702,0.019001204520463943,-0.20310315489768982,0.1405561864376068,0.08346749097108841,0.24273091554641724,-0.03456621617078781,0.20921295881271362,-0.26401081681251526,-0.031955163925886154,-0.27338647842407227,0.22483636438846588,0.025793565437197685,0.06434193253517151,-0.03174052760004997,0.03617717698216438,0.02099711447954178,0.03586595505475998,-0.05379312485456467,-0.42604750394821167,0.10013941675424576,0.13840670883655548,0.01250708568841219,0.04044291749596596,-0.05758699029684067,-0.18717794120311737,-0.1529395431280136,-0.11805734783411026,0.24657486379146576,0.015924369916319847,-0.18547724187374115,-0.18725557625293732,-0.08264710754156113,-0.015778498724102974,0.2467786818742752,0.1637716144323349,-0.15717202425003052,0.14207477867603302,0.10842607170343399,-0.17156296968460083,0.119108647108078,0.09526089578866959,-0.1317276805639267,0.3508526384830475,0.05239754170179367,-0.25408613681793213,-0.13393273949623108,-0.17257310450077057,0.23091115057468414,-0.09208071231842041,-0.11402902007102966,-0.22147072851657867,-0.19265881180763245,-0.12318198382854462,0.16909398138523102,-0.0401635617017746,0.0728057473897934,0.01861634850502014,-0.08500195294618607,-0.00852862186729908,-0.0244113951921463,0.1909288913011551,0.18581704795360565,-0.08262123912572861,0.12783905863761902,-0.14008697867393494,-0.26615041494369507,0.133700430393219,-0.1227475255727768,-0.05580757558345795,0.13006390631198883,-0.01171097531914711,-0.2602805495262146,-0.05991944670677185,-0.092913419008255,0.1507582664489746,0.07580682635307312,0.10158603638410568,-0.011938332580029964,-0.1330728381872177,-0.048429809510707855,0.2030840814113617,0.08783064037561417,0.07753551751375198,-0.044690679758787155,-0.10220900177955627,-0.2651973068714142,0.2115846872329712,-0.18520301580429077,-0.09730866551399231,0.09027063846588135,-0.14409874379634857,0.060769081115722656,0.31276771426200867,0.10781852900981903,0.17098967730998993,-0.271904855966568,-0.17829647660255432,-0.022274000570178032,0.19208961725234985,0.31449562311172485,0.16331462562084198,-0.1823023408651352,-0.036186084151268005,-0.11169704049825668,0.21052949130535126,0.2615278363227844,0.08019887655973434,0.18564149737358093,-0.21026179194450378,-0.1453399807214737,0.08776161819696426,-0.19421331584453583,-0.11565792560577393,0.06449834257364273,-0.44543495774269104,-0.1419914811849594,0.46024128794670105,-0.07441604882478714,0.09904557466506958,0.03534102439880371,-0.04494186490774155,-0.29253485798835754,-0.12434493750333786,-0.030647587031126022,-0.21781539916992188,-0.3629368841648102,0.13402114808559418,0.27150633931159973,-0.005219643469899893,-0.320745587348938,0.5148088335990906,-0.013339981436729431,-0.37276536226272583,0.24717137217521667,0.09957723319530487,-0.36106055974960327,0.1213436871767044,0.06161041557788849,-0.08831403404474258,-0.00931707676500082,0.20419909060001373,0.5087934136390686,-0.2998407185077667,-0.11324650049209595,-0.26648619771003723,0.30122292041778564,0.24560698866844177,0.398431658744812,-0.1242726594209671,-0.1596561223268509,-0.19413964450359344,0.19136066734790802,0.07733474671840668,0.2896294593811035,-0.30106881260871887,0.1027512326836586,-0.36842775344848633,0.2809268832206726,0.17353203892707825,-0.36479800939559937,0.09781165421009064,-0.027003014460206032,-0.09285213053226471,-0.5769392251968384,0.20133541524410248,-0.19546836614608765,-0.12488693743944168,0.0500982441008091,-0.25742390751838684,-0.2280597984790802,-0.287688285112381,-0.2719475030899048,0.32277873158454895,-0.1120222732424736,0.521376371383667,-0.08302120864391327,-0.1809270977973938,-0.3557520806789398,0.5500274300575256,0.05785507336258888,-0.09203112125396729,0.2102215439081192,0.02914493717253208,-0.1389145702123642,0.22875751554965973,-0.1488717943429947,-0.2915489673614502,0.015356134623289108,-0.00893709622323513,0.09832245856523514,-0.312319278717041,0.00933702103793621,-0.22217069566249847,0.2370256632566452,-0.18688379228115082,0.18447180092334747,-0.31122544407844543,-0.08754026889801025,-0.22642065584659576,0.13299058377742767,-0.08757840096950531,0.08298984915018082,-0.015130209736526012,0.22304494678974152,-0.13497939705848694,0.29144126176834106,-0.11230732500553131,-0.3616829216480255,0.07204608619213104,-0.06799354404211044,0.2275916188955307,-0.31496521830558777,0.051809702068567276,-0.031466979533433914,0.10368034243583679,-0.16510599851608276,0.5136513113975525,-0.11170113831758499,-0.08296126872301102,-0.027244970202445984,0.5291179418563843,0.17246389389038086,0.17516739666461945,0.12241335213184357,0.2844015061855316,0.14492309093475342,-0.02547580562531948,-0.11819148063659668,0.13968537747859955,0.024017740041017532,0.019431374967098236,-0.011550689116120338,-0.00981412548571825,0.01030988059937954,0.05308739095926285,-0.046572376042604446,-0.06745424121618271,-0.2224811166524887,-0.48033609986305237,0.4063848853111267,0.34534570574760437,-0.41644287109375,0.2153969556093216,-0.9759361147880554,-0.3070544898509979,-0.6081981658935547,0.7739928960800171,-0.8188173770904541,-0.5133494734764099,-1.0167170763015747,0.2690582871437073,-0.9345272779464722,0.2279551774263382,-0.7137352824211121,-0.2410704493522644,-0.0693749487400055,0.19196510314941406,0.5686917304992676,0.321956068277359,-0.33316582441329956,-0.07546835392713547,-0.19083906710147858,-0.41932517290115356,0.10159260034561157,0.36383697390556335,-0.10504291951656342,0.1372428983449936,-0.053660932928323746,-0.2507410943508148,0.05336354300379753,0.48988670110702515,-0.12243636697530746,0.21595600247383118,-0.22798731923103333,-0.17883756756782532,0.21516060829162598,0.12229200452566147,0.25022345781326294,0.23540206253528595,-0.22707830369472504,0.22679893672466278,0.5507978200912476,0.04308614879846573,0.3327792286872864,-0.4388604462146759,-0.15376617014408112,-0.07061116397380829,-0.3000120222568512,0.04721115902066231,-0.053270041942596436,0.27084970474243164,0.06113394349813461,0.1933734267950058,0.2739611566066742,-0.03767978772521019,0.004434783477336168,-0.25469139218330383,-0.31498289108276367,-0.1124284639954567,0.339221328496933,0.2026008516550064,-0.03902650624513626,0.054837118834257126,0.012863696552813053,-0.3581373691558838,-0.05113384127616882,-0.14076493680477142,0.1357271671295166,0.0802823081612587,-0.009591862559318542,0.3403349220752716,0.09329118579626083,0.11071886122226715,0.5518884062767029,0.2537985146045685,-0.0847497507929802,0.07085374742746353,0.14874692261219025,0.6378018260002136,0.09200092405080795,-0.03901580348610878,-0.14581817388534546,0.19017551839351654,-0.07955191284418106,-0.01685105264186859,0.401600182056427,0.26873859763145447,-0.06987539678812027,-0.005935107823461294,0.005222326144576073,-0.12294261157512665,-0.1293172687292099,-0.4183666706085205,-0.3141038119792938,-0.03557499498128891,0.016925128176808357,-0.24534174799919128,-0.2325143814086914,-0.1534520536661148,-0.1282232254743576,-0.012788464315235615,-0.03318920359015465,0.09561122208833694,0.06428883969783783,-0.19918642938137054,-0.26374754309654236,-0.19508665800094604,-0.19946780800819397,0.12093846499919891,0.04615120589733124,-0.02476508915424347,-0.0887424647808075,-0.004784914664924145,0.019442657008767128,0.061150357127189636,0.35036274790763855,-0.30608004331588745,-0.26413029432296753,-0.10494484007358551,0.08989126980304718,-0.07397745549678802,-0.058078665286302567,0.3297978341579437,-0.21431474387645721,-0.24785584211349487,0.3932121694087982,0.15737514197826385,0.07412265241146088,-0.0621577650308609,0.23500245809555054,-0.07019251585006714,-0.08765868097543716,-0.2678484618663788,0.05462260544300079,-0.11551620811223984,0.3696494400501251,-0.30043259263038635,-0.07689861953258514,-0.09601687639951706,-0.022569039836525917,-0.10458683222532272,0.21511781215667725,-0.15424269437789917,0.09200940281152725,-0.1612008661031723,0.059477321803569794,-0.1815255582332611,-0.15171092748641968,0.06691150367259979,-0.017244838178157806,0.03857150673866272,0.06432215869426727,0.13067226111888885,0.08390495926141739,-0.09265634417533875,0.10041674226522446,-0.2795603275299072,0.19489695131778717,-0.19030530750751495,0.14821641147136688,-0.06705719232559204,0.24151313304901123,0.030562086030840874,-0.33774855732917786,0.19646653532981873,-0.23521599173545837,0.054996367543935776,-0.021835587918758392,0.2537687122821808,0.08107081055641174,0.2852324843406677,-0.15060026943683624,-0.05804134160280228,-0.17227907478809357,-0.08122251182794571,-0.11638441681861877,-0.11486214399337769,0.17206090688705444,0.05288524925708771,-0.1185237318277359,0.04896390438079834,0.17508220672607422,0.08546572178602219,0.2183103859424591,-0.2630617916584015,0.03824612498283386,0.05553318187594414,0.22074252367019653,-0.08427631855010986,0.06731928884983063,-0.006952033378183842,0.21893098950386047,-0.2604134678840637,-0.1391795128583908,-0.010634317994117737,0.2519710659980774,0.00717556569725275,0.11770544946193695,-0.21925856173038483,0.15517295897006989,0.258154034614563,-0.10064274072647095,0.09095624089241028,-0.17895545065402985,0.2753923237323761,-0.0748540535569191,-0.1793099194765091,-0.279911071062088,-0.3514383137226105,0.12152831256389618,-0.06999988108873367,0.15953673422336578,-0.22666160762310028,0.01829441264271736,-0.13751336932182312,-0.09571897238492966,0.18568946421146393,-0.11259424686431885,0.20069512724876404,-0.44598209857940674,0.062186866998672485,0.016266942024230957,0.14647698402404785,-0.009655581787228584,-0.1415357142686844,0.22420498728752136,-0.31114503741264343,0.08358525484800339,0.12288537621498108,-0.021669011563062668,0.24013946950435638,0.15709288418293,-0.15291497111320496,0.13024839758872986,0.19984669983386993,0.08145178109407425,0.1175074502825737,-0.0797978863120079,0.06512217223644257,0.20534710586071014,0.029745610430836678,-0.30377206206321716,-0.03145308047533035,-0.013509866781532764,0.14929451048374176,-0.05793792009353638,-0.06819608062505722,0.04662655293941498,0.1938106268644333,0.049064189195632935,-0.15893027186393738,0.23509494960308075,0.6092899441719055,0.08410517871379852,0.24342748522758484,-0.3032630681991577,0.03418968617916107,-0.14244472980499268,-0.030280819162726402,-0.032746877521276474,-0.013350912369787693,0.25203457474708557,0.00984528474509716,-0.11171942204236984,0.35588324069976807,0.01292561087757349,-0.35421159863471985,0.653660237789154,-0.3815353810787201,-0.3491656184196472,-0.08449193835258484,-0.1451021134853363,-0.031228912994265556,0.11895058304071426,-0.23443137109279633,0.06179431080818176,0.07221686840057373,0.23684421181678772,0.11727283149957657,-0.023065650835633278,0.04489604011178017,0.001518830074928701,0.23783153295516968,-0.14413882791996002,0.039935335516929626,-0.011645064689218998,-0.09338898211717606,-0.1482008844614029,-0.022540653124451637,0.23130568861961365,-0.39494451880455017,-0.02178734354674816,0.08561747521162033,0.17578768730163574,0.06321025639772415,0.011381876654922962,0.002782517811283469,0.015115993097424507,0.19843417406082153,-0.31764110922813416,0.34324416518211365,0.14935018122196198,0.04451657831668854,-0.13679423928260803,-0.23346655070781708,0.09519661962985992,0.17189404368400574,0.02175549790263176,0.07022273540496826,-0.1626514196395874,-0.1663191318511963,0.194163516163826,0.08282884955406189,0.18839304149150848,-0.04402362182736397,-0.07478160411119461,-0.23618152737617493,0.10877730697393417,-0.003769128816202283,-0.24943487346172333,0.1307416707277298,0.031958725303411484,-0.2639063894748688,0.0748259574174881,0.15235069394111633,-0.13970249891281128,0.18595893681049347,0.06388121843338013,0.4652649760246277,0.18402568995952606,-0.17415407299995422,0.3215923607349396,-0.4511006474494934,-0.15589094161987305,-0.19413641095161438,-0.10534952580928802,0.035988930612802505,-0.1398235410451889,0.07624417543411255,-0.2641224265098572,0.2951146364212036,0.12050550431013107,0.0338805615901947,0.11428423225879669,-0.12375003099441528,-0.14395764470100403,-0.0003577001334633678,-0.2785397469997406,0.12537626922130585,-0.17205411195755005,0.01893003098666668,-0.03498540818691254,0.18041576445102692,-0.19669829308986664,0.0582369901239872,-0.2096121907234192,-0.07162110507488251,0.05442949756979942,0.10142435133457184,-0.04778960347175598,-0.21896050870418549,-0.03890596330165863,0.11891046166419983,0.17695510387420654,0.37833714485168457,0.12402002513408661,-0.03396902233362198,0.0509035550057888,-0.18630382418632507,-0.07356132566928864,0.02567751705646515,-0.025938695296645164,-0.04020329564809799,0.1511950045824051,-0.023666035383939743,-0.10097130388021469,0.02723885327577591,0.20678359270095825,0.009432553313672543,0.01837875135242939,0.17250296473503113,-0.05989496037364006,0.11067221313714981,-0.29951468110084534,-0.30599039793014526,-0.026099739596247673,0.7399095892906189,-0.09422783553600311,-0.03138847276568413,0.07985986769199371,0.2673473060131073,-0.11946075409650803,-0.030241599306464195,0.27646517753601074,0.09430186450481415,0.15615314245224,-0.05396399274468422,0.09541425853967667,-0.0894164964556694,-0.1262083798646927,0.1429416686296463,-0.07397350668907166,0.26439130306243896,0.05197204276919365,0.04472493752837181,0.017117688432335854,0.026012983173131943,0.003133322112262249,0.14204318821430206,-0.09522031247615814,-0.28381475806236267,-0.2803841233253479,-0.1537085771560669,0.04325762763619423,0.11716265231370926,0.052478447556495667,-0.15915422141551971,0.1502980887889862,0.4189089238643646,-0.3537106215953827,0.39856383204460144,-0.10284853726625443,-0.1825370490550995,0.16002382338047028,-0.09095318615436554,0.04795151203870773,0.01732040010392666,-0.2987900376319885,0.6869837641716003,-0.026565615087747574,-0.12046191096305847,0.6589837670326233,-0.07559852302074432,0.17342916131019592,-0.28273358941078186,0.3107808828353882,0.21400141716003418,0.06653444468975067,-0.25183066725730896,0.36414632201194763,-0.08041276782751083,-0.24860140681266785,-0.027919752523303032,0.017347058281302452,0.1445608288049698,-0.27194181084632874,0.006747689563781023,0.27560746669769287,0.41562968492507935,-0.09359495341777802,-0.25170624256134033,-0.15937979519367218,0.1604771465063095,0.3045596182346344,0.21624484658241272,-0.006873700302094221,-0.05690258741378784,-0.25136852264404297,0.13301494717597961,0.05962703004479408,0.31645870208740234,-0.0145645122975111,-0.18308494985103607,0.26526352763175964,-0.28123918175697327,-0.3744444251060486,0.18355202674865723,-0.17833903431892395,-0.1699114590883255,0.38671162724494934,-0.19178342819213867,-0.10781793296337128,-0.2592849135398865,-0.2483532428741455,0.1926393359899521,-0.3800424635410309,0.12353459745645523,0.2158258855342865,0.026296090334653854,-0.6181249618530273,0.2748616635799408,-0.24087819457054138,0.06532280147075653,-0.05281781405210495,-0.13828660547733307,0.16109727323055267,-0.0769025981426239,-0.16797779500484467,0.2693181037902832,0.04908817261457443,0.024689676240086555,-0.4830872416496277,0.21579544246196747,0.14749687910079956,0.0804448351264,-0.15202690660953522,-0.33084651827812195,-0.010524346493184566,0.22831714153289795,0.11910653114318848,-0.12192418426275253,-0.023143252357840538,-0.09560760855674744,-0.010287757031619549,0.24778573215007782,0.15393732488155365,-0.07019519060850143,-0.013970906846225262,-0.29009437561035156,-0.02395493909716606,0.1158832460641861,-0.03245968371629715,0.2766716778278351,0.046125512570142746,-0.19565026462078094,0.18889015913009644,0.1594039648771286,-0.23009666800498962,-0.00553877605125308,0.23137208819389343,0.35210344195365906,0.16558347642421722,0.058167729526758194,0.2560722827911377,-0.2105884552001953,-0.18340040743350983,-0.03883639723062515,-0.24599924683570862,-0.2116667479276657,-0.010576440952718258,-0.04904324561357498,0.15249446034431458,-0.12116501480340958,0.07918514311313629,0.01579001359641552,-0.13639302551746368,-0.027335621416568756,0.00877518393099308,0.0875435397028923,-0.18476063013076782,0.07033152133226395,0.008010998368263245,-0.07681871205568314,0.15673771500587463,-0.1829698532819748,0.22452184557914734,-0.024955803528428078,-0.1108534038066864,-0.2145250141620636,0.07875102758407593,-0.02255294844508171,-0.008531236089766026,-0.23627528548240662,-0.1116185411810875,-0.3235861659049988,-0.07604829221963882,-0.1059962585568428,0.14131438732147217,-0.0596015639603138,0.031148653477430344,0.3414190411567688,-0.09002050012350082,-0.028423510491847992,-0.07240847498178482,-0.24669699370861053,-0.05599121004343033,0.21666128933429718,0.04452883079648018,0.25117164850234985,0.10480592399835587,-0.12039414048194885,0.3371838331222534,-0.2066846340894699,0.04229708015918732,-0.4281204640865326,-0.15958881378173828,-0.04794291406869888,0.10685233026742935,-0.2888086140155792,-0.19546550512313843,0.05529877915978432,-0.08392976224422455,-0.1301337033510208,-0.08329734951257706,0.17710047960281372,0.08187796920537949,-0.3880094289779663,-0.4970003664493561,0.07596126198768616,0.030160756781697273,0.09151768684387207,-0.004999981261789799,-0.03185708820819855,0.14307647943496704,0.07612305879592896,0.18439911305904388,0.11370144039392471,-0.07832314819097519,-0.22923652827739716,0.025788387283682823,0.13620300590991974,0.0028056767769157887,0.19784313440322876,-0.04237872734665871,-0.37522971630096436,-0.0027868885081261396,-0.15610845386981964,0.0016585192643105984,-0.07578017562627792,-0.03148037567734718,-0.1628289818763733,0.062424421310424805,0.30687740445137024,-0.144012913107872,-0.06569895893335342,0.003183620283380151,0.17543920874595642,-0.11269594728946686,-0.17777474224567413,0.18329595029354095,-0.40011006593704224,-0.19021713733673096,0.1957002580165863,0.38826873898506165,-0.10641448199748993,0.10086560994386673,-0.33073490858078003,0.04274069517850876,-0.01758388988673687,0.21941335499286652,0.07136982679367065,-0.02392859011888504,-0.026048151776194572,0.050800621509552,-0.3216072916984558,-0.2550058662891388,0.1710207611322403,-0.12363293021917343,0.102988101541996,0.04696560278534889,-0.1469278484582901,0.0006105952779762447,0.03549548238515854,-0.1690746396780014,0.23885568976402283,0.09555675089359283,0.09525716304779053,0.08791103214025497,-0.10162533074617386,0.0834168791770935,0.09172173589468002,-0.17716892063617706,0.12128441780805588,-0.017102325335144997,-0.0018993421690538526,0.0050432332791388035,-0.1455288678407669,-0.22177138924598694,-0.028923090547323227,0.25902482867240906,0.22961121797561646,0.062426887452602386,-0.04630304500460625,-0.10904354602098465,0.1298438161611557,-0.09560398757457733,0.14802494645118713,-0.00041839934419840574,-0.2058921605348587,0.0891309306025505,-0.2653520107269287,-0.6226876378059387,0.1245061606168747,0.14599692821502686,0.5712555050849915,0.08613863587379456,-0.03473113477230072,0.3128734230995178,-0.052169375121593475,-0.21925154328346252,0.33907854557037354,0.09723799675703049,0.006348686292767525,0.7082490921020508,0.04652658477425575,0.12191151082515717,-0.22401463985443115,-0.11418800801038742,-0.1596188098192215,0.1224232092499733,-0.061128661036491394,0.12690934538841248,-0.30277279019355774,-0.11057846993207932,-0.08078135550022125,-0.005769499111920595,0.028360866010189056,-0.06061478331685066,-0.21480444073677063,0.1052602007985115,-0.1654750555753708,0.12891820073127747,-0.0811905562877655,-0.07918044924736023,0.43579158186912537,-0.10851524025201797,-0.37010282278060913,0.18779334425926208,-0.13212192058563232,-0.19129790365695953,0.12911593914031982,0.1682601273059845,0.5206170082092285,0.14497539401054382,-0.2008649855852127,0.5320703983306885,0.028774436563253403,-0.00321790250018239,-0.18000748753547668,-0.6258089542388916,-0.17475278675556183,-0.24938780069351196,0.7042350769042969,-0.07057061791419983,-0.05240613594651222,0.1156143769621849,0.06747733056545258,-0.2721073627471924,0.13640441000461578,-0.09058951586484909,-0.03336036950349808,0.43300482630729675,0.3276166021823883,0.08578924089670181,-0.1370675265789032,-0.11134429275989532,-0.3406863808631897,0.1846957504749298,-0.09607826918363571,0.1673908829689026,-0.2893276512622833,-0.14419253170490265,-0.1869208961725235,-0.03719194233417511,0.08698659390211105,0.09298417717218399,-0.4392337203025818,0.04141317680478096,-0.1709660440683365,0.12336118519306183,-0.03143123909831047,-0.16990044713020325,0.4533476233482361,0.04606679081916809,-0.2217869758605957,0.11596055328845978,-0.014600550755858421,-0.30864521861076355,0.04684175178408623,0.12658379971981049,0.3319791853427887,0.1411489099264145,-0.36658573150634766,0.45395350456237793,-0.1025528609752655,-0.23054854571819305,0.12075866758823395,0.06084185466170311,-0.09289045631885529,0.03999345377087593,0.08319443464279175,0.19148625433444977,0.0298946313560009,0.08755712956190109,0.19868400692939758,0.12053421884775162,0.12132523208856583,0.0016309890197589993,-0.05361403897404671,0.08432047814130783,0.2277635931968689,0.04193570092320442,0.09012489765882492,0.0983155220746994,0.20319031178951263,0.20087046921253204,-0.13894261419773102,-0.009990345686674118,0.17710597813129425,0.09965784102678299,0.021138396114110947,0.015246794559061527,-0.13967518508434296,0.024722732603549957,-0.1311195343732834,-0.03193341940641403,0.0894833356142044,0.047710973769426346,0.0011846594279631972,0.11461491882801056,-0.02812739834189415,0.11324897408485413,0.12763908505439758,0.09107135981321335,-0.0824115127325058,0.2859647572040558,-0.07573844492435455,-0.24638400971889496,-0.37162113189697266,0.21840062737464905,0.04863760247826576,-0.032313454896211624,-0.16147975623607635,0.04360982030630112,0.0764378011226654,0.029914705082774162,0.28721168637275696,0.1417037397623062,-0.3710077404975891,0.10288898646831512,0.021623903885483742,0.11462970823049545,0.2006147801876068,-0.27054715156555176,0.12510396540164948,-0.01787225343286991,-0.03959622606635094,-0.41855624318122864,0.14358200132846832,0.02692425064742565,-0.11666006594896317,0.04251764342188835,-0.1636132001876831,0.3072219491004944,0.11070701479911804,0.1033235490322113,-0.18632017076015472,-0.24083392322063446,-0.2724122703075409,0.10527973622083664,-0.20270657539367676,-0.20661982893943787,-0.2722441256046295,-0.10068011283874512,-0.16498753428459167,0.06859470158815384,-0.012166861444711685,0.004593175370246172,0.021652011200785637,-0.08810456097126007,-0.03429261967539787,0.21359090507030487,-0.13861621916294098,-0.1363063007593155,0.14011500775814056,0.198361337184906,0.31154006719589233,-0.31271570920944214,-0.21700169146060944,0.3050146698951721,-0.391847163438797,-0.19496610760688782,-0.46373802423477173,0.2743000388145447,0.24302469193935394,0.24277766048908234,-0.06725102663040161,-0.19592957198619843,0.09749622642993927,-0.2775427997112274,-0.13359448313713074,-0.02499760314822197,-0.15807102620601654,0.09129863232374191,0.08038532733917236,0.32084211707115173,0.4928084909915924,-0.02001762203872204,-0.02278267964720726,-0.1743813008069992,-0.054888516664505005,-0.08648770302534103,0.00862743891775608,0.2522669732570648,-0.05040556937456131,-0.09109459072351456,0.019395941868424416,-0.1839793473482132,0.13730551302433014,-0.3896263837814331,0.37566012144088745,0.0763067826628685,0.1707087755203247,0.016381779685616493,0.08553783595561981,-0.08014281839132309,-0.47976934909820557,0.2107660323381424,-0.18565863370895386,-0.17580701410770416,-0.028436128050088882,-0.05416753515601158,-0.27131757140159607,0.14138738811016083,0.002881941618397832,-0.03525075316429138,-0.24246913194656372,0.023745236918330193,0.22477488219738007,0.02459350973367691,-0.16009755432605743,-0.13367719948291779,-0.3812868893146515,0.19309279322624207,-0.031980227679014206,0.22103475034236908,0.18068021535873413,0.04602614417672157,0.02375032566487789,-0.08863139897584915,-0.036888882517814636,0.18412470817565918,-0.17736674845218658,0.06828417629003525,0.32512956857681274,0.0010252386564388871,0.06403318047523499,-0.032258156687021255,0.19397079944610596,-0.010258148424327374,0.1734784096479416,0.0674709677696228,0.0630173534154892,-0.0027509161736816168,-0.03087260015308857,-0.06239595636725426,0.03125348687171936,-0.11497367173433304,0.007734676357358694,0.03177633881568909,0.0032933668699115515,-0.08290036022663116,-0.021252360194921494,-0.05501452088356018,0.059694889932870865,0.0024566389620304108,-0.05219603702425957,0.10046529024839401,-0.18637803196907043,-0.08367865532636642,0.053156960755586624,-0.14921359717845917,-0.15281149744987488,0.4043528735637665,-0.025633880868554115,-0.002299997489899397,0.03367139399051666,0.021749334409832954,0.0380147360265255,0.3171645700931549,0.14721323549747467,0.28350746631622314,0.14327070116996765,0.03179490938782692,0.05950405076146126,-0.07218894362449646,0.029839543625712395,-0.1237354651093483,-0.2142096608877182,0.11798764765262604,0.1966131627559662,-0.07408065348863602,0.21207982301712036,0.04312814772129059,-0.05174006149172783,-0.19457341730594635,-0.015892263501882553,-0.0517747662961483,-0.012646235525608063,0.06588677316904068,-0.045269925147295,-0.1040773019194603,0.006807592697441578,-0.14467200636863708,-0.05268112197518349,-0.017257748171687126,0.10196198523044586,0.051301658153533936,0.060571491718292236,0.0030097821727395058,0.07961823046207428,-0.19227951765060425,-0.16547800600528717,0.062084585428237915,-0.18781307339668274,-0.2593919634819031,-0.13532546162605286,-0.14023970067501068,-0.24289767444133759,0.1237495169043541,-0.17336051166057587,-0.1179550290107727,0.03994203731417656,-0.07654830068349838,0.23335757851600647,-0.24351195991039276,0.0840502679347992,0.4554678499698639,-0.172612726688385,-0.3820105493068695,-0.031036075204610825,0.6995464563369751,-0.1936904937028885,0.0851249247789383,0.5116836428642273,-0.2952241897583008,-0.046540766954422,0.22297629714012146,-0.23248852789402008,0.26186686754226685,0.12436199188232422,0.26034948229789734,0.013808419927954674,-0.34212225675582886,-0.1410626620054245,-0.11720001697540283,0.1488790661096573,0.16191138327121735,0.12237604707479477,-0.10179395228624344,-0.14358721673488617,-0.06388315558433533,0.15646135807037354,0.05071888118982315,0.10099101811647415,-0.41101139783859253,-0.16543343663215637,-0.13434715569019318,0.28903183341026306,-0.2761407196521759,-0.18233592808246613,0.16201500594615936,-0.13053765892982483,0.13070014119148254,0.002556490944698453,-0.13894467055797577,0.02812180109322071,0.055700384080410004,0.2719159722328186,-0.20596003532409668,0.1804484874010086,0.014909419231116772,0.04683549702167511,0.33349013328552246,0.0562114492058754,0.03223438560962677,-0.0016072479775175452,-0.01094104629009962,0.11479642987251282,-0.1580561399459839,-0.04031424596905708,-0.02750357985496521,-0.05217253416776657,-0.015469921752810478,0.015607084147632122,-0.38248687982559204,-0.13066011667251587,0.008790318854153156,-0.11908487975597382,-0.027529697865247726,-0.2675398886203766,-0.3611038327217102,0.6947978138923645,0.500420868396759,-0.4918118715286255,0.04574783518910408,-0.14132007956504822,-0.16169223189353943,0.4911966025829315,-0.7135999798774719,0.9023756384849548,0.6998536586761475,0.060309723019599915,-0.35280585289001465,0.33974772691726685,-0.8962607979774475,0.10430941730737686,-0.2650027573108673,0.08313816785812378,-0.4868510663509369,0.05414804443717003,0.28135597705841064,0.19844627380371094,-0.16009759902954102,0.23128247261047363,0.33673614263534546,0.196913480758667,0.14687992632389069,-0.2257363349199295,0.17130038142204285,-0.16221000254154205,-0.1575794368982315,0.4953247010707855,0.10929421335458755,-0.0032040674705058336,0.11810220032930374,0.42388370633125305,0.0316048264503479,0.013917394913733006,-0.1481621116399765,-0.37557175755500793,-0.21918244659900665,-0.31503283977508545,-0.2207927107810974,-0.18783484399318695,-0.21345089375972748,0.2530532777309418,0.11597923189401627,-0.7039228677749634,-0.07416603714227676,0.3043595850467682,-0.19626358151435852,-0.0010264490265399218,-0.4281765818595886,-0.02999410592019558,-0.6307672262191772,-0.07698316127061844,0.032076187431812286,-0.2919076085090637,-0.1762734055519104,0.6480652093887329,-0.14783114194869995,0.1588268131017685,0.1345251500606537,0.06357825547456741,-0.04353761672973633,0.06176062300801277,-0.10111327469348907,-0.34082382917404175,0.1994522362947464,-0.1464012712240219,0.1249035969376564,0.19614648818969727,0.09016856551170349,0.10739824175834656,0.4611150324344635,0.30242329835891724,0.15683597326278687,0.06447325646877289,0.00039699269109405577,0.29967233538627625,-0.25369036197662354,-0.007259991019964218,-0.23799756169319153,0.30686694383621216,-0.09962742775678635,0.48760706186294556,0.14917610585689545,0.11698625981807709,-0.030668649822473526,-0.43042856454849243,-0.09555382281541824,-0.3550557792186737,0.06647300720214844,0.22682592272758484,-0.0014422257663682103,-0.16095322370529175,0.03428616002202034,0.2170126885175705,0.03102816268801689,0.025998199358582497,-0.3600810766220093,0.12145048379898071,-0.05824882537126541,-0.22670802474021912,-0.2828916609287262,-0.27236926555633545,-0.23698998987674713,0.3565150797367096,0.24375861883163452,0.3603510856628418,0.20195500552654266,-0.1182091161608696,0.01202083844691515,-0.03360528126358986,-0.19419436156749725,0.06293429434299469,-0.020464610308408737,0.11532197147607803,0.09536180645227432,-0.15791845321655273,0.12470433861017227,0.13970665633678436,-0.25311362743377686,0.0235210619866848,-0.20825152099132538,0.11310064047574997,0.16489805281162262,0.1703307330608368,0.1584973931312561,-0.2681005895137787,-0.47772613167762756,0.16918835043907166,-0.07125407457351685,-0.049482543021440506,-0.090748630464077,0.26438403129577637,0.2626056373119354,-0.06603007763624191,0.41264423727989197,-0.1431932896375656,-0.03078995831310749,-0.04922416806221008,-0.12264217436313629,-0.3010518252849579,0.3155065178871155,-0.014981446787714958,0.15037518739700317,0.03458777442574501,-0.046903062611818314,-0.19902847707271576,-0.0842323899269104,-0.04947812855243683,0.08000399172306061,0.2259833663702011,0.2844409942626953,-0.09121721237897873,-0.022806555032730103,-0.11922311782836914,-0.0025356640107929707,0.0669829398393631,0.005195729900151491,-0.05388619750738144,0.09566889703273773,0.1708149015903473,0.0913754478096962,-0.13796742260456085,-0.19868305325508118,-0.08378534764051437,0.06197609007358551,0.1680334359407425,-0.08896118402481079,-0.058528829365968704,-0.1072467565536499,0.11906475573778152,-0.38605445623397827,0.269050657749176,-0.25576549768447876,-0.11149157583713531,-0.6495225429534912,0.1107388585805893,-0.12103403359651566,0.22402164340019226,0.07872563600540161,0.14462393522262573,0.19109731912612915,-0.2820644676685333,0.03159753978252411,0.058122459799051285,-0.22373461723327637,0.05317491665482521,0.3957274556159973,-0.21458670496940613,-0.06634365767240524,-0.015501454472541809,0.1294831931591034,-0.28743717074394226,0.31789976358413696,0.1582743376493454,-0.09270059317350388,-0.02326221391558647,-0.06727482378482819,-0.11086992174386978,0.42419761419296265,-0.154144287109375,-0.2360895574092865,-0.03732624277472496,0.02430327609181404,-0.6438138484954834,-0.35259929299354553,0.187686488032341,-0.16035713255405426,-0.17257046699523926,0.2568542957305908,-0.3592867851257324,-0.4154180586338043,0.11671215295791626,0.2945147454738617,-0.026951264590024948,0.3477683365345001,0.20321403443813324,0.09034396708011627,0.08419127762317657,-0.18557919561862946,-0.07947725057601929,0.08321032673120499,0.07310542464256287,-0.1413070112466812,0.021360663697123528,-0.21641217172145844,0.20916418731212616,-0.12573941051959991,-0.08120127767324448,-0.04625531658530235,0.21461836993694305,-0.3904944360256195,0.24320974946022034,0.1980762481689453,0.14676205813884735,0.0958598256111145,0.07825278490781784,0.11556591838598251,-0.21963892877101898,0.17578931152820587,-0.2015354186296463,0.15380848944187164,0.14527477324008942,-0.32366743683815,0.17268705368041992,0.11624298244714737,0.1934301257133484,0.39549720287323,-0.20750576257705688,0.17147061228752136,-0.2593556344509125,-0.17833060026168823,0.08885911852121353,0.04261673241853714,-0.09713706374168396,-0.13306744396686554,-0.053189169615507126,-0.12980251014232635,0.14510713517665863,-0.3573281764984131,-0.05041635036468506,0.008959274739027023,-0.11770817637443542,0.348017156124115,-0.04812542721629143,-0.07282093167304993,-0.14126364886760712,0.2890106439590454,0.06338737905025482,-0.22578203678131104,-0.1041446253657341,0.27963653206825256,-0.17389485239982605,-0.14464189112186432,-0.05946917459368706,0.09708312898874283,-0.04272233322262764,-0.1437767744064331,-0.00871998816728592,0.2612781524658203,0.3277864456176758,0.09559572488069534,0.23383373022079468,0.19596044719219208,-0.3834516108036041,0.05645304545760155,0.05882318690419197,0.14774087071418762,-0.15343579649925232,0.2109174132347107,0.1806095838546753,0.12755632400512695,-0.06514013558626175,-0.1515108048915863,0.23654645681381226,0.054087258875370026,0.24731752276420593,-0.060470301657915115,0.003243837272748351,0.19892586767673492,-0.1640695333480835,0.15843509137630463,0.04370909184217453,-0.0648813247680664,-0.2204291969537735,-0.1878472864627838,-0.07134126871824265,0.12826472520828247,-0.06456611305475235,-0.09530695527791977,-0.15448181331157684,0.27369824051856995,0.04096964746713638,0.015262720175087452,-0.20605389773845673,0.03044934570789337,0.11289950460195541,-0.21409282088279724,-0.04674091190099716,-0.14232231676578522,-0.48821091651916504,0.12496167421340942,-0.11629842221736908,-0.0734369233250618,0.010468842461705208,-0.22115002572536469,-0.16244462132453918,0.24451382458209991,-0.1884051412343979,-0.09922128915786743,0.0022369923535734415,0.13249889016151428,0.07231824100017548,0.2814774811267853,0.10780415683984756,0.48161637783050537,-0.19285152852535248,-0.1281546652317047,0.5505368709564209,-0.23263691365718842,0.1721564531326294,0.011224957183003426,0.21289072930812836,0.08788256347179413,0.2903806269168854,-0.02552103064954281,0.2509007453918457,-0.0053119780495762825,-0.11212453991174698,0.08434969931840897,-0.10430601984262466,0.1614179015159607,-0.10538256168365479,0.09164764732122421,-0.3457142412662506,-0.1851528435945511,0.0961875319480896,0.11996223032474518,-0.17095239460468292,-0.08260519802570343,0.12558797001838684,0.18941277265548706,0.1835242062807083,-0.008570470847189426,0.059986505657434464,0.21945780515670776,0.25809064507484436,-0.27785924077033997,-0.14027222990989685,0.00788441114127636,-0.053138069808483124,-0.2432340830564499,0.04091284051537514,-0.25538620352745056,0.24174252152442932,-0.03953126445412636,-0.15191428363323212,-0.026083650067448616,-0.22524532675743103,-0.08048296719789505,-0.3521757423877716,-0.027173765003681183,-0.007246662396937609,0.06917153298854828,-0.16259250044822693,-0.2629166543483734,-0.0003662309318315238,-0.00221453164704144,0.1276576817035675,-0.08428020030260086,0.2280832976102829,0.13829384744167328,-0.02528737671673298,-0.10539015382528305,0.019633008167147636,-0.028779366984963417,-0.24685880541801453,-0.04300219565629959,0.054685015231370926,0.040556252002716064,-0.15019163489341736,-0.017604846507310867,0.04220059886574745,0.17935438454151154,-0.08886271715164185,0.1251174360513687,0.14670947194099426,-0.16474182903766632,-0.2994638979434967,-0.07815654575824738,-0.17083007097244263,0.11532402783632278,-0.19221797585487366,-0.11517385393381119,0.13919177651405334,0.08952190726995468,-0.12240985035896301,0.20034480094909668,0.15226425230503082,-0.11416646093130112,-0.07256359606981277,-0.09141426533460617,-0.22122283279895782,0.24246080219745636,0.045720916241407394,-0.017529603093862534,0.14288018643856049,0.05553022772073746,0.17461054027080536,0.03937479853630066,-0.08887220919132233,-0.18415477871894836,-0.10399686545133591,0.4417957365512848,-0.15833352506160736,-0.12008865177631378,-0.14760428667068481,0.10879355669021606,0.030825050547719002,-0.14601626992225647,-0.20997805893421173,0.011474424041807652,-0.2198798954486847,-0.18645073473453522,-0.0558602437376976,0.12472599744796753,0.08530686050653458,-0.028409210965037346,0.0421072319149971,-0.08341315388679504,0.07047215104103088,0.3340657949447632,0.3262941539287567,-0.03394535928964615,-0.08653979748487473,-0.30113035440444946,0.041689638048410416,0.10265754908323288,-0.14224812388420105,-0.014139777049422264,0.039785273373126984,0.5386936664581299,0.22517721354961395,0.2874562442302704,0.2484818398952484,0.33998727798461914,-0.11209618300199509,0.0357801727950573,-0.07273197919130325,-0.2862442433834076,0.10834933072328568,0.34195464849472046,0.04675181582570076,0.13676227629184723,0.18689589202404022,0.050973523408174515,0.5233287811279297,0.06297226250171661,-0.03528353571891785,-0.044577740132808685,0.3935689330101013,0.22155971825122833,0.052800316363573074,0.20118071138858795,0.17885051667690277,0.25459229946136475,-0.13613758981227875,-0.012841243296861649,0.051260195672512054,0.1004975214600563,-0.1017206460237503,-0.17921799421310425,0.11360348761081696,0.05416518822312355,-0.1426287591457367,0.013355576433241367,0.0400179959833622,0.11527984589338303,0.12624645233154297,-0.10779362171888351,-0.14584878087043762,-0.06865852326154709,-0.13347436487674713,-0.08448396623134613,0.0868690013885498,0.2946954667568207,0.12318980693817139,0.1385461986064911,-0.005894457455724478,0.15114131569862366,0.07621746510267258,-0.09421182423830032,0.248758465051651,-0.06657527387142181,-0.1339016705751419,-0.013700424693524837,-0.1506633311510086,-0.09067543596029282,0.4933675229549408,-0.029080668464303017,0.34908801317214966,0.1808922439813614,-0.14191603660583496,-0.10341840237379074,0.20843522250652313,-0.13818666338920593,-0.18355520069599152,0.011796071194112301,-0.0934799388051033,0.2206970900297165,-0.0027121095918118954,0.10097368061542511,0.27088701725006104,0.026076167821884155,0.012600397691130638,-0.061179082840681076,0.058941345661878586,-0.06702052056789398,0.09300723671913147,-0.11740265786647797,-0.11368745565414429,0.025582825765013695,-0.12088906764984131,-0.10613003373146057,-0.10843934118747711,-0.12171617150306702,-0.14602503180503845,0.11638439446687698,-0.07826225459575653,-0.015382768586277962,-0.1318005472421646,-0.06328851729631424,0.2221822291612625,0.10984737426042557,-0.028582928702235222,-0.20598742365837097,-0.06003241240978241,-0.009404491633176804,-0.1174323633313179,0.23256130516529083,-0.16708296537399292,-0.054075937718153,-0.33325251936912537,0.09199158102273941,-0.12787239253520966,-0.09463009238243103,-0.07757256180047989,0.2085709124803543,0.5148777961730957,0.1213252916932106,0.16029730439186096,0.038251567631959915,-0.17249727249145508,-0.049088239669799805,0.0392269566655159,0.02103651873767376,-0.05767558515071869,-0.503974199295044,0.04745187610387802,0.20779946446418762,-0.0634344145655632,-0.22163651883602142,-0.005133341532200575,0.028690477833151817,0.058631159365177155,-0.07395385205745697,-0.3784618079662323,0.09678027033805847,-0.04293179139494896,-0.11956336349248886,-0.2189054787158966,-0.12739168107509613,0.02667493186891079,0.2551686763763428,0.018553409725427628,-0.22938711941242218,-0.3176054060459137,0.10675996541976929,0.19134116172790527,-0.003808988956734538,-0.09740690886974335,-0.03587634116411209,0.07802101224660873,-0.012626583687961102,0.1455458104610443,-0.07414832711219788,-0.23626689612865448,0.13637198507785797,0.08074972778558731,-0.11801238358020782,0.22778846323490143,-0.32225561141967773,0.15214574337005615,0.08670487254858017,0.05372079089283943,0.13247282803058624,-0.05120614171028137,0.07494543492794037,-0.12469249963760376,-0.44012346863746643,-0.02762102521955967,-0.09789232909679413,-0.018272729590535164,-0.1428445428609848,-0.32223090529441833,0.37080296874046326,-0.22335097193717957,-0.06265906244516373,0.23632754385471344,-0.03440776839852333,0.14858119189739227,-0.06190387159585953,-0.25649747252464294,0.12810233235359192,0.2922755479812622,-0.16744576394557953,-0.10353678464889526,0.041867464780807495,0.10792620480060577,-0.046034254133701324,0.058840613812208176,-0.14445377886295319,-0.09188931435346603,0.21665272116661072,0.36093786358833313,-0.020670004189014435,-0.15592075884342194,-0.13698221743106842,-0.08765456080436707,0.01199774257838726,-0.13525918126106262,0.004268874414265156,-0.04287127032876015,-0.12420515716075897,-0.10134438425302505,0.09940999746322632,0.18951092660427094,0.06126962602138519,-0.0788835883140564,0.1188926249742508,-0.24776199460029602,-0.19632254540920258,-0.039299774914979935,-0.06392242759466171,-0.05519142374396324,0.02536691352725029,-0.018338387832045555,0.4283728301525116,0.006179510150104761,0.3245486319065094,-0.1421814113855362,-0.164423868060112,-0.859614372253418,0.12056449800729752,-0.11006689816713333,-0.437362939119339,0.3444794714450836,0.09661387652158737,0.03231167420744896,-0.19365070760250092,-0.36836519837379456,-0.1547945886850357,-0.07850856333971024,-0.20880179107189178,0.10300517827272415,0.22898724675178528,0.07987766712903976,-0.12319610267877579,-0.10949544608592987,-0.1454470157623291,0.07563009113073349,-0.19609121978282928,0.16297513246536255,-0.015494965016841888,-0.17147570848464966,-0.05032533034682274,0.3832419216632843,-0.04650484770536423,0.07742059230804443,-0.43913865089416504,-0.31033873558044434,0.3978744149208069,0.2641718089580536,-0.0223627220839262,0.18290431797504425,0.24560923874378204,0.03622568026185036,0.04286586120724678,0.05028925836086273,-0.02064809948205948,0.3418143689632416,0.41000959277153015,-0.25546321272850037,0.03651869297027588,-0.43176865577697754,0.17752237617969513,-0.13359123468399048,0.6207536458969116,0.0008012937032617629,0.6754450798034668,-1.0450743436813354,0.20372073352336884,-0.08486152440309525,-0.15836194157600403,-0.09947966784238815,0.042329341173172,0.21600067615509033,0.13508066534996033,0.46896234154701233,0.22463585436344147,0.003932133782655001,0.09400002658367157,-0.12127237766981125,-0.21159423887729645,-0.05115237459540367,-0.08426530659198761,0.1945960372686386,0.2012035846710205,0.45878905057907104,-0.16946221888065338,-0.2700682282447815,-0.05250983685255051,0.18646997213363647,-0.3975910544395447,-0.19873930513858795,-0.04759331792593002,0.058038417249917984,0.5254752039909363,-0.06296785175800323,-0.03373521938920021,0.35529977083206177,-0.17934660613536835,0.045292314141988754,0.44034871459007263,0.02652873657643795,-0.24024033546447754,0.01679176278412342,-0.03720838204026222,-0.016907937824726105,0.8112894296646118,-0.27975717186927795,0.048005055636167526,-0.2261183112859726,-0.11335154622793198,0.4530130922794342,-0.03415025398135185,0.012522767297923565,-0.14000998437404633,0.054588668048381805,0.04164639115333557,0.5244584083557129,0.09060897678136826,0.05579373612999916,0.24955928325653076,0.06292536109685898,-0.16728222370147705,-0.04792343080043793,0.11046953499317169,0.013970623724162579,0.06658033281564713,0.04579642787575722,0.17428803443908691,0.3119570314884186,0.1591862589120865,-0.2835051119327545,0.030444249510765076,-0.0035557199735194445,0.1640598028898239,-0.07715381681919098,-0.05686245858669281,-0.14043761789798737,-0.0617779977619648,0.05827014520764351,-0.04172451049089432,0.2573390305042267,0.15120859444141388,0.001501397811807692,-0.17032824456691742,-0.17050346732139587,-0.18219299614429474,0.5228947401046753,-0.00750510860234499,-0.035149477422237396,0.16602784395217896,-0.08677618950605392,0.02753150463104248,-0.3516872823238373,-0.01798536442220211,0.11553703248500824,-0.05463641881942749,0.07802369445562363,0.20788267254829407,-0.018718916922807693,0.10191278159618378,0.07489621639251709,0.18411925435066223,0.39765164256095886,-0.09816953539848328,0.2037554234266281,0.09772583097219467,0.29063645005226135,-0.15902914106845856,-0.053535476326942444,0.043411821126937866,0.10760022699832916,-0.002072907518595457,0.022465942427515984,0.09970556199550629,-0.06346157938241959,-0.12964822351932526,-0.1817387342453003,-0.06886802613735199,-0.0660509541630745,0.057521358132362366,-0.030032524839043617,-0.05656205862760544,-0.30248257517814636,-0.2099875807762146,0.07460927218198776,0.09272901713848114,0.05782575160264969,0.10381169617176056,0.12081176787614822,-0.014468975365161896,0.1074334979057312,-0.09659205377101898,0.08909314125776291,-0.058664750307798386,0.15880711376667023,0.013661647215485573,-0.008117222227156162,-0.018355436623096466,-0.01821090839803219,0.21402107179164886,0.01671604812145233,-0.19202643632888794,-0.1301846206188202,0.13868017494678497,0.041764035820961,0.19540013372898102,-0.05754578858613968,-0.13242128491401672,-0.008500318042933941,0.15422724187374115,0.6071205139160156,0.24888576567173004,0.15280748903751373,0.19581128656864166,-0.5340093970298767,-0.2428322732448578,0.24139288067817688,-0.034513428807258606,0.06314854323863983,0.38768455386161804,0.24115771055221558,0.08429175615310669,-0.22322706878185272,-0.303271621465683,-0.2663131058216095,0.37785208225250244,-0.002281495602801442,0.10269543528556824,-0.29550352692604065,0.21647612750530243,-0.32938364148139954,0.10273086279630661,-0.23338191211223602,0.040447697043418884,-0.48551255464553833,-0.08713791519403458,0.03313544765114784,0.652945876121521,0.016594791784882545,0.12740053236484528,0.24815212190151215,0.2121019810438156,0.030675256624817848,0.14694443345069885,-0.18561819195747375,-0.004632357973605394,0.15812784433364868,-0.021856244653463364,0.20170480012893677,-0.26549792289733887,0.008620384149253368,0.2207222431898117,0.06850211322307587,-0.04573443904519081,0.03281690180301666,-0.032918401062488556,0.05606880784034729,-0.04557200148701668,0.0014820434153079987,0.4389859735965729,0.03704060614109039,-0.1139787957072258,0.5308205485343933,-0.05502898246049881,-0.05846933647990227,0.29647934436798096,0.20788224041461945,-0.02720378339290619,0.2540280818939209,0.2493494600057602,0.2045695036649704,-0.07092968374490738,-0.11608434468507767,0.08081129193305969,0.4019094407558441,0.03631081432104111,0.16632935404777527,-0.4294995069503784,-0.23939664661884308,-0.0559861958026886,0.202846497297287,0.059171102941036224,0.04058308154344559,-0.44676855206489563,0.02509944885969162,-0.10944420844316483,0.593047022819519,-0.05430048331618309,-0.25247254967689514,0.14373524487018585,-0.1062963455915451,-0.13867412507534027,-0.01125822588801384,-0.17941969633102417,-0.0002733867440838367,0.32086166739463806,-0.18936942517757416,-0.2193806916475296,-0.057042889297008514,0.07211080938577652,-0.1235060915350914,0.14843600988388062,0.0741795152425766,-0.2597731947898865,0.4203365743160248,-0.3171030879020691,0.21954165399074554,-0.08793369680643082,-0.02364811860024929,-0.017048437148332596,-0.32798275351524353,-0.03251596540212631,-0.18385496735572815,0.15795263648033142,0.11576198786497116,0.15911337733268738,0.3136659860610962,0.04092288389801979,-0.14787134528160095,-0.17947635054588318,0.12797492742538452,-0.12516576051712036,0.14235439896583557,-0.14581069350242615,0.2658814787864685,0.3006826341152191,0.1151638850569725,0.10295760631561279,0.085493303835392,0.04799877107143402,0.4199468791484833,0.11630829423666,-0.08811341226100922,-0.2088194340467453,0.32948416471481323,-0.106282539665699,-0.2849124073982239,-0.07583554089069366,-0.08316485583782196,-0.2553650736808777,-0.2106599360704422,0.11424341797828674,0.179445281624794,0.0262262225151062,-0.25045520067214966,0.012224315665662289,0.16954036056995392,0.026325663551688194,0.12290691584348679,0.1707426756620407,-0.10013344138860703,0.20312489569187164,-0.2511155605316162,-0.25646230578422546,0.14828364551067352,0.3691827952861786,-0.009075624868273735,0.2288462072610855,0.09255756437778473,0.05914130434393883,0.2233513444662094,-0.07091711461544037,0.0045976294204592705,0.2135964184999466,0.02657199092209339,-0.14898982644081116,-0.09268166869878769,0.28885456919670105,0.05482399836182594,0.017134908586740494,-0.2528029680252075,-0.1149556040763855,-0.13452814519405365,-0.16786865890026093,0.09307428449392319,-0.09048435091972351,-0.1291836053133011,-0.10069356113672256,-0.5221490859985352,0.19824747741222382,-0.08096194267272949,0.43846553564071655,-0.4276299476623535,0.06524133682250977,-0.04746050760149956,-0.27860596776008606,-0.1678510457277298,-0.01284676231443882,-0.35772639513015747,-0.10752086341381073,0.17254747450351715,0.013454210944473743,0.15623627603054047,0.11762822419404984,-0.1814432144165039,-0.2770184874534607,0.13705027103424072,0.1794932633638382,-0.018279295414686203,-0.23929719626903534,0.16280384361743927,-0.06010977551341057,0.17091622948646545,0.10230308026075363,-0.20675498247146606,-0.275364488363266,0.12260939925909042,0.13079515099525452,0.03607060760259628,-0.03516726195812225,0.07092497497797012,-0.0480196438729763,-0.015378106385469437,0.09656979143619537,0.8684138059616089,0.42310792207717896,0.6481068134307861,-0.9848049879074097,-0.694550096988678,0.08976534008979797,0.19558389484882355,-0.11010487377643585,0.44542622566223145,0.34751781821250916,-0.9578143358230591,0.4363063871860504,-0.313713014125824,-0.9340670704841614,-0.02014874666929245,-0.10794597119092941,-0.21089275181293488,-0.3535967767238617,0.154273122549057,-0.18510840833187103,0.10950333625078201,0.12912771105766296,-0.06905969977378845,-0.15253281593322754,-0.1332656443119049,0.09599664807319641,-0.1512364000082016,0.032776713371276855,0.047532886266708374,0.06487848609685898,0.07348515093326569,-0.2074221521615982,-0.09590017050504684,-0.09355499595403671,0.11563935875892639,-0.34078437089920044,-0.19080199301242828,-0.1574403941631317,0.26633790135383606,-0.4554923474788666,-0.09402909874916077,-0.046537529677152634,-0.015199738554656506,0.06372259557247162,-0.05590216815471649,0.03836815804243088,0.010947191156446934,0.0287738386541605,0.018113523721694946,0.2814701795578003,0.015329936519265175,-0.5099945664405823,-0.1402023285627365,-0.3145984411239624,0.26289138197898865,-0.14838670194149017,0.016702381893992424,0.16491907835006714,0.030469022691249847,-0.21739619970321655,-0.11739037185907364,0.18074218928813934,-0.4955277740955353,0.18615032732486725,-0.15003760159015656,0.14052221179008484,-0.14506228268146515,0.28109514713287354,0.10195054858922958,0.17503371834754944,0.30031251907348633,0.1894770860671997,0.05070587992668152,-0.08187330514192581,0.06159977987408638,-0.30744668841362,-0.06968513876199722,0.1119629442691803,0.06887539476156235,-0.09055939316749573,0.13617470860481262,0.015322673134505749,-0.04647456109523773,0.12375796586275101,0.5417186617851257,-0.04653066024184227,0.16704578697681427,-0.41139253973960876,0.21588341891765594,0.04086655005812645,0.28856974840164185,0.15728667378425598,-0.17013688385486603,-0.24221569299697876,-0.08883766829967499,-0.1540985256433487,-0.10077473521232605,0.054119862616062164,0.0416451171040535,0.26161766052246094,-0.02985215373337269,0.33349767327308655,-0.21036988496780396,0.13576354086399078,0.05264273285865784,0.19281885027885437,-0.40824955701828003,0.1976967602968216,-0.1410408318042755,-0.0011897643562406301,-0.15263591706752777,0.028766632080078125,-0.009093310683965683,-0.31099724769592285,0.13179072737693787,-0.3683789372444153,-0.06733555346727371,0.003373366314917803,0.13226521015167236,-0.04406498000025749,-0.1675609052181244,0.2269238829612732,0.12932035326957703,0.10687772184610367,0.03539258986711502,0.08950373530387878,-0.01470981165766716,-0.05763549730181694,-0.09083081781864166,0.3072173297405243,-0.417144238948822,0.3576745092868805,0.17685465514659882,-0.0884755328297615,-0.08170200139284134,0.19466157257556915,0.20289379358291626,-0.03939962759613991,0.08242971450090408,-0.007434315048158169,-0.06733736395835876,-0.07493837177753448,0.09029405564069748,-0.05929984524846077,-0.3043368458747864,-0.10072868317365646,0.0433235727250576,-0.02935924381017685,0.2492806762456894,-0.007348214276134968,-0.09972164779901505,-0.03410833328962326,-0.1929842233657837,0.01738889329135418,-0.17681114375591278,-0.3100792169570923,0.3577970862388611,0.19959703087806702,0.00829953234642744,0.17065516114234924,0.010078530758619308,0.13156190514564514,-0.1518852561712265,-0.041344210505485535,-0.3871863782405853,0.07683922350406647,-0.32289496064186096,0.20566852390766144,0.053125180304050446,0.03567386791110039,0.12636588513851166,-0.2754502296447754,0.10410993546247482,-0.03361930698156357,-0.062240034341812134,-0.21775268018245697,-0.11317239701747894,0.042470525950193405,-0.07512816041707993,-0.0928981751203537,-0.10405761003494263,0.08259818702936172,0.18536125123500824,-0.3470644950866699,0.4294610619544983,-0.006258710287511349,-0.4431596100330353,-0.029048988595604897,-0.1259326934814453,0.2022617906332016,0.14494487643241882,0.028655704110860825,0.04332031309604645,0.11925145238637924,0.04743310064077377,-0.17679263651371002,-0.13294601440429688,-0.34638288617134094,0.0983026847243309,-0.10941246151924133,-0.2151636779308319,0.10414979606866837,0.20639151334762573,0.24033458530902863,-0.0005656208959408104,0.3548738658428192,-0.026386035606265068,-0.09937785565853119,0.09330050647258759,0.15588921308517456,0.05810761824250221,0.235452339053154,-0.279203861951828,0.20494744181632996,-0.04408879950642586,0.05938572809100151,0.4575732350349426,-0.21495456993579865,-0.10213985294103622,-0.10212723910808563,-0.39978286623954773,0.28289759159088135,0.20757603645324707,0.0003366863529663533,-0.10940573364496231,0.0231773778796196,-0.045469462871551514,0.25295913219451904,0.016452495008707047,0.20209483802318573,-0.07248561084270477,0.10912813246250153,0.019372859969735146,0.2769456207752228,0.05863901972770691,-0.0885431095957756,0.006850878242403269,-0.053358010947704315,-0.1532517820596695,0.06584088504314423,0.4263571798801422,0.144542396068573,0.10516682267189026,0.0017040688544511795,-0.25609090924263,-0.36423400044441223,0.13210906088352203,-0.0606878399848938,-0.10832510143518448,0.18143759667873383,-0.43429920077323914,-0.07545721530914307,0.28012529015541077,-0.11768730729818344,0.048377733677625656,0.09968569874763489,-0.12910760939121246,0.2417358160018921,-0.1938687264919281,0.12024856358766556,0.009172630496323109,-0.2813595235347748,0.5454947352409363,-0.32408323884010315,-0.2848922908306122,-0.010016350075602531,-0.12020828574895859,0.023045113310217857,0.21799738705158234,0.1577911525964737,-0.1491951197385788,0.11542569100856781,-0.21455320715904236,-0.22307351231575012,0.08242250233888626,0.150370255112648,-0.023421550169587135,-0.0034728962928056717,-0.16126860678195953,0.1703873723745346,-0.02188923954963684,0.10657679289579391,-0.0392291359603405,0.10329596698284149,0.0913882702589035,-0.1556510180234909,0.044680651277303696,0.1268317550420761,0.01158121321350336,0.12797215580940247,-0.012488186359405518,-0.02777399867773056,-0.05465354397892952,0.03359810635447502,0.01284184679389,0.5491410493850708,-0.13823290169239044,-0.053742557764053345,0.08891593664884567,0.09138869494199753,0.03858603537082672,0.11851392686367035,0.16371914744377136,0.2109859138727188,-0.02426060102880001,0.07154645770788193,0.11505945026874542,-0.09637417644262314,0.09182146936655045,0.0635388121008873,0.3419845700263977,0.0019248641328886151,-0.07270929217338562,-0.1444319188594818,0.08605221658945084,0.054493870586156845,-0.12121368199586868,0.07460585981607437,0.05967353284358978,-0.1266309767961502,0.08117949217557907,0.03340131416916847,-0.15932463109493256,-0.22061431407928467,-0.2564537525177002,0.18265150487422943,0.12893475592136383,-0.1062396764755249,-0.08835384249687195,0.04695923998951912,-0.03202519938349724,0.013273285701870918,0.03728765249252319,-0.026538897305727005,0.12807844579219818,-0.02210954762995243,0.08450309932231903,0.1993604153394699,-0.0700485110282898,0.30145618319511414,-0.1751645803451538,-0.08902956545352936,-0.030554288998246193,0.07384020835161209,0.47553551197052,-0.25538694858551025,0.09987600147724152,0.171086847782135,0.19940906763076782,-0.16692796349525452,-0.30698564648628235,0.2806376516819,0.007738372310996056,-0.20819345116615295,-0.18588684499263763,0.11506921797990799,0.3330763876438141,0.0837196484208107,0.12028180807828903,-0.23049594461917877,-0.22838225960731506,0.1498207002878189,0.35934001207351685,-0.18242564797401428,0.09999123215675354,0.221042662858963,-0.2141103893518448,-0.37321004271507263,-0.5106967687606812,-0.1354532539844513,0.047707561403512955,0.0663817822933197,0.036417342722415924,0.14708232879638672,-0.8043861985206604,-0.17482821643352509,-0.007596873212605715,0.3168586492538452,0.062123727053403854,-0.14319567382335663,0.6470440626144409,0.2601449191570282,-0.043142907321453094,0.09130717068910599,-0.0455443374812603,0.15158264338970184,-0.1400345414876938,0.03461168706417084,0.11802250146865845,0.15719519555568695,-0.08077564835548401,-0.14739248156547546,-0.17786386609077454,-0.06974940747022629,-0.007661822717636824,0.011868741363286972,-0.15487074851989746,-0.22777462005615234,-0.015392954461276531,-0.11585553735494614,0.17163513600826263,0.06339898705482483,0.042313024401664734,0.062287263572216034,0.01845434121787548,-0.0339014045894146,-0.3793119490146637,0.522948145866394,0.05805310234427452,-0.1801144778728485,0.08679156005382538,-0.01954822614789009,-0.13454358279705048,0.07003115862607956,0.09081858396530151,-0.03464088216423988,0.25046366453170776,0.11653502285480499,-0.056610751897096634,-0.058365579694509506,0.02439313568174839,-0.0921020656824112,-0.31013187766075134,0.07137858122587204,-0.18895477056503296,0.37106630206108093,-0.1956830769777298,-0.403080552816391,0.05835486948490143,-0.06427325308322906,-0.24082231521606445,0.009388968348503113,-0.18067286908626556,-0.4463810324668884,0.05002303421497345,-0.18625575304031372,0.042937468737363815,-0.2144642323255539,0.024701885879039764,0.5754645466804504,-0.11174319684505463,0.1965649574995041,-0.2927006185054779,0.05097467079758644,-0.17149880528450012,0.0668831467628479,0.13476920127868652,-0.18604259192943573,0.2688726782798767,0.1445235162973404,0.0808509960770607,-0.20532214641571045,0.03985854983329773,0.10769511014223099,-0.10950988531112671,-0.15521007776260376,0.13907179236412048,-0.1386614590883255,-0.010141727514564991,-0.00022196804638952017,0.10274714976549149,-0.10100492089986801,-0.13538990914821625,-0.10089150816202164,-0.06476075202226639,-0.14213597774505615,-0.31319209933280945,-0.044141631573438644,0.13061125576496124,0.03592792525887489,0.08920825272798538,0.11811172962188721,0.05897974967956543,-0.1318017989397049,0.03534639999270439,-0.4455808401107788,0.010555928573012352,-0.12592534720897675,0.13011087477207184,0.1561410278081894,0.23827619850635529,0.49263250827789307,0.027619069442152977,0.20697899162769318,-0.02136366441845894,0.0493609681725502,0.015481951646506786,0.8804277777671814,0.19093187153339386,-0.25864261388778687,0.2487620711326599,0.16484834253787994,0.12385236471891403,-0.05583671107888222,0.06191759929060936,0.32747307419776917,-0.008646666072309017,-0.09925861656665802,0.10099577158689499,0.08650155365467072,0.02486891858279705,-0.06351412087678909,-0.16705137491226196,-0.012254471890628338,-0.14348256587982178,0.07135307043790817,0.232293039560318,0.013832535594701767,-0.378413587808609,0.2004779875278473,-0.19640210270881653,0.18658310174942017,-0.05478249117732048,0.07626500725746155,0.2980221211910248,-0.16880610585212708,-0.11493638157844543,0.6228063106536865,-0.012790597975254059,-0.22077621519565582,0.08805779367685318,0.043235745280981064,-0.17663657665252686,-0.39978551864624023,-0.013176636770367622,-0.01163538359105587,0.03931007161736488,-0.07809919863939285,0.0463404543697834,0.054360613226890564,-0.15344059467315674,0.04497507959604263,-0.04856577143073082,0.29456424713134766,0.008226873353123665,-0.15893545746803284,-0.0924316793680191,-0.10008101165294647,0.057182759046554565,0.0707087516784668,0.18729278445243835,-0.04913951829075813,-0.32675403356552124,0.10310997068881989,-0.10439354926347733,-0.15358297526836395,0.08126797527074814,-0.20128469169139862,0.016599541530013084,-0.04775417223572731,-0.08476541936397552,-0.2389863282442093,-0.1869180053472519,-0.14015312492847443,0.05228244513273239,-0.09144917130470276,-0.11600987613201141,0.08526638895273209,0.13279937207698822,0.1298552006483078,0.0559457466006279,-0.11850619316101074,0.13279218971729279,0.01051295269280672,-0.13386747241020203,-0.07839956879615784,0.11264870315790176,-0.30621427297592163,-0.12972746789455414,-0.18370765447616577,0.052026376128196716,0.19565224647521973,0.06279155611991882,0.17596203088760376,0.02233169786632061,-0.29043012857437134,0.23492825031280518,0.28157737851142883,-0.020555727183818817,0.041813336312770844,-0.050286877900362015,-0.42004597187042236,-0.008473986759781837,-0.10886914283037186,-0.3131561279296875,-0.1559593230485916,-0.24488283693790436,0.21112409234046936,0.013998293317854404,0.19496414065361023,-0.3925611078739166,0.043491143733263016,0.09377209097146988,0.028569316491484642,-0.057319190353155136,0.08016490191221237,-0.20775480568408966,-0.2656342685222626,-0.3285785913467407,-0.2395056039094925,-0.10172349959611893,-0.0335044339299202,0.15914787352085114,0.07255925238132477,0.0954364761710167,-0.10043422877788544,0.007382489275187254,0.19218331575393677,-0.13816030323505402,0.05706626921892166,-0.0488770492374897,-0.07276897132396698,-0.2164226472377777,-0.163141667842865,0.1471913605928421,-0.0544506311416626,0.035843197256326675,0.05089327320456505,-0.1869754195213318,-0.21961520612239838,-0.12507930397987366,-0.15413103997707367,-0.16565664112567902,-0.1235390454530716,-0.009847345761954784,0.29767292737960815,0.02916238270699978,-0.12061714380979538,-0.08067740499973297,0.4161794185638428,-0.07613999396562576,-0.07157371193170547,0.28398582339286804,0.2085547298192978,0.18645094335079193,-0.27719542384147644,-0.28660154342651367,0.029131688177585602,0.4285329580307007,-0.06162383034825325,-0.038274239748716354,-0.015599323436617851,0.041707418859004974,-0.037679966539144516,-0.21431690454483032,-0.1222943440079689,0.1340537965297699,-0.06595395505428314,-0.035109054297208786,-0.020290829241275787,-0.15658804774284363,0.07125623524188995,-0.06283824145793915,0.08016999810934067,-0.21474841237068176,0.0831531509757042,0.2752487361431122,-0.11352509260177612,0.12638740241527557,0.14788024127483368,0.12376247346401215,0.04880927503108978,-0.1446017622947693,0.29038184881210327,0.19543662667274475,-0.3035215735435486,-0.058988895267248154,-0.10996994376182556,0.15751297771930695,-0.18582215905189514,0.04872007295489311,0.16057464480400085,-0.088292695581913,0.35624295473098755,0.0031473576091229916,0.24769720435142517,-0.027910180389881134,0.19679993391036987,-0.04193832725286484,-0.680621862411499,-0.026250770315527916,-0.052079781889915466,0.1860971599817276,-0.10170301049947739,0.030549993738532066,-0.11087910085916519,0.2262256145477295,0.0063659497536718845,-0.3299052119255066,0.2020622044801712,0.15077553689479828,-0.06899422407150269,-0.00691918795928359,-0.05333257094025612,-0.06355448812246323,0.0499357245862484,0.12485619634389877,0.08846066147089005,-0.07686489820480347,-0.058486733585596085,-0.28889158368110657,-0.003998889587819576,0.13696397840976715,0.054195210337638855,0.0896671861410141,0.10631010681390762,0.2450898140668869,0.025253918021917343,-0.08659281581640244,-0.25362107157707214,0.011856659315526485,0.04094516113400459,0.05646941438317299,-0.10272213071584702,-0.07964228093624115,0.2070973515510559,0.10238763689994812,-0.1133996844291687,0.18448999524116516,0.3420182168483734,0.15262724459171295,0.19049155712127686,-0.029781047254800797,-0.07082365453243256,-0.054096855223178864,-0.09243208169937134,0.0909503698348999,0.3799268901348114,0.05369195714592934,-0.061787813901901245,-0.1091737225651741,-0.04989136382937431,0.3125527799129486,-0.7130424976348877,-0.14913374185562134,0.036374613642692566,0.11662415415048599,-0.16026683151721954,-0.17858995497226715,0.2509896457195282,0.038250766694545746,-0.10009311139583588,-0.1913715898990631,-0.0341351181268692,-0.07741235196590424,0.49786660075187683,0.29171884059906006,0.05369140952825546,-0.14966432750225067,0.09593688696622849,-0.09233290702104568,-0.7210056781768799,0.042998701333999634,0.2099902182817459,0.6495128273963928,-0.09849540889263153,0.005462019704282284,-1.3002268075942993,-0.03458191826939583,-0.18474529683589935,-0.07648294419050217,0.012937087565660477,0.06797716021537781,0.44212013483047485,-0.21964654326438904,0.23979149758815765,0.6260177493095398,-0.21701350808143616,-0.09673517942428589,-0.4203537106513977,0.10668490082025528,0.17295368015766144,-0.19809889793395996,-0.009954839013516903,0.053917113691568375,-0.43415459990501404,-0.0765065848827362,-0.03470195457339287,-0.17776533961296082,0.2324511706829071,-0.023475637659430504,0.18306434154510498,0.10783559828996658,-0.024496573954820633,0.44473689794540405,0.040299516171216965,-0.08138294517993927,-0.39099350571632385,-0.034940626472234726,0.0415649339556694,0.3726474940776825,-0.025412309914827347,0.18472211062908173,-0.12878544628620148,-0.022317498922348022,0.20608510076999664,-0.1389656811952591,0.05257585644721985,0.08064976334571838,0.3152550756931305,-0.008720462210476398,0.06648397445678711,0.05500979721546173,-0.3412269353866577,0.07283516973257065,-0.14588388800621033,-0.05546847730875015,0.11876945942640305,0.5593885183334351,0.3031853437423706,0.0004211534687783569,0.16429288685321808,0.0016355576226487756,-0.2926461100578308,0.011783347465097904,0.04680804908275604,0.13339625298976898,0.12110944092273712,0.10498376935720444,0.05572748929262161,-0.09307850897312164,-0.1481768637895584,0.0135811110958457,0.016157502308487892,0.29316192865371704,-0.113739512860775,-0.160965234041214,-0.042080510407686234,-0.04922458156943321,0.2223087102174759,0.22857613861560822,-0.14861136674880981,-0.02860300987958908,0.14416562020778656,0.10295408964157104,0.09990667551755905,0.028232358396053314,